tree
version=v4
num_class=1
num_tree_per_iteration=1
label_index=0
max_feature_idx=246
objective=regression_l1
feature_names=Column_0 Column_1 Column_2 Column_3 Column_4 Column_5 Column_6 Column_7 Column_8 Column_9 Column_10 Column_11 Column_12 Column_13 Column_14 Column_15 Column_16 Column_17 Column_18 Column_19 Column_20 Column_21 Column_22 Column_23 Column_24 Column_25 Column_26 Column_27 Column_28 Column_29 Column_30 Column_31 Column_32 Column_33 Column_34 Column_35 Column_36 Column_37 Column_38 Column_39 Column_40 Column_41 Column_42 Column_43 Column_44 Column_45 Column_46 Column_47 Column_48 Column_49 Column_50 Column_51 Column_52 Column_53 Column_54 Column_55 Column_56 Column_57 Column_58 Column_59 Column_60 Column_61 Column_62 Column_63 Column_64 Column_65 Column_66 Column_67 Column_68 Column_69 Column_70 Column_71 Column_72 Column_73 Column_74 Column_75 Column_76 Column_77 Column_78 Column_79 Column_80 Column_81 Column_82 Column_83 Column_84 Column_85 Column_86 Column_87 Column_88 Column_89 Column_90 Column_91 Column_92 Column_93 Column_94 Column_95 Column_96 Column_97 Column_98 Column_99 Column_100 Column_101 Column_102 Column_103 Column_104 Column_105 Column_106 Column_107 Column_108 Column_109 Column_110 Column_111 Column_112 Column_113 Column_114 Column_115 Column_116 Column_117 Column_118 Column_119 Column_120 Column_121 Column_122 Column_123 Column_124 Column_125 Column_126 Column_127 Column_128 Column_129 Column_130 Column_131 Column_132 Column_133 Column_134 Column_135 Column_136 Column_137 Column_138 Column_139 Column_140 Column_141 Column_142 Column_143 Column_144 Column_145 Column_146 Column_147 Column_148 Column_149 Column_150 Column_151 Column_152 Column_153 Column_154 Column_155 Column_156 Column_157 Column_158 Column_159 Column_160 Column_161 Column_162 Column_163 Column_164 Column_165 Column_166 Column_167 Column_168 Column_169 Column_170 Column_171 Column_172 Column_173 Column_174 Column_175 Column_176 Column_177 Column_178 Column_179 Column_180 Column_181 Column_182 Column_183 Column_184 Column_185 Column_186 Column_187 Column_188 Column_189 Column_190 Column_191 Column_192 Column_193 Column_194 Column_195 Column_196 Column_197 Column_198 Column_199 Column_200 Column_201 Column_202 Column_203 Column_204 Column_205 Column_206 Column_207 Column_208 Column_209 Column_210 Column_211 Column_212 Column_213 Column_214 Column_215 Column_216 Column_217 Column_218 Column_219 Column_220 Column_221 Column_222 Column_223 Column_224 Column_225 Column_226 Column_227 Column_228 Column_229 Column_230 Column_231 Column_232 Column_233 Column_234 Column_235 Column_236 Column_237 Column_238 Column_239 Column_240 Column_241 Column_242 Column_243 Column_244 Column_245 Column_246
feature_infos=[0:59] [0:1541.9156841823044] [-1:1] [0:4950.0500000000002] [0:6293.5012846411837] [0:5002.0600000000004] [0:5002.0600000000004] [1.1100000000000001:4949.04] [3.1952327434210506e-06:244.70859082200923] [1.1200000000000001:4951.3999999999996] [3.2525429315745143e-06:258.87333777364455] [0:6375.8856832787451] [0:6377.4020828838729] [0:inf] [0:inf] [6.74025372770619e-05:301.9775579149981] [0.00021409254127476482:509.4552274124344] [0.00011908212641976094:12917.779554904862] [8.2613283734712351e-05:12308.167359408395] [0:3498596.3686005948] [0:3498596.3686005948] [2.9863229990232336e-05:6377.5240093880147] [3.0577296608002389e-05:6376.2972260903116] [0.0010821228330219737:12647.972358967319] [0.0019626113233637901:24645.834279522591] [0.00012921126985864157:493.55789678475793] [0:12647.545125881761] [0:6997192.7372011896] [1.1150000000000002:4949.915] [0:5002.0600000000004] [-95.150000000000034:13.649999999999636] [0.69494405437465923:1.0521739130434784] [-1541.9156841823044:712.74776412116194] [-179:inf] [0:1717.2497208171997] [-1717.2497208171997:626.69255806115598] [-inf:inf] [-inf:inf] [-71.496302601350692:228.66719040531848] [0:5745001] [0:1742368] [0:38340985] [0:24085835] [0:207617.33333333331] [0:1917999.5499999998] [0:38340985] [0:24085835] [0:38349034.75540626] [0:24085835] [-0.99982760106887325:0.99993212516120278] [-0.99982747802529026:0.99993218608807666] [-0.99999947944997702:1] [-0.99999947943630241:1] [-1:1] [-1:0.98895027624309395] [-0.9965768078733418:0.9993427538613211] [-0.51745068285280726:1] [-0.077519379844961225:1] [-1:0.00055524708495279223] [-1:0.021367521367521389] [-1:0.010036978341257238] [-1:0.51745068285280726] [-1:0.51745068285280726] [-1:0.51821862348178149] [-1:0.51783455603339235] [-1:0.077519379844961225] [-1:0.081712062256809326] [-1:0.079611650485436836] [-0.17997994968505876:0.025423728813559344] [-0.09888899281846629:0.012552301255230139] [-0.012875536480686706:0.082560369287369054] [2.2356954271834408:17.508438645624686] [-67.964285714285737:11.481308411214773] [-0.12855710691789912:0.01516601481234915] [0:3501138.6082109897] [0:172157.48544562823] [0:3499867.4884057925] [0:220710.61776207722] [0:3499276.1089156256] [0:206544.351440887] [0:3498827.6771332789] [0:219016.21321083987] [0.00036799489517481412:6376.2267288175863] [0:546.08393919431171] [0.001057725361609858:6376.1492308496936] [0:749.94830690478182] [0.001057725361609858:6376.0597336358078] [0:685.30730228800974] [0.001057725361609858:6376.011813831994] [0:842.84439069108532] [-1:0.98895027624309395] [0:0.73858906951827608] [-1:0.98895027624309395] [0:0.70986155904376569] [-1:0.98895027624309395] [0:0.63428141774249847] [-1:0.98895027624309395] [0:0.66625614519225662] [-179:566.73333333333335] [0:243.26634034269296] [-179:566.06666666666661] [0:218.68017760130644] [-179:565.87058823529412] [0:283.60748037075871] [-179:565.87058823529412] [0:265.09083791753676] [-0.99256859407317932:0.99913081269013471] [0:1.0405279676006931] [-0.98675958188153323:0.99750312109862671] [0:1.0405279676006931] [-0.98592672514894208:0.99750312109862671] [0:1.0405279676006931] [-0.98592672514894208:0.97239075125115326] [0:1.0405279676006931] [-1847.3175904041434:745.63577906069656] [0:487.59936568922603] [-2191.6593797910664:745.63577906069656] [0:669.3977046148301] [-2191.6593797910664:745.63577906069656] [0:594.37785371547932] [-2191.6593797910664:745.63577906069656] [0:759.66290468568582] [-1:0.0082564351627003353] [0:0.51663525026324486] [-1:0.0082564351627003353] [0:0.52197198187615557] [-1:0.0082564351627003353] [0:0.51638347457044009] [-1:0.0082564351627003353] [0:0.51638347457044009] [-241.26593048194692:698.95272370156727] [-5.2800000000006548:7.4899999999997817] [-22.999999999999996:inf] [-14.3799999999992:17.319999999999709] [-11.929999999999382:20.219999999999345] [-21.739999999999782:18.400000000000546] [-17.649999999999636:17.5] [-17.539999999999964:12.110000000000582] [-14.9699999999998:14.469999999999345] [-23.349999999999454:19.029999999999745] [-21.140000000000327:17.449999999999818] [-1.0775193798449612:0.03504736944721578] [-1.0775193798449612:0.046404031708502144] [-1.0775193798449612:0.047086753376097627] [-1.0775193798449612:0.062414965986394524] [-38.198983137882664:20.43880383660537] [-38.198983137882664:55.520433140430228] [-38.080944778869906:55.520433140430228] [-38.080944778869906:55.520433140430228] [-382.32353815696803:298.92082645246609] [-379.79229783535726:299.07366302559268] [-301.67188476874492:301.67188476874492] [-369.17983841290044:299.59330737422317] [-15.115000000000236:14.715000000000146] [-13.215000000000146:17.344999999999345] [-22.544999999999163:18.605000000000473] [-19.395000000000437:17.4399999999996] [-60.35735083053082:64.269812063683887] [-60.460722956467748:64.269812063683887] [-60.460722956467748:64.269812063683887] [-60.460722956467748:64.269812063683887] [-0.023710856184867346:0.026200873362445476] [-0.024301336573511634:0.033864158372525432] [-0.040449524226183975:0.033864158372525432] [-0.035327573006671775:0.033864158372525432] [-15558.71019362426:11599.408333333333] [-15558.71019362426:11599.408333333333] [-15558.71019362426:11599.408333333333] [-11598.03337306317:11599.515527950311] [-19.383333333333134:18.989187199093024] [-15.44250882849688:17.389331983805004] [-14.837894736841784:13.037985071462533] [-13.375246753246683:14.364637681159561] [-22.999999999999996:inf] [-inf:inf] [-372.67567567567568:inf] [-22.999999999999996:372.66666666666669] [0:4938.7600000000002] [0:4938.7600000000002] [0:4938.7600000000002] [0:4938.7600000000002] [0:4914.1899999999996] [0:4914.1899999999996] [0:4914.1899999999996] [0:4914.1899999999996] [0:1997.47] [0:1997.47] [0:1997.47] [0:1997.47] [-inf:inf] [-1:1.4302715829675567] [-inf:inf] [-1.0294007489248806:1.4551286100935068] [-inf:inf] [-1.0371816691371607:1.2066386875677588] [-inf:inf] [-1.0155380475906703:1.404201225120421] [-1:1] [-2:2] [-1:1] [-2:2] [-1:1] [-2:2] [-1:1] [-2:2] [-inf:inf] [-578.86572019634627:503.61609360766556] [-inf:inf] [-2957.6577280193014:522.7749450109709] [-inf:inf] [-2235.2999648220093:540.50712737306037] [-inf:inf] [-1731.4965160899999:771.16096486286142] [0.078341013824884786:inf] [-37.628971250932977:60.547208014770533] [0.0030120481927710841:inf] [-37.628971250932977:60.731242081684726] [0.0030120481927710841:inf] [-36.489809534342413:66.348174343825548] [0.0030120481927710841:inf] [-36.489809534342413:101.94712336269228] [0:5000.3571423589719] [0:4996.3586982016677] [0:4992.3512237603854] [0:4988.2980227050648] [0:4998.8890422709155] [0:4993.0182253727198] [0:4984.1790734219676] [0:4977.6432538519994] [-31.881761248173959:1214.2121634758209] [-26.187397601006154:1236.6965797486955] [-12.770558453612807:722.4868911706767] [-31.909727567756875:1220.7932228995355] [-26.501924226058549:1236.4500701517732] [-10.382562672311337:721.97247454331364] [-25.108704770856217:891.92306604902649] [-17.334059178026337:1069.0139411719585] [-12.252232025622455:666.74734709224299] [-25.186911850046222:891.74898719285216] [-13.327154566141809:1068.247232548872] [-10.210147066390912:666.60785589891236] [-217.53985526026804:716.71255482262427] [-167.24416730993562:539.97413819811027] [-65.725547680286695:235.02410915399696] [-217.34279306458905:716.56473035697991] [-167.20937396778629:539.87883894130539] [-65.760188082211812:234.97367609706743]
tree_sizes=2767 2980 3017 3043 3042 3058 3079 3085 3101 3086 3106 3089 3096 3109 3119 3117 3124 3118 3136 3122 3116 3118 3118 3118 3141 3138 3142 3136 3122 3155 3138 3141 3164 3154 3165 3237 3168 3297 3143 3232 3239 3183 3218 3156 3241 3229 3273 3192 3210 3250 3204 3178 3200 3147 3162 3173 3165 3191 3200 3211 3159 3187 3211 3217 3207 3174 3149 3203 3125 3204 3109 3132 3146 3070 3133 3227 3245 3230 3207 3199 3171 3208 3193 3133 3168 3217 3145 3158 3169 3184 3163 3141 3127 3161 3222 3157 3176 3129 3066 3195 3167 3146 3137 3121 3195 3103 3091 3171 3148 3063 3110 3119 3084 2999 3092 3135 3003 3234 3142 3164 3081 3104 3169 3170 3129 3054 3065 3064 3115 3120 3069 3200 3081 3116 3113 3051 3133 3091 3056 3172 3082 3139 3078 3116 3148 3104 3139 3184 3070 3124 3144 3115 3227 3149 3159 3066 3152 3075 3091 3150 3063 3112 3076 3085 3122 3060 3083 3077 3023 3091 3131 3073 3109 3077 3047 3091 3164 3140 3158 3167 3068 3087 3061 3077 3059 3110 3174 3058 3089 3080 3075 3082 3220 3127 3145 3145 3141 3143 3174 3131 3128 3109 3116 3077 3182 3163 3079 3123 3169 3232 3084 3056 3062 3180 3085 3142 3088 3099 3102 3139 3138 3134 3109 3075 3079 3105 3066 3061 3056 3186 3057 3050 3037 3076 3068 3082 3055 3070 3104 3153 3211 3170 3151 3153 3148 3102 3135 3180 3179 3215 3158 3133 3081 3127 3128 3122 3130 3111 3135 3114 3137 3135 3118 3146 3153 3102 3093 3137 3133 3154 3138 3101 3197 3119 3126 3141 3113 3122 3181 3188 3055 3140 3177 3159 3196 3097 3080 3060 3091 3170 3110 3246 3183 3136 3104 3110 3093 3121 3116 3088 3181 3063 3077 3109 3069 3161 3091 3122 3077 3094 3107 3065 3094 3070 3123 3081 3120 3082 3085 3074 3096 3123 3077 3063 3098 3057 3074 3148 3115 3123 3164 3092 3138 3165 3249 3119 3053 3112 3125 3094 3148 3066 3092 3039 3117 3065 3053 3074 3019 3193 3159 3132 3141 3237 3150 3145 3108 3136 3095 3085 3134 3169 3080 3065 3117 3108 3117 3098 3115 3083 3051 3148 3128 3030 2953 3014 3033 3118 3074 3091 3088 3122 3032 3146 3082 3083 3082 3047 3081 3112 3133 3037 3127 3139 3191 3111 3087 3088 3072 3103 3091 3102 3099 3127 3060 3087 3048 3083 3101 3134 3052 3084 3102 3059 3075 3083 3006 3068 3125 3111 3125 3129 3198 3141 3209 3242 3050 3134 3147 3130 3155 3069 3156 3158 3119 3078 3117 3108 3088 3065 3102 3101 3078 3050 3099 3106 3089 3091 3187 3213 3051 3223 3179 3109 3132 3080 3091 3090 3078 3102 3044 3092 3032 3087 3160 3121 3145 3070 3077 3131 3052 3093 3090 3188 3167 3148 3108 3106 3065 3110 3118 3044 3137 3184 3055 3048 3126 3059 3108 3080 3066 3080 3151 3223 3033 3068 3083 3065 3074 3073 3045 3074 3070 3060 3047 3076 3082 3122 3222 3086 3052 3098 3153 3073 3102 3121 3076 3092 3104 3085 3172 3097 3089 3129 3086 3098 3107 3082 3122 3116 3113 3112 3131 3093 3079 3098 3188 3047 3047 3121 3094 3118 3042 3136 3115 3033 3037 3080 3061 3088 3097 3106 3127 3096 3054 3089 3125 3100 3107 3101 3155 3136 3111 3065 3090 3068 3110 3105 3091 3123 3135 3009 3099 3029 3080 3092 3133 3094 3118 3116 3109 3082 3026 3055 3089 3075 3083 3063 3082 3078 3125 3101 3119 3049 3140 3131 3081 3111 3097 3096 3085 3048 3050 3044 3082 3063 3060 3085 3128 3138 3059 3069 3104 2980 2940 3085 3111 3106 3116 3104 3180 3049 3090 3105 3065 3133 3110 3133 3104 3181 3101 3074 3148 3140 3116 3077 3091 3091 3096 3099 3154 3075 3063 3105 3100 3095 3055 3064 3093 3122 3046 3068 3058 3035 3086 3048 3046 3040 3101 3104 3139 3082 3109 3147 3112 3046 3162 3110 3099 3092 3141 3106 3123 3102 3069 3155 3145 3128 3159 3077 3179 3133 3113 3090 3062 3126 3149 3153 3204 3097 3104 3096 3152 3085 3167 3140 3110 3127 3114 3091 3123 3129 3088 3135 3141 3104 3113 3101 3134 3076 3080 3168 3091 3051 3059 3076 3168 3186 3126 3105 3099 3041 3075 3066 3133 3056 3048 3085 3118 3065 3073 3104 3112 3104 3122 3054 3125 3108 3112 3102 3241 3170 3078 3178 3176 3139 3101 3054 3116 3088 3108 3071 3124 3012 3018 3021 3037 3146 3050 3085 3086 3113 3075 3070 3119 3092 3072 3093 3117 3067 3082 3123 3129 3146 3148 3142 3187 3113 3075 3143 3023 3102 3202 3118 3031 3106 3097 3051 3053 3117 3111 3126 3096 3101 3095 3096 3150 3108 3121 3135 3104 3140 3128 3124 3131 3080 3127 3092 3120 3067 3163 3060 3114 3123 3109 3078 3128 3150 3091 3090 3063 3043 3064 3061 3042 3033 3030 3045 3102 3092 3078 3073 3147 3094 3129 3106 3146 3098 3049 3016 2989 3022 3081 3138 3090 3099 3094 3046 3067 3045 3014 3077 3063 3082 2989 3086 3089 3039 3128 3088 3037 3027 3075 3103 2975 3074 3003 3040 3008 3047 3069 3050 3069 3027 3100 3116 3158 3225 3171 3097 3065 3096 3033 3075 3036 3081 3059 3023 3061 3061 3065 3043 3163 3067 3069 3116 3105 3102 3098 3082 3124 3130 3087 3084 3061 3082 3122 3144 3048 3093 3077 3077 3085 3069 3035 3021 3033 3028 3007 3041 3007 3069 3030 3096 3030 3032 3035 3037 3018 3017 3109 3084 3131 3096 3199 3015 2936 3102 3070 3022 3146 3051 3085 3137 3083 3060 3103 3132 3028 3089 3082 3099 3181 3113 3105 3082 3083 3059 3056 3120 3070 3148 3094 3080 3067 3072 3077 3069 3053 3057 3012 3099 3112 3124 3082 3119 3105 3096 3104 3112 3071 3111 3013 3062 3041 3153 3041 3010 3006 3042 3166 3129 3097 3096 3114 3129 3106 3096 3040 3036

Tree=0
num_leaves=31
num_cat=0
split_feature=3 28 37 225 61 5 63 140 79 16 74 96 144 193 14 4 230 128 122 4 1 63 233 104 229 187 180 96 143 5
split_gain=2.33242e+06 2251.41 1722.27 515.321 314.875 198.202 314.89 172.077 163.659 106.862 76.3654 109.844 61.1705 30.002 29.5074 42.9767 29.3131 24.4439 105.519 21.9274 21.1878 20.6399 42.7836 23.6153 20.3818 15.878 13.9919 13.8044 13.0242 25.6393
threshold=71.675000000000026 72.097500000000011 -3.2567941338842665 71.962155570897195 -0.0031184050531675735 71.77500000000002 -0.0015475305816670898 -0.38999999999999341 4.2696943314486493 8.0607330142928522 2579.4314684388692 0.12230209162096518 0.000445250320226858 0.95884978868485549 0.86957394793245979 3.1586078518007246 0.031456957479669263 -0.001135074475425309 -1.4751113456516947e-05 32.394437860451028 29.241787543474278 -0.0043960664136846574 0.013453448036177209 -0.19606950170557405 0.12231832976691949 102.52635416666668 142.76458333333335 0.097603731453224096 -0.0022523081095495098 71.77500000000002
decision_type=2 10 10 2 10 2 10 10 10 10 2 10 10 8 10 2 2 10 10 2 2 10 2 10 2 10 10 10 10 2
left_child=-1 2 3 4 8 6 7 10 14 12 25 13 28 -12 -2 -16 -11 18 -3 -15 -10 -9 -23 -24 -8 -4 -22 -28 29 -6
right_child=1 17 5 -5 9 -7 24 21 20 16 11 -13 -14 19 15 -17 -18 -19 -20 -21 26 22 23 -25 -26 -27 27 -29 -30 -31
leaf_value=68.160999298095703 71.878999328613276 97.706999206542974 71.890499496459967 71.905999755859369 71.875999450683594 71.901999664306643 71.881999206542972 71.898999786376947 71.885999298095697 71.889999389648438 71.899999237060541 71.901999664306643 71.890999603271482 71.891999816894526 71.908999633789065 71.87099914550781 71.890999603271482 79.415998840332037 64.700999450683597 71.882999420166016 71.894999694824222 71.888999176025393 71.884999084472653 71.898999786376947 71.893499374389648 71.903999328613281 71.891999816894526 71.8879997253418 71.878999328613276 71.879999542236334
leaf_weight=1178389 93 281 28 232 149 2183 141 716 21 27 23 61 35 28 22 21 37 1176146 40 170 162 23 22 123 20 102 26 23 1001 55
leaf_count=1178389 93 281 28 232 149 2183 141 716 21 27 23 61 35 28 22 21 37 1176146 40 170 162 23 22 123 20 102 26 23 1001 55
internal_value=71.89 71.9893 71.9257 71.8486 71.8292 71.966 71.9374 71.9538 71.9109 71.8062 71.9004 71.8712 71.7997 71.8384 71.8238 71.8923 71.9322 71.9896 71.962 71.8259 71.962 71.9787 71.9471 71.9672 71.8055 71.9638 71.9715 71.9247 71.7959 71.8189
internal_weight=2.3604e+06 1.18201e+06 5544 1904 1672 3640 1457 1296 368 1304 412 282 1240 221 136 43 64 1.17647e+06 321 198 232 884 168 145 161 130 211 49 1205 204
internal_count=2360400 1182011 5544 1904 1672 3640 1457 1296 368 1304 412 282 1240 221 136 43 64 1176467 321 198 232 884 168 145 161 130 211 49 1205 204
is_linear=0
shrinkage=1


Tree=1
num_leaves=31
num_cat=0
split_feature=3 3 28 28 3 37 14 13 28 225 121 118 61 4 27 23 88 196 37 136 246 79 222 14 14 29 56 53 13 16
split_gain=2.12958e+06 69172.7 112626 10679.4 2120.63 1518.56 666.764 556.827 509.72 491.95 383.013 375.693 309.814 282.886 290.419 255.961 356.098 218.707 167.059 160.575 156.072 147.671 123.056 113.618 139.718 168.463 138.304 110.81 106.152 100.457
threshold=79.365000000000023 67.805000000000021 72.097500000000011 68.297500000000028 71.675000000000026 -3.2567941338842665 1.1181211467996104 2.1780610747637055 79.642500000000027 71.962155570897195 0.023921595942575546 -10.174544808014771 -0.0031184050531675735 77.253421875304056 6740.1548548984647 247.08023694126067 60.769314183026047 0.10843361872966702 -3.3474679593956345 0.090000000000017635 -0.041243876327302871 4.2696943314486493 68.734533654159051 1.128706181038132 1.0137620734657908 79.382500000000007 0.0012723072301403134 -0.77764624249223413 1.709505136417752 8.0607330142928522
decision_type=2 2 10 10 2 10 10 8 10 2 10 2 10 2 2 10 10 10 8 8 2 10 2 10 10 2 10 10 10 10
left_child=1 -1 3 6 -5 9 13 10 17 12 -8 -12 21 14 -3 16 22 23 -9 -16 -18 -6 -7 24 25 26 -2 -19 -28 -14
right_child=8 2 -4 4 5 15 7 18 -10 -11 11 -13 29 -15 19 -17 20 27 -20 -21 -22 -23 -24 -25 -26 -27 28 -29 -30 -31
leaf_value=-3.4750999450683597 -0.0030996704101568188 -0.02609977722167969 -0.38059982299804745 0.20190010070800782 -0.0093999481201166198 0.0055999755859375 0.0099002838134765632 -0.038100051879882815 7.6729005432128901 0.014400329589844319 0.0029003143310546878 -0.022099685668945313 -0.0099000549316400569 -0.015099716186523438 0.010899734497070313 0.010800247192382529 0.004799728393554404 -0.0055998229980474441 0.0048999786376953125 -0.006100082397460938 -0.0022002410888674719 0.0035000610351559659 0.0098000335693356547 0.010399780273436932 -0.0015997314453130686 0.0084001159667963076 0.00039993286132755657 0.0073999023437494316 0.016400299072265059 0.00090019226074247174
leaf_weight=1124032 97 892 86393 48546 136 332 180 58 1086647 232 199 841 1240 2560 195 1840 192 124 642 244 466 232 810 896 162 1353 492 39 264 64
leaf_count=1124032 97 892 86393 48546 136 332 180 58 1086647 232 199 841 1240 2560 195 1840 192 124 642 244 466 232 810 896 162 1353 492 39 264 64
internal_value=-0.00313332 -0.0911216 -0.0264392 0.0789336 0.0927732 0.0341811 -0.0498881 -0.00166667 0.0994044 -0.0381828 -0.042459 -0.0657692 -0.0571172 -0.0736829 -0.0362885 0.072033 0.0452222 0.0608987 0.0694286 0.0302961 -0.0133739 0.023913 0.0789842 0.0665441 0.0550676 0.06165 0.0268464 -0.0521472 0.0412698 -0.0799847
internal_weight=2.3604e+06 1.27033e+06 146294 59901 54090 5544 5811 1920 1.09007e+06 1904 1220 1040 1672 3891 1331 3640 1800 3427 700 439 658 368 1142 3264 2368 2206 853 163 756 1304
internal_count=2360400 1270326 146294 59901 54090 5544 5811 1920 1090074 1904 1220 1040 1672 3891 1331 3640 1800 3427 700 439 658 368 1142 3264 2368 2206 853 163 756 1304
is_linear=0
shrinkage=0.1


Tree=2
num_leaves=31
num_cat=0
split_feature=3 3 28 28 28 3 37 3 3 28 4 14 28 9 22 14 225 68 236 13 121 55 37 14 4 74 90 23 14 5
split_gain=1.95267e+06 109619 199182 11333.2 1810.34 1538.67 1380.91 865.458 8184.18 2712.78 705.227 680.062 547.574 13064.6 511.584 501.142 458.824 435.594 434.573 320.323 350.667 313.438 329.763 304.927 304.156 302.082 289.294 264.612 256.235 237.249
threshold=86.992500000000021 64.292500000000018 72.097500000000011 64.807500000000019 87.387500000000017 71.675000000000026 -3.2567941338842665 68.575000000000003 67.805000000000021 68.297500000000028 6.6220344499939552 1.1181211467996104 79.642500000000027 78.875000000000014 206.15734873951399 1.0137620734657908 71.962155570897195 0.00012583523136800898 -0.0089436123761594596 1.7257480341867499 0.02576040533418902 0.029498304216014803 1.4766426953297818 0.94231433662248298 77.253421875304056 3375.3200972485452 0.031533876693296777 247.08023694126067 0.62029710108458491 71.77500000000002
decision_type=2 2 10 10 10 2 10 2 2 10 2 10 10 10 10 10 2 10 2 8 10 10 8 10 2 2 10 10 10 2
left_child=1 -1 3 10 18 7 16 8 -5 11 15 24 13 -4 19 -3 26 -15 -2 20 -13 22 23 -19 25 -10 -7 29 -12 -8
right_child=4 2 12 5 -6 6 27 -9 9 -11 28 14 -14 17 -16 -17 -18 21 -20 -21 -22 -23 -24 -25 -26 -27 -28 -29 -30 -31
leaf_value=-3.2515901184082026 -0.0038896331787114493 -0.036589965820311932 -0.34953981018066432 0.16540969848632869 8.1941099395751955 -0.0099102630615234954 0.00032019805908305447 0.18871006011962949 -0.023489799499512288 0.010710182189941976 -0.00058990478515568161 0.0089102554321286217 -0.41088960266113334 0.0075601043701169603 -0.020889930725097372 0.0094099426269536948 0.012960296630859604 0.0025597991943357105 0.0051100006103510509 0.0044099807739257811 -0.006889991760253622 0.0084603729248044612 0.0094598236083982112 -0.0055395660400392906 -0.01358974456787081 0.005810432434081747 -0.00015985870361276966 0.0097202224731447028 -0.018589935302733809 0.0078198165893553547
leaf_weight=1078113 370 318 82691 40375 992749 951 872 45631 904 2915 448 180 89999 2809 452 467 232 901 3529 868 420 1249 1101 1069 2560 427 721 1840 4311 928
leaf_count=1078113 370 318 82691 40375 992749 951 872 45631 904 2915 448 180 89999 2809 452 467 232 901 3529 868 420 1249 1101 1069 2560 427 721 1840 4311 928
internal_value=-0.00717421 -0.0849285 -0.0298478 0.0790077 0.09922 0.0867027 0.0354978 0.0896994 0.0804851 -0.0073344 -0.0601732 -0.046825 -0.0939072 -0.0883834 0.001875 0.0276433 -0.0335084 0.0415065 0.0312131 0.0305177 -0.0256667 0.0215741 0.00439596 -0.0201015 -0.0708558 -0.0320811 -0.0517943 0.0715934 -0.0746585 0.0443333
internal_weight=2.3604e+06 1.36375e+06 285639 105820 996648 100276 5544 94732 49101 8726 5544 5811 179819 89820 1920 785 1904 7129 3899 1468 600 4320 3071 1970 3891 1331 1672 3640 4759 1800
internal_count=2360400 1363752 285639 105820 996648 100276 5544 94732 49101 8726 5544 5811 179819 89820 1920 785 1904 7129 3899 1468 600 4320 3071 1970 3891 1331 1672 3640 4759 1800
is_linear=0
shrinkage=0.1


Tree=3
num_leaves=31
num_cat=0
split_feature=3 3 28 28 3 28 7 28 28 70 9 3 28 37 7 3 28 28 9 44 15 4 14 121 53 31 225 14 68 79
split_gain=1.77566e+06 145959 271077 16764.6 1386.02 1369.26 11374.7 1631.18 19944.5 1668.29 1224.51 7157.17 2710.88 1220.86 865.025 8389.16 2715.69 739.151 734.28 680.23 757.272 644.557 603.02 512.752 583.636 496.736 436.429 397.02 391.319 342.681
threshold=95.102500000000006 60.952500000000008 72.097500000000011 61.432500000000012 71.675000000000026 87.387500000000017 86.615000000000023 79.642500000000027 78.717500000000015 -3.1819772935663032e-05 68.625000000000014 67.805000000000021 68.297500000000028 -3.2567941338842665 65.035000000000011 64.292500000000018 64.807500000000019 95.727500000000006 78.875000000000014 2.5429710144927538 2.2386198304615408 6.6220344499939552 1.1181211467996104 0.023921595942575546 -0.83977955534523907 1.0001548387100903 71.962155570897195 1.0137620734657908 0.00012583523136800898 6.4807440711587452
decision_type=2 2 8 10 2 10 10 10 10 10 10 2 10 10 10 2 10 10 10 10 10 2 10 8 10 10 2 10 10 10
left_child=1 -1 3 -3 10 6 7 8 9 -4 11 14 22 26 15 -5 21 -2 -10 -11 -21 27 -13 -24 -25 -23 29 -17 -20 -6
right_child=17 2 5 4 13 -7 -8 -9 18 19 -12 12 -14 -15 -16 16 -18 -19 28 20 -22 25 23 24 -26 -27 -28 -29 -30 -31
leaf_value=-3.0789308776855466 0.0086993423461905195 -0.0354307403564448 -0.33258585968017657 0.13956925964355521 -0.0089692474365222104 -0.3913006576538095 0.0055992141723635314 -0.37780082550048921 0.010414170837401572 0.00041432342529219569 0.17083926773071312 -0.012230770111084156 0.0096391639709480625 0.0072482612609860555 0.15886933898925834 -0.03293096923828074 0.011869216918945824 8.3936991897582995 0.0068040939331055483 -0.0075858596801765543 0.0034142013549796958 -0.00073057556152349439 0.0049691963195797944 -0.01780072402954147 0.0021692848205560724 -0.022730697631835994 0.011664266967773075 0.0084689483642577564 0.0025140090942386453 8.1159973144906427e-05
leaf_weight=1031619 3886 5937 77948 40557 893 89213 7013 86885 2900 610 45209 3891 3337 3640 37551 318 2824 899650 2809 939 294 1174 463 816 641 3585 232 467 4320 779
leaf_count=1031619 3886 5937 77948 40557 893 89213 7013 86885 2900 610 45209 3891 3337 3640 37551 318 2824 899650 2809 939 294 1174 463 816 641 3585 232 467 4320 779
internal_value=-0.0108771 -0.0791817 -0.0298818 0.0769949 0.0836764 -0.0895263 -0.0845905 -0.0895476 -0.080098 -0.0968042 0.0856071 0.0791956 -0.00491911 0.034632 0.0880938 0.0793316 -0.0118308 0.0992576 0.0528168 -0.00276723 -0.0454988 -0.0524892 -0.0461711 -0.0003125 -0.0294441 -0.0663375 -0.0302521 0.031465 0.035559 -0.0480861
internal_weight=2.3604e+06 1.45686e+06 425245 152314 146377 272931 183718 176705 89820 79791 140833 95624 9148 5544 86476 48925 8368 903536 10029 1843 1233 5544 5811 1920 1457 4759 1904 785 7129 1672
internal_count=2360400 1456864 425245 152314 146377 272931 183718 176705 89820 79791 140833 95624 9148 5544 86476 48925 8368 903536 10029 1843 1233 5544 5811 1920 1457 4759 1904 785 7129 1672
is_linear=0
shrinkage=0.1


Tree=4
num_leaves=31
num_cat=0
split_feature=3 3 28 9 28 9 28 28 9 28 28 51 3 7 3 28 3 28 3 13 6 3 28 28 4 7 14 1 225 22
split_gain=1.58381e+06 189662 341001 2129.57 2128.57 14386.7 2452.14 16447 2852.68 29000.2 1853.51 2499.32 1969.6 16508.8 1447.82 1198.66 4238.95 4843.05 1149.32 1101.39 980.129 869.831 10395.5 782.391 687.521 662.287 624.418 589.951 574.815 550.091
threshold=103.825 58.175000000000004 72.097500000000011 103.72500000000001 95.727500000000006 94.990000000000023 87.387500000000017 86.397500000000022 78.285000000000011 79.642500000000027 58.477500000000013 -0.75492056480538505 60.952500000000008 61.615000000000002 71.675000000000026 69.167500000000004 67.805000000000021 68.297500000000028 86.015000000000015 6.0637166415939081 61.535000000000004 64.292500000000018 64.807500000000019 94.702500000000015 6.6220344499939552 86.615000000000023 1.1181211467996104 12.842111167390428 71.962155570897195 206.15734873951399
decision_type=2 2 10 10 10 10 10 10 10 10 10 10 2 10 2 10 2 10 2 8 2 2 10 10 2 10 10 2 2 10
left_child=1 -1 10 4 5 6 7 8 -4 -10 11 -3 -12 20 15 16 21 26 -11 -16 -14 -15 24 -8 -23 -9 -18 -25 -21 -28
right_child=-2 2 3 -5 -6 -7 23 25 9 18 12 -13 13 14 19 -17 17 -19 -20 28 -22 22 -24 27 -26 -27 29 -29 -30 -31
leaf_value=-2.8735377517700194 8.9843295759582524 -0.0045376983642576368 -0.31732730422973676 0.0043292707824704735 -0.35467112594604516 0.012828797760009537 -0.37217104965209985 0.017979440155028215 0.0076726957702632605 -0.35602110916137808 0.11846225585937518 0.011462286376953302 -0.027887956237792368 0.13761222686767596 0.005863324661255831 0.17375503578186058 -0.011007693099975313 0.014755401992798057 -0.0095207124328624115 -0.0080223120117182134 0.00011230316162169629 0.0066218399047855321 0.13298179473876956 -0.0081711106872560894 -0.013457658386229809 0.0050392927551271786 0.0024718494415282067 0.0068290419006345367 0.010497840270996052 -0.017020865249634198
leaf_weight=984542 812753 3058 73618 1381 85516 6561 83914 2446 16202 80902 41183 2836 6826 38060 4144 39076 3891 9470 3537 1164 1608 785 40375 2130 4759 7013 1468 494 236 452
leaf_count=984542 812753 3058 73618 1381 85516 6561 83914 2446 16202 80902 41183 2836 6826 38060 4144 39076 3891 9470 3537 1164 1608 785 40375 2130 4759 7013 1468 494 236 452
internal_value=-0.0136445 -0.0730056 -0.0267167 -0.0843344 -0.0848068 -0.0805467 -0.0840988 -0.0775613 -0.0845322 -0.0735893 0.0783852 0.0231422 0.0800679 0.0748217 0.0827926 0.0848008 0.0789603 0.030515 -0.0971032 0.032684 -0.0611572 0.0877755 0.07851 -0.0979778 -0.0498918 0.0508616 -0.0413526 -0.0442073 -0.044 0.0053125
internal_weight=2.3604e+06 1.54765e+06 563105 363714 362333 276817 270256 183718 174259 100641 199391 5894 193497 152314 143880 138336 99260 15281 84439 5544 8434 83979 45919 86538 5544 9459 5811 2624 1400 1920
internal_count=2360400 1547647 563105 363714 362333 276817 270256 183718 174259 100641 199391 5894 193497 152314 143880 138336 99260 15281 84439 5544 8434 83979 45919 86538 5544 9459 5811 2624 1400 1920
is_linear=0
shrinkage=0.1


Tree=5
num_leaves=31
num_cat=0
split_feature=3 3 28 28 3 3 28 3 28 28 28 28 7 3 9 7 3 28 3 28 37 38 37 28 29 37 7 3 3 28
split_gain=1.43399e+06 208389 383884 14718.7 2680.1 15742.4 2623.27 18448.6 3072.59 14862.7 3525.88 27026.6 2138.71 1991.84 14233.3 1757.18 1615.64 1514.53 4215.88 4286.84 1395.56 1203.9 1115.7 1087.4 757.339 745.427 744.001 641.398 10246.2 2832.22
threshold=112.52500000000002 55.055000000000007 72.097500000000011 55.427500000000002 60.952500000000008 61.715000000000011 95.727500000000006 94.475000000000009 87.387500000000017 86.397500000000022 77.927500000000023 79.642500000000027 85.700000000000003 64.292500000000018 65.095000000000013 55.565000000000005 71.675000000000026 69.167500000000004 67.805000000000021 68.297500000000028 2.2166132856217282 2.1294133592990403 -3.2567941338842665 65.407500000000013 61.487500000000004 3.4010174372680386 86.615000000000023 103.01500000000001 103.825 103.45250000000003
decision_type=2 2 10 10 2 2 10 2 10 10 10 10 10 2 10 10 2 10 2 10 8 10 10 10 2 8 10 2 2 10
left_child=1 -1 3 -3 15 24 7 8 9 10 -4 21 -13 -7 -15 20 17 18 23 -20 -5 25 -18 -16 -6 -12 -11 -8 29 -29
right_child=-2 2 6 4 5 13 27 -9 -10 26 11 12 -14 14 16 -17 22 -19 19 -21 -22 -23 -24 -25 -26 -27 -28 28 -30 -31
leaf_value=-2.6781839842224118 9.1808963131866452 -0.025184106292724096 -0.30559426863098199 -0.0031839842224115956 -0.026098992767333587 0.12885092788696326 -0.35320364714050356 0.0061461377105715091 -0.35295397520446842 0.01618149613952511 0.0054050294647211674 -0.3394184794464124 -0.0090691294708264546 -0.0063158354187009998 0.0086843171691896263 0.11711598449707027 -0.0051244806823731899 0.15637953220367395 -0.0069070458602908504 0.013279861793517967 0.0068158631896977802 -0.0065943296661387764 0.0059371026687614408 0.1526837983703615 -0.00062392562866193664 0.0086054841766340928 0.0045353634796143185 -0.011203830245972313 -0.49510390043640201 0.017796261306762064
leaf_weight=939646 739220 4900 70698 1421 6541 36975 77366 13214 79885 2446 13498 77634 6805 8976 5971 84599 1904 39076 5811 9470 1053 838 3640 30972 2978 4786 7013 5321 73533 4210
leaf_count=939646 739220 4900 70698 1421 6541 36975 77366 13214 79885 2446 13498 77634 6805 8976 5971 84599 1904 39076 5811 9470 1053 838 3640 30972 2978 4786 7013 5321 73533 4210
internal_value=-0.016306 -0.0689382 -0.0268403 0.073568 0.0770798 0.0690797 -0.0829378 -0.0770411 -0.0828211 -0.0757019 -0.0823286 -0.0705758 -0.0948862 0.0773802 0.0703988 0.0910742 0.0815642 0.084747 0.073606 0.0294287 0.00800323 0.0367744 0.0291486 0.0918794 -0.0554365 0.0421461 0.0463791 -0.0931123 -0.08701 0.0105445
internal_weight=2.3604e+06 1.62118e+06 681534 244287 239387 152314 437247 276817 263603 183718 174259 103561 84439 142795 105820 87073 96844 91300 52224 15281 2474 19122 5544 36943 9519 18284 9459 160430 83064 9531
internal_count=2360400 1621180 681534 244287 239387 152314 437247 276817 263603 183718 174259 103561 84439 142795 105820 87073 96844 91300 52224 15281 2474 19122 5544 36943 9519 18284 9459 160430 83064 9531
is_linear=0
shrinkage=0.1


Tree=6
num_leaves=31
num_cat=0
split_feature=3 3 28 28 24 28 28 28 28 28 3 3 28 3 3 3 3 3 3 28 28 28 3 28 28 3 9 3 28 7
split_gain=1.33437e+06 223521 385520 10691.9 9421.75 4745.17 24069 4239.68 14994.3 4330.84 30413 2769.19 2045.87 1982.53 14161.9 2871.9 13092.8 2555.7 13973.8 1719.91 1686.17 1486.77 3262.89 3612.72 2499.58 10473.6 2640.81 2407.15 1301.99 1062.02
threshold=122.12500000000001 52.585000000000008 72.097500000000011 52.792500000000011 1209.6558466874274 95.727500000000006 94.097500000000011 87.387500000000017 85.582500000000024 79.642500000000027 77.645000000000024 58.592500000000008 121.67750000000002 55.055000000000007 55.645000000000003 58.175000000000004 58.592500000000008 60.952500000000008 61.715000000000011 86.397500000000022 55.427500000000002 69.167500000000004 67.805000000000021 68.297500000000028 65.407500000000013 64.292500000000018 65.095000000000013 71.675000000000026 62.107500000000009 85.700000000000003
decision_type=2 2 10 10 10 10 10 10 10 10 2 2 10 2 2 2 2 2 2 10 10 10 2 10 10 2 10 2 10 10
left_child=1 -1 3 -3 13 6 7 8 9 10 -4 -6 -7 -5 20 -16 -17 -18 -19 29 -15 22 24 -24 25 28 -27 -23 -20 -10
right_child=-2 2 5 4 11 12 -8 -9 19 -11 -12 -13 -14 14 15 16 17 18 21 -21 -22 27 23 -25 -26 26 -28 -29 -30 -31
leaf_value=-2.5103655858001703 8.9248061935867309 -0.011365799423217027 -0.29203542160186802 0.10563439894104079 -0.0033955864868161715 -0.38288343501434385 0.0073414223159787191 -0.33465839457855256 0.0025227886642440467 -0.30947672305450596 0.0062955644210802575 0.049904355529785255 0.0058067123855579444 -0.022665695663451405 0.1371044631042487 -0.0090956597290038129 0.1189042182006837 -0.012489032455444261 0.007965651992797973 0.0075633770431508653 -0.00086554002380339061 0.14074157898330669 -0.0062163412742620499 0.011951875614165886 0.13741541853332537 -0.0056842518768306155 0.0078158854522712325 0.0031830377876289617 0.14796580458068861 -0.0081622165237433819
leaf_weight=902035 693210 4794 67556 32809 4198 204467 18386 74713 2542 75092 22264 840 1973 4900 36170 5824 36223 9519 5727 9459 3826 39076 5811 9470 30972 8976 5971 5544 31248 6805
leaf_count=902035 693210 4794 67556 32809 4198 204467 18386 74713 2542 75092 22264 840 1973 4900 36170 5824 36223 9519 5727 9459 3826 39076 5811 9470 30972 8976 5971 5544 31248 6805
internal_value=-0.0172472 -0.0657298 -0.0259737 0.0669639 0.0695255 -0.0801869 -0.0716296 -0.0794947 -0.0713267 -0.0809741 -0.0661568 -0.0659786 -0.0916615 0.0720347 0.0688736 0.073607 0.0687921 0.0733538 0.067676 0.0132724 -0.0561769 0.0754963 0.0686173 0.0261567 0.0764446 0.063033 -0.00760688 0.090632 0.0915889 -0.0171499
internal_weight=2.3604e+06 1.66719e+06 765155 281898 277104 483257 276817 258431 183718 164912 89820 5038 206440 272066 239257 230531 194361 188537 152314 18806 8726 142795 98175 15281 82894 51922 14947 44620 36975 9347
internal_count=2360400 1667190 765155 281898 277104 483257 276817 258431 183718 164912 89820 5038 206440 272066 239257 230531 194361 188537 152314 18806 8726 142795 98175 15281 82894 51922 14947 44620 36975 9347
is_linear=0
shrinkage=0.1


Tree=7
num_leaves=31
num_cat=0
split_feature=3 3 28 7 24 70 3 28 28 3 28 3 28 9 3 7 3 3 15 3 9 3 3 9 3 9 3 28 3 28
split_gain=1.19577e+06 273554 380400 14350.2 9852.97 5606.05 5499.69 37060.8 5643.58 27993.6 5508.08 18580.8 5584.29 31900.9 3752.12 14374.3 2683.52 13292 2079.1 1848.45 11175.7 1922.12 2638.25 10719.3 3182.93 9120.7 3833.7 3256.05 2517.32 2069.15
threshold=131.26250000000002 49.955000000000005 72.097500000000011 50.385000000000012 1209.6558466874274 -1.9521718387353275e-05 103.825 102.64750000000002 95.727500000000006 93.735000000000014 87.387500000000017 85.25500000000001 79.642500000000027 77.385000000000005 52.585000000000008 52.915000000000006 55.055000000000007 55.645000000000003 2.1369954398351649 58.175000000000004 58.57500000000001 69.417500000000018 60.952500000000008 61.695000000000007 64.292500000000018 65.095000000000013 67.805000000000021 68.297500000000028 71.675000000000026 58.917500000000011
decision_type=2 2 10 10 10 10 2 10 10 2 10 2 10 10 2 10 2 2 10 2 10 2 2 10 2 10 2 10 2 10
left_child=1 -1 3 -3 14 6 7 8 9 10 11 12 13 -4 -5 -16 -17 -18 -6 -19 -21 22 29 -24 -25 -26 -27 -28 -23 -22
right_child=-2 2 5 4 18 -7 -8 -9 -10 -11 -12 -13 -14 -15 15 16 17 19 -20 20 21 28 23 24 25 26 27 -29 -30 -31
leaf_value=-2.3683290424789418 8.5953260625093062 -0.023328966184996604 -0.28483200151199384 0.14967098803863621 -0.0030560278381344119 0.047326489755400304 -0.42130510585617031 0.03490472538162237 -0.30309499996017453 0.0068076279847716142 -0.31319282977890028 0.0033042584245293939 -0.28252914230179016 0.005335357649383355 -0.0084290256942743721 0.10407097430572564 -0.0058090134109491489 0.12339401679382363 0.057914026788330381 -0.010186139532470407 0.0050137506042482018 0.13266717694435073 -0.013240174986267306 0.098169376710510653 -0.0051158266891476959 0.10317369357452436 -0.0055947071468352766 0.011676503116225945 0.0028647340088667761 0.12401399474487321
leaf_weight=855671 655976 6794 64169 39244 4703 2835 153942 13597 73300 22655 70444 22258 71640 25651 7554 30049 8726 36170 661 5044 6320 36487 8971 37523 8976 36943 5811 12059 5544 30683
leaf_count=855671 655976 6794 64169 39244 4703 2835 153942 13597 73300 22655 70444 22258 71640 25651 7554 30049 8726 36170 661 5044 6320 36487 8971 37523 8976 36943 5811 12059 5544 30683
internal_value=-0.0153813 -0.0595369 -0.019312 0.0649877 0.0680273 -0.0724779 -0.0732459 -0.0665402 -0.0728308 -0.0662976 -0.0757918 -0.0666761 -0.0784838 -0.0618749 0.0703079 0.066206 0.0700222 0.0664846 -0.0663684 0.0710703 0.0672074 0.0711215 0.0657388 0.0579863 0.0672635 0.0536691 0.0689709 0.0309457 0.0899836 0.0888441
internal_weight=2.3604e+06 1.70442e+06 848753 328262 321468 520491 517656 363714 350117 276817 254162 183718 161460 89820 316104 276860 269306 239257 5364 230531 194361 189317 147286 110283 101312 63789 54813 17870 42031 37003
internal_count=2360400 1704424 848753 328262 321468 520491 517656 363714 350117 276817 254162 183718 161460 89820 316104 276860 269306 239257 5364 230531 194361 189317 147286 110283 101312 63789 54813 17870 42031 37003
is_linear=0
shrinkage=0.1


Tree=8
num_leaves=31
num_cat=0
split_feature=3 3 28 7 28 28 9 28 28 28 7 3 6 3 7 3 3 25 28 3 7 3 28 3 3 3 7 3 28 3
split_gain=1.07609e+06 311941 371570 18315.7 7556.58 22747.9 8070.82 17920.2 8105.08 28830.1 7468.06 41296.7 6930.84 4677.68 11936.6 4959.41 13895.5 5324.99 4165.99 22086.4 5436.78 3447.44 14404.3 3580.16 9613.23 3210.82 2990.03 11518.7 3677.66 15604
threshold=140.24500000000003 47.305000000000007 72.097500000000011 47.875000000000007 76.997500000000016 79.642500000000027 84.925000000000026 87.387500000000017 93.392500000000013 95.727500000000006 102.08500000000002 103.825 139.59500000000003 49.955000000000005 50.385000000000012 52.585000000000008 53.067500000000003 23.369666304761964 111.17250000000001 112.52500000000002 111.36500000000002 55.055000000000007 56.097500000000004 58.175000000000004 58.592500000000008 102.26500000000001 65.675000000000026 64.292500000000018 62.107500000000009 60.952500000000008
decision_type=2 2 10 8 10 10 10 10 10 10 10 2 2 2 10 2 2 10 10 2 10 2 10 2 2 2 10 2 10 2
left_child=1 -1 3 -3 -4 -6 -7 -8 -9 -10 -11 25 18 -5 -15 -16 -17 21 -13 20 -20 -18 -23 -24 -25 -12 27 28 29 -26
right_child=-2 2 4 13 5 6 7 8 9 10 11 12 -14 14 15 16 17 -19 19 -21 -22 22 23 24 26 -27 -28 -29 -30 -31
leaf_value=-2.3734961458604427 8.3757928459068136 -0.036496061937102552 -0.27134819100923269 0.11750364814590526 0.0045530883639372634 -0.25927653324739314 0.0031404928909125832 -0.2968729364494479 0.0060165670295560863 -0.30428574410478149 -0.0092852863411096113 -0.43217447320024011 0.061792906941968796 -0.0209960695664968 0.13570372138809292 -0.0070860163133232845 0.099663632734527857 -0.0027504250543209708 -0.0061742595771931974 -0.39620727616349999 0.037325496282181805 -0.0048180721681212908 0.13305435571502713 -0.0064673302667230814 0.0926123511297611 0.02621436270674167 0.084400611837806144 -0.0032830724504080422 0.12335228645156918 -0.0066475609605404886
leaf_weight=809420 620662 7008 61083 39243 28737 67803 26095 65870 27229 67247 1327 61188 3684 6794 39570 9304 28299 4115 2740 114874 9605 14389 30507 6381 36589 18323 88361 17459 31248 15246
leaf_count=809420 620662 7008 61083 39243 28737 67803 26095 65870 27229 67247 1327 61188 3684 6794 39570 9304 28299 4115 2740 114874 9605 14389 30507 6381 36589 18323 88361 17459 31248 15246
internal_value=-0.0137015 -0.0540304 -0.0145333 0.0624563 -0.0664105 -0.0623134 -0.0676384 -0.0622077 -0.0678258 -0.0609806 -0.0705665 -0.0613462 -0.075471 0.0655101 0.0616093 0.0643815 0.059728 0.0638297 -0.0781271 -0.0678146 0.0592872 0.0655601 0.0616704 0.0678526 0.0628756 0.0767328 0.0669534 0.055159 0.0706751 0.0543397
internal_weight=2.3604e+06 1.73974e+06 930318 374513 555805 494722 465985 398182 372087 306217 278988 211741 192091 367505 328262 321468 281898 272594 188407 127219 12345 268479 240180 225791 195284 19650 188903 100542 83083 51835
internal_count=2360400 1739738 930318 374513 555805 494722 465985 398182 372087 306217 278988 211741 192091 367505 328262 321468 281898 272594 188407 127219 12345 268479 240180 225791 195284 19650 188903 100542 83083 51835
is_linear=0
shrinkage=0.1


Tree=9
num_leaves=31
num_cat=0
split_feature=3 3 3 7 3 28 3 28 3 28 28 3 3 3 9 9 3 3 3 9 3 3 3 3 7 3 17 9 3 9
split_gain=980952 325486 371381 13048.4 7248.26 22147.3 8639.59 17947.2 8394.99 30089.5 7699.92 34173.3 7468.9 6188.54 18980.3 5573.17 10054.4 5380.21 16860.8 8780.2 4989.99 13719.3 5661.7 11191 5226.9 9598.72 5076.31 4406.48 13327.4 4293.29
threshold=148.30000000000004 45.032500000000006 71.675000000000026 45.565000000000005 76.75500000000001 79.642500000000027 84.435000000000016 87.387500000000017 93.165000000000006 95.727500000000006 101.77750000000002 103.825 102.26500000000001 47.305000000000007 47.985000000000007 69.455000000000013 67.805000000000021 110.33500000000002 112.52500000000002 111.41500000000001 49.955000000000005 50.555000000000007 52.585000000000008 53.067500000000003 65.675000000000026 64.292500000000018 910.17487499050378 62.295000000000009 60.952500000000008 68.625000000000014
decision_type=2 2 2 8 2 10 2 10 2 10 10 2 2 2 8 8 2 2 2 10 2 2 2 2 10 2 10 10 2 10
left_child=1 -1 3 -3 -4 -6 -7 -8 -9 -10 -11 12 -12 -5 -15 16 20 -13 19 -19 -16 -22 -23 -24 25 26 27 28 -25 -18
right_child=-2 2 4 13 5 6 7 8 9 10 11 17 -14 14 15 -17 29 18 -20 -21 21 22 23 24 -26 -27 -28 -29 -30 -31
leaf_value=-2.389146599938949 8.8222147209841015 -0.034146676232894184 -0.23121364656651197 0.080853476354996456 0.0037862008455974206 -0.24234851371171687 0.0020101403486492589 -0.2786861921209095 0.0053248605829480768 -0.2908569865888353 -0.0073573070234047577 -0.41795711743295105 0.023843132429720273 -0.029846577813705012 0.10875354273072874 0.11196061168918164 -0.0099314830373799633 -0.013557016724942628 -0.34115352280557265 0.033093221312167034 -0.014866543939192668 0.12713327295533858 -0.0063774146819909564 0.072351436451355514 0.11691672079696361 -0.0029547652053679486 -0.00380367371710193 0.11901724091188087 -0.0049829727111664118 0.0051490681100801799
leaf_weight=762618 584185 6044 63899 40758 31465 62069 31829 61496 31603 63972 4589 55253 18336 7814 38436 35984 9148 8481 155035 9799 8790 37574 9304 117122 28460 17459 3158 28177 18317 9226
leaf_count=762618 584185 6044 63899 40758 31465 62069 31829 61496 31603 63972 4589 55253 18336 7814 38436 35984 9148 8481 155035 9799 8790 37574 9304 117122 28460 17459 3158 28177 18317 9226
internal_value=-0.0130848 -0.0500556 -0.0129244 0.059659 -0.0634041 -0.0595949 -0.0646915 -0.0597687 -0.0654032 -0.0593693 -0.0686888 -0.0608092 0.0555856 0.0618107 0.057726 0.0610621 0.0569297 -0.0724835 -0.0638208 0.0270131 0.061233 0.0564065 0.0605672 0.0544913 0.0591872 0.0530258 0.0604111 0.0628349 0.0553496 -0.0149233
internal_weight=2.3604e+06 1.77622e+06 1.0136e+06 415771 597826 533927 502462 440393 408564 347068 315465 251493 22925 409727 368969 361155 325171 228568 173315 18280 306797 268361 259571 221997 212693 184233 166774 163616 135439 18374
internal_count=2360400 1776215 1013597 415771 597826 533927 502462 440393 408564 347068 315465 251493 22925 409727 368969 361155 325171 228568 173315 18280 306797 268361 259571 221997 212693 184233 166774 163616 135439 18374
is_linear=0
shrinkage=0.1


Tree=10
num_leaves=31
num_cat=0
split_feature=3 3 28 9 28 3 28 28 28 3 3 3 28 28 3 3 3 3 3 24 3 9 3 3 3 3 9 28 3 7
split_gain=887377 328122 384897 8312.97 16863.5 9234.47 16870.6 8336.52 32969.5 7874.98 19434.3 7253.65 11794.7 7234.66 9205.24 7975.04 7186.63 28363.7 10510.6 6442.61 5747.21 6344.2 8022.24 5589.77 16602.4 7556.07 5583.25 5306.83 7540.91 6506.17
threshold=157.52500000000003 43.272500000000008 72.097500000000011 76.465000000000018 79.642500000000027 84.435000000000016 87.387500000000017 92.682500000000019 95.727500000000006 47.305000000000007 48.145000000000003 49.955000000000005 50.827500000000008 69.822500000000005 52.585000000000008 53.067500000000003 101.45500000000001 103.825 102.26500000000001 1209.6558466874274 67.805000000000021 65.77500000000002 64.292500000000018 110.33500000000002 112.52500000000002 111.43250000000002 68.625000000000014 62.682500000000012 60.952500000000008 59.045000000000009
decision_type=2 2 10 10 10 2 10 10 10 2 2 2 10 10 2 2 2 2 2 10 2 10 2 2 2 2 10 10 2 10
left_child=1 -1 9 -4 -5 -6 -7 -8 -9 -3 -11 -12 -13 14 -14 -16 -10 18 -18 20 21 22 27 -19 25 -25 -22 28 29 -17
right_child=-2 2 3 4 5 6 7 8 16 10 11 12 13 -15 15 19 17 23 -20 -21 26 -23 -24 24 -26 -27 -28 -29 -30 -31
leaf_value=-2.3027319017980816 9.4589919671474103 0.078768151607680192 -0.24609200725165722 0.0018186772652498463 -0.21811366234054505 0.0018091263137847591 -0.26731766446155236 0.0052814438911084954 -0.2857710743069049 -0.018362011585068672 0.10387794431703057 -0.0065799627874611136 0.12842026609437482 0.10276497776635694 -0.0057396732137917185 0.048513837533545261 -0.0076210270046573221 -0.37616140568965623 0.021458819186748457 -0.0047952104896786807 -0.0089383347336422503 0.1082249266469546 -0.0027751343882016499 -0.011201101429401207 -0.30817035398143561 0.031783563487590531 0.0086334899123528437 0.11911541000916942 -0.00088466628477590348 0.10611627754743083
leaf_weight=726155 538649 83265 55150 34670 62069 31829 56058 37041 59032 9525 36726 13901 32463 35312 9304 86917 9529 55253 18336 5038 9148 27855 18064 9082 200571 9198 15441 22091 24403 28325
leaf_count=726155 538649 83265 55150 34670 62069 31829 56058 37041 59032 9525 36726 13901 32463 35312 9304 86917 9529 55253 18336 5038 9148 27855 18064 9082 200571 9198 15441 22091 24403 28325
internal_value=-0.0134571 -0.0467974 -0.0122463 -0.0624605 -0.0589481 -0.0632272 -0.0585878 -0.0635208 -0.058436 0.0577166 0.0515323 0.0552122 0.0504969 0.0544829 0.0490864 0.0424963 -0.0676549 -0.0614166 0.0347066 0.0460574 0.0484844 0.0538976 0.0470178 -0.0711883 -0.064013 0.027221 0.00276953 0.054077 0.0468724 0.0575658
internal_weight=2.3604e+06 1.82175e+06 1.0956e+06 637818 582668 547998 485929 454100 398042 457778 374513 364988 328262 314361 279049 246586 361001 301969 27865 237282 232244 207655 179800 274104 218851 18280 24589 161736 139645 115242
internal_count=2360400 1821751 1095596 637818 582668 547998 485929 454100 398042 457778 374513 364988 328262 314361 279049 246586 361001 301969 27865 237282 232244 207655 179800 274104 218851 18280 24589 161736 139645 115242
is_linear=0
shrinkage=0.1


Tree=11
num_leaves=31
num_cat=0
split_feature=3 3 28 3 9 28 3 3 28 28 7 28 28 28 9 3 3 28 3 3 3 25 28 3 28 3 3 3 7 3
split_gain=809419 341066 381743 11870.7 15822.2 13719.2 9156.47 16864.8 8889.19 15094 9695.2 17577.2 8804.18 30175.6 8026.34 24001 9106.14 6971.88 8521 8943.1 7323.75 7945.62 6925.71 7816.72 22471.6 8448.3 19969.8 7739.09 8613.49 7524.42
threshold=166.07500000000002 40.605000000000011 72.097500000000011 45.032500000000006 45.705000000000005 40.812500000000007 47.305000000000007 48.145000000000003 76.247500000000016 79.642500000000027 84.215000000000018 87.387500000000017 92.682500000000019 95.727500000000006 101.355 103.825 102.26500000000001 69.822500000000005 49.955000000000005 50.555000000000007 52.585000000000008 7.5362178358350986 53.452500000000008 55.055000000000007 56.097500000000004 58.175000000000004 59.105000000000011 60.952500000000008 62.225000000000001 67.805000000000021
decision_type=2 2 10 2 8 10 2 2 10 10 10 10 10 10 10 2 2 8 2 2 2 10 10 2 10 2 2 2 10 2
left_child=1 -1 3 5 -5 -3 -6 -8 -4 -10 -11 -12 -13 -14 -15 16 -16 18 -9 -20 -21 22 -22 -24 -25 -26 -27 -28 -29 -30
right_child=-2 2 8 4 6 -7 7 17 9 10 11 12 13 14 15 -17 -18 -19 19 20 21 -23 23 24 25 26 27 28 29 -31
leaf_value=-2.2749586734713008 9.3770942352764202 -0.016958871835558397 -0.23248286756164732 -0.0286085948885372 0.06989123726478326 0.1100411739408088 -0.016525810426561805 0.093490149885327875 0.00087639541518882427 -0.21330211300102209 0.0016972766474154357 -0.24058589801539654 0.0047532995019977878 -0.26219427205199536 -0.0060088800537045021 -0.28419002089194695 0.019312937268073684 0.092488479989721387 -0.012721893266527218 0.10157791905036717 -0.0034159805506163822 -0.0023156436643432701 0.099610864132897353 -0.016422792349799663 0.1076623927450342 -0.017607442021353847 0.10950458875753172 -0.0053959951885246939 0.057203869008252188 0.0002704460968985245
leaf_weight=679260 510571 3717 52481 7603 39199 79641 9525 36725 37339 58473 35425 56058 37041 57462 11099 302182 18336 35313 8790 37574 14232 9801 23077 14371 30396 11678 26093 17616 74733 24589
leaf_count=679260 510571 3717 52481 7603 39199 79641 9525 36725 37339 58473 35425 56058 37041 57462 11099 302182 18336 35313 8790 37574 14232 9801 23077 14371 30396 11678 26093 17616 74733 24589
internal_value=-0.0122447 -0.0430097 -0.0103002 0.055297 0.0484751 0.0897766 0.0511022 0.0462892 -0.0600154 -0.0566359 -0.0606295 -0.0562692 -0.0612641 -0.056363 -0.0645738 -0.058595 0.0276032 0.0497173 0.0451939 0.0395016 0.0425746 0.0363078 0.0399599 0.0442847 0.0379103 0.0472624 0.0377929 0.0480588 0.0370709 0.0485008
internal_weight=2.3604e+06 1.84983e+06 1.17057e+06 504673 421315 83358 413712 374513 665896 613415 576076 517603 482178 426120 389079 331617 29435 364988 329675 292950 284160 246586 236785 222553 199476 185105 154709 143031 116938 99322
internal_count=2360400 1849829 1170569 504673 421315 83358 413712 374513 665896 613415 576076 517603 482178 426120 389079 331617 29435 364988 329675 292950 284160 246586 236785 222553 199476 185105 154709 143031 116938 99322
is_linear=0
shrinkage=0.1


Tree=12
num_leaves=31
num_cat=0
split_feature=3 3 3 3 28 3 7 28 3 3 7 3 28 28 28 3 28 28 3 3 3 24 3 7 3 28 3 7 3 7
split_gain=735873 336132 347558 15357.6 17118.3 10877.9 17596.7 10164.8 10905.2 8355.29 14382.5 9119.67 11866.9 13412 15778.8 12889.2 23420.4 12440.5 19231.4 10766.2 39188.7 7042.4 6012.58 5589.83 17920.9 5577.7 9557.59 21348 10791.7 16224.7
threshold=176.14500000000001 38.505000000000003 71.675000000000026 47.305000000000007 48.402500000000011 49.955000000000005 50.905000000000008 69.822500000000005 52.585000000000008 148.30000000000004 146.63500000000002 76.105000000000004 79.642500000000027 84.022500000000022 87.387500000000017 92.25500000000001 95.727500000000006 101.105 103.825 109.355 112.52500000000002 347.95404153791384 102.26500000000001 119.45500000000001 122.12500000000001 53.452500000000008 55.055000000000007 56.235000000000007 58.175000000000004 59.045000000000009
decision_type=2 2 2 2 8 2 10 10 2 2 10 2 10 10 10 2 10 10 2 2 2 10 2 10 2 10 2 10 2 10
left_child=1 -1 3 -3 -5 -6 -7 8 -8 10 11 -4 -13 -14 -15 -16 -17 -18 22 -20 -21 25 -19 -22 -25 -10 -27 -28 -29 -30
right_child=-2 2 9 4 5 6 7 -9 21 -11 -12 12 13 14 15 16 17 18 19 20 23 -23 -24 24 -26 26 27 28 29 -31
leaf_value=-2.1534629434532717 9.7313831027644042 0.075902220349828298 -0.19723506908673302 -0.011373244642694402 0.10214116541437335 -0.0094496581635070253 0.11142020343927612 0.099239235262233202 -0.0030743824955550281 -0.34261592067309721 0.070564890048871121 0.00063860755061142529 -0.20197251205248251 0.0020745939583363794 -0.23352712510838813 0.0042779695517978665 -0.24547496691710791 -0.003593200941156738 -0.36012626303149631 0.033873981109128697 -0.34980256028377144 -0.0020840792979086586 0.017381643541266811 0.11719725661075985 -0.29657112641536404 0.089649777719607471 -0.01278046733845244 0.10689638235236672 -0.016146380436406104 0.018681711388074975
leaf_weight=650289 465314 159131 55379 13891 32360 16148 30216 29768 14232 118871 7374 39985 55808 38090 51905 41194 55156 13405 46206 27327 36640 9988 18336 9370 101651 23077 16826 27900 10840 143723
leaf_count=650289 465314 159131 55379 13891 32360 16148 30216 29768 14232 118871 7374 39985 55808 38090 51905 41194 55156 13405 46206 27327 36640 9988 18336 9370 101651 23077 16826 27900 10840 143723
internal_value=-0.013418 -0.0410853 -0.0106454 0.0509112 0.039712 0.0439723 0.0384298 0.043789 0.0378176 -0.0560034 -0.0511888 -0.0529222 -0.048924 -0.0531562 -0.0472897 -0.0531294 -0.0462198 -0.0556884 -0.0463048 -0.0567502 -0.0454134 0.0308696 0.0264862 -0.0657716 -0.0545942 0.0343418 0.0382262 0.0311713 0.0411103 0.0307777
internal_weight=2.3604e+06 1.89509e+06 1.2448e+06 528100 368969 355078 322718 306570 276802 716697 597826 590452 535073 495088 439280 401190 349285 308091 252935 221194 174988 246586 31741 147661 111021 236598 222366 199289 182463 154563
internal_count=2360400 1895086 1244797 528100 368969 355078 322718 306570 276802 716697 597826 590452 535073 495088 439280 401190 349285 308091 252935 221194 174988 246586 31741 147661 111021 236598 222366 199289 182463 154563
is_linear=0
shrinkage=0.1


Tree=13
num_leaves=31
num_cat=0
split_feature=3 3 28 3 3 9 28 3 28 3 3 7 28 3 28 7 28 3 3 3 3 3 7 25 3 3 3 9 28 3
split_gain=666646 333303 330655 11852.9 18053.3 15414.4 10945.4 12570.6 13244.7 13272.9 15581.7 10105.4 16262.8 11489.4 14818.5 10729.2 23234.3 10045.8 10003.8 21740.7 8479.28 38934.6 7263.31 6416.73 5641.56 18343 6003.95 14958.5 6621.5 13764.6
threshold=186.56250000000003 36.035000000000004 72.097500000000011 45.032500000000006 45.822500000000012 36.425000000000004 69.822500000000005 47.305000000000007 48.402500000000011 49.955000000000005 51.002500000000005 75.875000000000014 79.642500000000027 83.685000000000016 87.387500000000017 91.995000000000019 95.727500000000006 52.585000000000008 100.74500000000002 103.825 109.355 112.52500000000002 184.66000000000003 7.5362178358350986 157.52500000000003 155.42500000000004 148.30000000000004 146.69500000000002 118.96250000000002 122.12500000000001
decision_type=2 2 10 2 2 10 8 2 10 2 2 10 10 2 10 10 10 2 2 2 2 2 10 10 2 2 2 10 10 2
left_child=1 -1 3 5 -5 -3 7 -6 -9 -10 -11 -4 -13 -14 -15 -16 -17 -12 -18 -20 -21 -22 24 -19 25 26 27 28 -23 -30
right_child=-2 2 11 4 6 -7 -8 8 9 10 17 12 13 14 15 16 18 23 19 20 21 22 -24 -25 -26 -27 -28 -29 29 -31
leaf_value=-2.0666165384817243 10.892244426277026 -0.022116664366733832 -0.21051098234407561 -0.020838186316501608 0.060311815209377076 0.085296798653590147 0.073315708464525647 -0.010235920178425319 0.091927048872936012 -0.0086347391916390855 0.10327844249476287 0.0013652659308348804 -0.18877523032965657 0.0010671162519557242 -0.22317413793934693 0.0030512201124878405 -0.24292759229570893 0.017206652564395599 0.00460108543103388 -0.32411363672834742 0.030486582998216251 -0.33882209063234686 0.053246013191088085 -0.001875671368117793 -0.43822657437567047 0.071489840842681937 -0.32775942673544312 0.06150949967679651 0.076477439396948912 -0.26791422739687504
leaf_weight=613984 429391 5449 46142 9590 37212 143185 35313 13891 32359 18041 28323 43678 52690 41208 49550 43549 50199 236785 36698 46206 27327 34549 5886 9801 103372 9226 36310 7537 11461 101488
leaf_count=613984 429391 5449 46142 9590 37212 143185 35313 13891 32359 18041 28323 43678 52690 41208 49550 43549 50199 236785 36698 46206 27327 34549 5886 9801 103372 9226 36310 7537 11461 101488
internal_value=-0.0134486 -0.038509 -0.0101423 0.0472237 0.0386582 0.0715032 0.0418175 0.0368235 0.0307706 0.0348539 0.0281406 -0.0539072 -0.0509232 -0.0548499 -0.0509466 -0.0551809 -0.0508953 0.0340487 -0.0573665 -0.0523244 -0.0593632 -0.0538576 -0.0639498 0.0275701 -0.0660805 -0.0562998 -0.0629402 -0.0543677 -0.0613893 -0.0496711
internal_weight=2.3604e+06 1.93101e+06 1.31702e+06 569949 421315 148634 411725 376412 339200 325309 292950 747076 700934 657256 604566 563358 513808 274909 470259 420060 383362 337156 309829 246586 303943 200571 191345 155035 147498 112949
internal_count=2360400 1931009 1317025 569949 421315 148634 411725 376412 339200 325309 292950 747076 700934 657256 604566 563358 513808 274909 470259 420060 383362 337156 309829 246586 303943 200571 191345 155035 147498 112949
is_linear=0
shrinkage=0.1


Tree=14
num_leaves=31
num_cat=0
split_feature=3 3 28 3 3 3 3 9 3 28 3 28 28 3 28 9 28 9 3 44 9 3 28 9 7 3 3 3 3 3
split_gain=611382 317557 319287 16614.1 16288 12168.9 11747.2 13683.6 14794.9 13574.7 12262.3 9799.03 15689.2 11234.8 14278 10473.7 22336 9381.61 21694.8 8204.44 7538.39 31390.6 5743.65 5672.03 5630.57 5539.12 8666.69 18475.2 14474.3 22019.3
threshold=196.72750000000002 34.392500000000005 72.097500000000011 45.032500000000006 45.822500000000012 69.975000000000009 47.305000000000007 48.555000000000007 49.955000000000005 51.247500000000009 52.585000000000008 75.612500000000026 79.642500000000027 83.685000000000016 87.387500000000017 91.995000000000019 95.727500000000006 100.65500000000002 103.825 0.25340460526315794 109.19500000000001 112.52500000000002 45.997500000000009 102.93500000000002 195.53500000000003 53.067500000000003 55.055000000000007 56.332500000000003 58.175000000000004 59.105000000000011
decision_type=2 2 10 2 2 2 2 8 2 10 2 10 10 2 10 10 10 10 2 10 10 2 10 10 10 2 2 2 2 2
left_child=1 -1 3 -3 -5 6 22 -8 -9 -10 -11 -4 -13 -14 -15 -16 -17 -18 23 -20 -21 -22 -6 -19 -23 -12 -27 -28 -29 -30
right_child=-2 2 11 4 5 -7 7 8 9 10 25 12 13 14 15 16 17 18 19 20 21 24 -24 -25 -26 26 27 28 29 -31
leaf_value=-1.9354548960776434 11.721471674323153 0.076917398787011856 -0.19846028083818368 -0.018754367684851305 -0.0027193357939822253 0.072984107100495521 -0.0074721738942251648 0.086734435538376439 -0.006641386274672101 0.097950521951341338 -0.0062373348442356759 0.00089812957288870621 -0.16989770729669118 0.00096040462675972549 -0.2028571513915054 0.0026465345026068124 -0.22263416167941871 -0.00069411146045723633 0.03143801625112843 -0.29670257823129448 0.024551795700593005 -0.26453167116821991 0.063280648947228721 0.025433500343743278 0.013521082282136377 0.057464119432417964 -0.012546480310852814 0.09948600256674496 -0.0076878600906809431 0.014154870267742582
leaf_weight=586315 393066 176303 43285 9590 4704 33087 17210 29041 23194 23170 9304 46535 52690 41208 49107 43992 48476 27449 5314 45219 23874 340117 32508 10972 5163 28307 18160 26736 19395 146909
leaf_count=586315 393066 176303 43285 9590 4704 33087 17210 29041 23194 23170 9304 46535 52690 41208 49107 43992 48476 27449 5314 45219 23874 340117 32508 10972 5163 28307 18160 26736 19395 146909
internal_value=-0.0146504 -0.0373991 -0.0112211 0.0438307 0.0330449 0.0360457 0.0309636 0.0251486 0.029761 0.0230606 0.029323 -0.0532173 -0.0505126 -0.0542839 -0.0506347 -0.0545473 -0.0506005 -0.0565359 -0.0521091 -0.0586935 -0.0602769 -0.0555562 0.0843169 0.0198147 -0.0632241 0.0228434 0.0257842 0.0188201 0.0278916 0.0169124
internal_weight=2.3604e+06 1.96733e+06 1.38102e+06 597618 421315 411725 378638 341426 324216 295175 271981 783401 740116 693581 640891 599683 550576 506584 458108 419687 414373 369154 37212 38421 345280 248811 239507 211200 193040 166304
internal_count=2360400 1967334 1381019 597618 421315 411725 378638 341426 324216 295175 271981 783401 740116 693581 640891 599683 550576 506584 458108 419687 414373 369154 37212 38421 345280 248811 239507 211200 193040 166304
is_linear=0
shrinkage=0.1


Tree=15
num_leaves=31
num_cat=0
split_feature=3 3 28 3 3 3 28 9 3 28 3 28 7 28 28 28 28 3 28 3 3 7 3 3 28 3 3 28 3 28
split_gain=532546 319554 315240 18285 15105.6 12507.7 13654.4 11917.5 10542 18313.7 12037 11783.8 14929.1 11272 14692 15896.3 13702.6 17448.3 12823.8 30961.9 10167 12365.4 7391.05 15243.1 6924.54 16297.1 6142.23 17755.2 6939.77 22685
threshold=208.62500000000003 32.07500000000001 72.097500000000011 47.305000000000007 48.622500000000009 49.955000000000005 51.247500000000009 32.375000000000007 157.52500000000003 155.39750000000001 75.492500000000021 79.642500000000027 83.375000000000014 87.387500000000017 91.622500000000016 95.727500000000006 100.40750000000001 103.825 108.73750000000003 112.52500000000002 52.585000000000008 69.985000000000014 36.035000000000004 36.665000000000006 118.96250000000002 122.12500000000001 148.30000000000004 146.01250000000002 140.24500000000003 137.33750000000001
decision_type=2 2 10 2 2 2 10 10 2 10 2 10 10 10 10 10 10 2 10 2 2 10 2 2 10 2 2 10 2 10
left_child=1 -1 3 7 -5 -6 -7 -3 9 10 -4 -12 -13 -14 -15 -16 -17 -18 -19 -20 -8 -22 -9 -24 -21 -26 27 28 29 -27
right_child=-2 2 8 4 5 6 20 22 -10 -11 11 12 13 14 15 16 17 18 19 24 21 -23 23 -25 25 26 -28 -29 -30 -31
leaf_value=-1.9099094369874572 11.787873548638885 -0.019909475134429755 -0.18761388654342853 -0.0059390232742501329 0.083060915690593623 -0.0059772476472048199 0.088155469756207347 0.098853371673050111 -0.35930245939570971 0.08979457319164226 0.00038583879836835423 -0.16690787553186512 0.00086436416408446353 -0.19107134469961978 0.0024291740992083534 -0.20587077602905454 0.0043756048613701635 -0.28603180160933733 0.021446286540690099 -0.27848671445229062 0.0095374786040160597 0.066685147074039719 -0.015596463150558293 0.060075363650741315 0.09528286257407502 -0.25050142484047483 -0.27127995073414013 0.067466531511760769 -0.29853230882027049 0.18086725783011845
leaf_weight=539107 355995 4552 40717 19073 27178 23194 23170 70325 182654 9344 49103 49146 44752 46782 46317 45657 41240 42687 30846 34549 249165 32733 9615 185821 11461 62040 36192 9243 27234 10508
leaf_count=539107 355995 4552 40717 19073 27178 23194 23170 70325 182654 9344 49103 49146 44752 46782 46317 45657 41240 42687 30846 34549 249165 32733 9615 185821 11461 62040 36192 9243 27234 10508
internal_value=-0.0134888 -0.0335066 -0.00928767 0.0430324 0.0287261 0.0333783 0.0279807 0.0628534 -0.0504071 -0.0443412 -0.0464073 -0.0427648 -0.0470398 -0.0417648 -0.0465783 -0.0403469 -0.0476001 -0.0399752 -0.0493995 -0.0397504 0.0336043 0.0283705 0.0656014 0.0555977 -0.054747 -0.0458112 -0.0548717 -0.0430222 -0.0553046 -0.0391465
internal_weight=2.3604e+06 2.0044e+06 1.4653e+06 644826 374513 355440 328262 270313 820472 637818 628474 587757 538654 489508 444756 397974 351657 306000 264760 222073 305068 281898 265761 195436 191227 156678 145217 109025 99782 72548
internal_count=2360400 2004405 1465298 644826 374513 355440 328262 270313 820472 637818 628474 587757 538654 489508 444756 397974 351657 306000 264760 222073 305068 281898 265761 195436 191227 156678 145217 109025 99782 72548
is_linear=0
shrinkage=0.1


Tree=16
num_leaves=31
num_cat=0
split_feature=3 3 3 3 7 3 9 3 3 3 3 9 28 9 28 28 28 3 3 3 3 28 3 7 3 3 28 3 28 3
split_gain=477889 306021 288149 18510 19951.6 13608.6 13818.9 12917.6 16776.2 11776.3 12138.8 9631.45 11714.7 14689.3 10781.8 14263.5 15580.5 12949.4 16135.9 11127.3 22765.3 8951.38 11470.5 8877.44 7197.04 12356.7 6829.38 6007.21 18032.3 9492.27
threshold=219.76500000000001 30.275000000000002 71.675000000000026 45.032500000000006 46.015000000000008 47.305000000000007 70.015000000000015 186.56250000000003 184.15500000000003 48.622500000000009 49.955000000000005 75.205000000000013 79.642500000000027 83.395000000000024 87.387500000000017 91.622500000000016 95.727500000000006 99.965000000000018 103.825 107.77500000000002 112.52500000000002 51.247500000000009 52.585000000000008 30.455000000000002 117.72500000000001 122.12500000000001 111.17250000000001 176.14500000000001 174.05000000000004 166.07500000000002
decision_type=2 2 2 2 8 2 8 2 2 2 2 10 10 10 10 10 10 2 2 2 2 10 2 10 2 2 10 2 10 2
left_child=1 -1 3 23 -5 -6 9 8 11 -7 -11 -4 -13 -14 -15 -16 -17 -18 -19 -20 26 -12 -23 -3 -22 -26 -21 28 29 -27
right_child=-2 2 7 4 5 6 -8 -9 -10 10 21 12 13 14 15 16 17 18 19 20 24 22 -24 -25 25 27 -28 -29 -30 -31
leaf_value=-1.835418489474014 12.122086682056247 -0.017918470400527655 -0.1628527420297104 -0.013386497799019282 0.054945139240166446 -0.0053451209468249779 0.076016998577573255 -0.41859471120444031 0.061450985052235299 0.074754824121534114 -0.0053795228824846221 0.00030982336534179922 -0.15021708797867889 0.00077792774767573294 -0.17196421022965752 0.0021862566892878023 -0.19928363739099242 0.0032648138942775518 -0.29142901817691896 0.00090161821376852922 -0.32563804300706212 0.079339922780586394 0.0085252506077182488 0.06746801924695589 0.020361865440203533 -0.1676193729860046 0.033301596851464409 -0.50604779424463975 0.11785143671239098 -0.38714886846339031
leaf_weight=510545 319777 3466 42647 16121 30681 19073 26985 109614 8852 27177 23194 52717 49053 44845 46782 46317 41189 45708 37108 24080 27612 23170 249370 248607 18398 182639 12345 27071 8567 36690
leaf_count=510545 319777 3466 42647 16121 30681 19073 26985 109614 8852 27177 23194 52717 49053 44845 46782 46317 41189 45708 37108 24080 27612 23170 249370 248607 18398 182639 12345 27071 8567 36690
internal_value=-0.0144648 -0.0322768 -0.00990734 0.0394017 0.0264388 0.0308385 0.0255173 -0.0480997 -0.0434286 0.0200811 0.024591 -0.0450573 -0.0422508 -0.0459365 -0.0416305 -0.0454448 -0.0405764 -0.0461265 -0.0408816 -0.0477274 -0.042011 0.0187134 0.0237888 0.0607828 -0.0510474 -0.0461328 0.0326561 -0.051844 -0.0465537 -0.052113
internal_weight=2.3604e+06 2.04062e+06 1.53008e+06 667844 415771 399650 368969 862234 752620 341984 322911 743768 701121 648404 599351 554506 507724 461407 420218 374510 337402 295734 272540 252073 300977 273365 36425 254967 227896 219329
internal_count=2360400 2040623 1530078 667844 415771 399650 368969 862234 752620 341984 322911 743768 701121 648404 599351 554506 507724 461407 420218 374510 337402 295734 272540 252073 300977 273365 36425 254967 227896 219329
is_linear=0
shrinkage=0.1


Tree=17
num_leaves=31
num_cat=0
split_feature=3 28 28 3 3 3 9 3 3 7 28 28 28 3 28 3 3 3 3 3 3 3 3 3 3 7 3 3 9 28
split_gain=436688 282272 281513 21908.9 22014.6 13529.2 14087.4 11481.5 14872.3 12163.2 10454.2 15832.6 10516 14962.7 13556.3 14155.6 13553.1 12663 19870.7 8680.1 10118.7 8664.09 10286.4 8215.18 15555.1 7720.21 13594.7 6826.16 10521.7 6429.1
threshold=28.765000000000004 236.61000000000004 72.097500000000011 45.032500000000006 46.095000000000006 47.305000000000007 70.015000000000015 196.72750000000002 194.93500000000003 75.175000000000026 79.642500000000027 83.127500000000012 87.387500000000017 91.265000000000015 95.727500000000006 99.965000000000018 103.825 107.77500000000002 112.52500000000002 48.622500000000009 49.955000000000005 117.72500000000001 122.12500000000001 186.56250000000003 184.15500000000003 51.645000000000003 52.585000000000008 30.275000000000002 30.575000000000003 111.17250000000001
decision_type=2 8 10 2 2 2 10 2 2 10 10 10 10 2 10 2 2 2 2 2 2 2 2 2 2 10 2 2 10 10
left_child=-1 2 3 27 -5 -6 19 8 9 -4 -11 -12 -13 -14 -15 -16 -17 -18 29 -7 -21 -20 -23 24 -24 -22 -27 -2 -29 -19
right_child=1 -3 7 4 5 6 -8 -9 -10 10 11 12 13 14 15 16 17 18 21 20 25 22 23 -25 -26 26 -28 28 -30 -31
leaf_value=-1.7303766252678239 0.086623286994139195 12.276879356624059 -0.16681740679158283 -0.010116166729443422 0.05345071686888403 -0.0048106088521421954 0.052414932508878569 -0.46005439613971649 0.062459301465500522 0.00027884102880761932 -0.1421953486632333 0.00095310830779169473 -0.17326754506606648 0.0017947571433424515 -0.1793552736518933 0.0029383325048499389 -0.26228611635922761 0.00081145639239110778 -0.29307423870635602 0.067279341709380699 -0.0048415705942360891 0.018325678896182751 -0.19691836134276741 -0.4077365218222781 0.055305886547012052 0.075405640585535852 0.0076727255469464239 -0.01416531810159043 0.061321345795542472 0.029971437166318539
leaf_weight=472082 38463 292675 36954 18544 28258 19073 32528 100392 8991 52866 46498 47400 42922 50177 41189 45708 37108 24080 27612 27177 25578 18398 254967 27334 8852 20786 249370 4670 247403 12345
leaf_count=472082 38463 292675 36954 18544 28258 19073 32528 100392 8991 52866 46498 47400 42922 50177 41189 45708 37108 24080 27612 27177 25578 18398 254967 27334 8852 20786 249370 4670 247403 12345
internal_value=-0.0125733 0.00893292 -0.00762558 0.0391762 0.0246078 0.0295126 0.0244783 -0.045322 -0.0412418 -0.0427265 -0.039921 -0.0432297 -0.0391245 -0.042761 -0.0383059 -0.0433015 -0.0382345 -0.0439834 -0.0384493 0.0184968 0.0223687 -0.0460297 -0.041242 -0.0458244 -0.0404175 0.0170024 0.021974 0.0603023 0.0543148 0.0317172
internal_weight=2.3604e+06 1.88832e+06 1.59564e+06 711850 421314 402770 374512 883793 783401 774410 737456 684590 638092 590692 547770 497593 456404 410696 373588 341984 322911 337163 309551 291153 263819 295734 270156 290536 252073 36425
internal_count=2360400 1888318 1595643 711850 421314 402770 374512 883793 783401 774410 737456 684590 638092 590692 547770 497593 456404 410696 373588 341984 322911 337163 309551 291153 263819 295734 270156 290536 252073 36425
is_linear=0
shrinkage=0.1


Tree=18
num_leaves=31
num_cat=0
split_feature=3 7 28 3 3 28 3 3 3 3 28 3 9 3 28 3 28 3 28 7 28 9 3 28 3 3 3 7 3 28
split_gain=420261 256964 266422 29843 15546.5 11646.3 12667.3 12196.2 10853.6 14166.1 10047.8 9926.14 16605.3 10379.3 10775.6 14236.8 9132.67 16565.1 8612.02 15777.6 10813.6 14580.4 12373.3 14580.1 22305.8 10336.2 8922.97 23455.5 14520.9 13648.9
threshold=26.935000000000006 242.98500000000004 72.097500000000011 36.035000000000004 36.665000000000006 74.877500000000012 196.72750000000002 194.93500000000003 38.505000000000003 38.905000000000008 70.417500000000018 45.032500000000006 46.065000000000005 47.305000000000007 48.927500000000002 49.955000000000005 79.642500000000027 82.932500000000019 87.387500000000017 90.995000000000019 95.727500000000006 99.865000000000023 103.825 108.73750000000003 112.52500000000002 117.72500000000001 157.52500000000003 154.31500000000003 148.30000000000004 146.01250000000002
decision_type=2 10 8 2 2 10 2 2 2 2 10 2 10 2 10 2 10 2 10 10 10 10 2 10 2 2 2 10 2 10
left_child=-1 2 3 -2 -5 -4 7 16 -6 -10 11 -11 -13 -14 -15 -16 -7 -18 -19 -20 -21 -22 -23 -24 -25 -26 27 28 29 -27
right_child=1 -3 5 4 8 6 -8 -9 9 10 -12 12 13 14 15 -17 17 18 19 20 21 22 23 24 25 26 -28 -29 -30 -31
leaf_value=-1.6128389932586196 0.068702486283699224 12.102191298891341 -0.16488557455969044 -0.026915753339752515 0.070775702419296496 0.00016528882145792068 -0.40980973870631487 0.056213371318949615 -0.035160997066481771 0.056839201297776046 0.066173683398615429 -0.010104763679545671 0.045105385782581213 -0.0051154811974811311 0.067551377020864584 0.0071740496095529238 -0.13697544758597219 0.00060482414212827964 -0.17694069900672532 0.0010591789229621896 -0.16742026508553209 0.0029360553121037473 -0.20205710799478993 0.016730676964090207 -0.26376681483572073 -0.075506705887966069 -0.27725203317808678 0.075269072410821994 -0.26869824326300601 0.097173651793460186
leaf_weight=434773 179211 281935 34223 9615 26690 55598 111131 8991 8879 103450 25823 16741 30061 23792 22458 302439 43663 50235 40431 52668 39240 47657 42687 30846 27612 118180 136592 16722 28814 9243
leaf_count=434773 179211 281935 34223 9615 26690 55598 111131 8991 8879 103450 25823 16741 30061 23792 22458 302439 43663 50235 40431 52668 39240 47657 42687 30846 27612 118180 136592 16722 28814 9243
internal_value=-0.0104355 0.00961437 -0.00551478 0.0384785 0.0272867 -0.0423585 -0.0400828 -0.0354093 0.0294502 0.0263376 0.028457 0.025309 0.0180952 0.0224032 0.0175426 0.0222997 -0.0368155 -0.039981 -0.0359209 -0.0393014 -0.0348713 -0.039432 -0.0344235 -0.0400204 -0.0336033 -0.0410499 -0.0358206 -0.0207327 -0.0327803 -0.0182832
internal_weight=2.3604e+06 1.92563e+06 1.64369e+06 749159 569948 894533 860310 749179 560333 533643 524764 498941 395491 378750 348689 324897 740188 684590 640927 590692 550261 497593 458353 410696 368009 337163 309551 172959 156237 127423
internal_count=2360400 1925627 1643692 749159 569948 894533 860310 749179 560333 533643 524764 498941 395491 378750 348689 324897 740188 684590 640927 590692 550261 497593 458353 410696 368009 337163 309551 172959 156237 127423
is_linear=0
shrinkage=0.1


Tree=19
num_leaves=31
num_cat=0
split_feature=3 7 28 3 3 3 28 28 3 3 9 3 28 28 3 3 28 3 3 28 3 28 3 7 3 28 3 7 3 28
split_gain=388504 246188 238407 26562.8 15830.5 15255.2 14907.4 13401.2 13072.8 13067.1 12337.6 11828.8 11245 8164.96 8009.43 13340.3 7732.8 17371.7 7586.95 13959.5 15116.7 17508.2 14828.9 12937 20752.6 8616.38 14411.9 7437.32 14496.6 7445.3
threshold=24.222500000000004 254.73500000000004 72.097500000000011 36.035000000000004 208.62500000000003 206.00500000000002 36.897500000000008 74.877500000000012 38.505000000000003 38.905000000000008 25.215000000000003 196.72750000000002 195.31250000000003 70.417500000000018 30.275000000000002 30.867500000000003 79.642500000000027 82.932500000000019 43.272500000000008 43.902500000000011 45.032500000000006 46.222500000000004 47.305000000000007 41.535000000000004 40.605000000000011 48.927500000000002 49.955000000000005 51.645000000000003 52.585000000000008 53.452500000000008
decision_type=2 10 8 2 2 2 10 10 2 2 10 2 10 10 2 2 10 2 2 10 2 10 2 10 2 10 2 10 2 10
left_child=-1 2 3 10 5 7 -5 -4 -8 -10 -2 12 16 18 -12 -16 -9 -18 23 -20 -21 -22 -23 24 -11 -24 -27 -28 -29 -30
right_child=1 -3 4 6 -6 -7 8 11 9 13 14 -13 -14 -15 15 -17 17 -19 19 20 21 22 25 -25 -26 26 27 28 29 -31
leaf_value=-1.5070550290829041 -0.076055082488665715 12.93897229107252 -0.14839701710372141 -0.017465600601754974 -0.46606725023323747 0.10365065574600295 0.072698147436155838 0.00014875993931156019 -0.031644897359833384 0.071154975992217123 0.078944841217388984 -0.39834977150009082 0.067591851081584761 0.059556315058753743 -0.011667632644963533 0.061218666267657089 -0.12327790282737539 -0.034394340179852635 -0.023495044607148685 0.064505062204374755 -0.0070942415352241994 0.053594954015846241 -0.0046039330777333026 0.093655052286162999 -0.036344871419891692 0.060796239318778339 -0.0050748184957676301 0.067147671566026898 -0.0091548722312062136 0.0093869868456380352
leaf_weight=406480 4453 264005 34223 12790 91990 9488 23515 55598 8879 20092 99612 27583 6879 25823 9671 93768 43663 643039 13311 23152 22985 23817 23792 32045 14850 22458 25578 20786 14512 241563
leaf_count=406480 4453 264005 34223 12790 91990 9488 23515 55598 8879 20092 99612 27583 6879 25823 9671 93768 43663 643039 13311 23152 22985 23817 23792 32045 14850 22458 25578 20786 14512 241563
internal_value=-0.0103346 0.00816963 -0.00586024 0.0348307 -0.0405304 -0.03612 0.0236776 -0.0375949 0.026128 0.0229125 0.0654648 -0.0348967 -0.0325288 0.024948 0.0690757 0.0495857 -0.0337082 -0.0366124 0.0221102 0.0172542 0.0204597 0.0158621 0.0210885 0.0534238 0.0113388 0.015874 0.0201279 0.0143887 0.0191551 0.0126358
internal_weight=2.3604e+06 1.95392e+06 1.68992e+06 777452 912463 820473 569948 810985 557158 533643 207504 776762 749179 524764 203051 103439 742300 686702 498941 431954 418643 395491 372506 66987 34942 348689 324897 302439 276861 256075
internal_count=2360400 1953920 1689915 777452 912463 820473 569948 810985 557158 533643 207504 776762 749179 524764 203051 103439 742300 686702 498941 431954 418643 395491 372506 66987 34942 348689 324897 302439 276861 256075
is_linear=0
shrinkage=0.1


Tree=20
num_leaves=31
num_cat=0
split_feature=3 3 3 3 3 9 3 3 9 28 3 28 3 28 3 28 3 28 3 28 3 28 3 3 28 3 3 3 28 3
split_gain=373853 228957 206467 23984.6 19017.5 15446.6 14198 13733.1 12851 11713.6 10239.3 9946.29 8827.56 12082.2 9906.97 14787.7 19560.3 12294.3 14642.3 14271.2 12802.4 7754.16 12770.8 6685.2 13327.2 16904.8 16147.4 6239.25 15385.6 17317.5
threshold=23.025000000000002 269.34500000000008 71.675000000000026 208.62500000000003 36.035000000000004 25.215000000000003 74.555000000000021 36.665000000000006 206.53500000000003 70.417500000000018 196.72750000000002 195.31250000000003 38.505000000000003 39.237500000000004 40.605000000000011 41.477500000000013 43.272500000000008 43.902500000000011 45.032500000000006 46.222500000000004 47.305000000000007 48.927500000000002 49.955000000000005 30.275000000000002 32.797500000000007 32.07500000000001 30.867500000000003 67.805000000000021 66.222500000000011 64.292500000000018
decision_type=2 2 2 2 2 10 2 2 10 10 2 10 2 10 2 10 2 10 2 10 2 10 2 2 10 2 2 2 10 2
left_child=-1 2 4 6 5 -2 -4 -6 10 12 11 -8 -9 -14 -15 -16 -17 -18 -19 -20 -21 -22 -23 -7 25 26 -25 28 29 -24
right_child=1 -3 3 -5 7 23 8 9 -10 -11 -12 -13 13 14 15 16 17 18 19 20 21 22 27 24 -26 -27 -28 -29 -30 -31
leaf_value=-1.377349529989311 -0.032349549062797321 14.942075184035582 -0.11805743746366204 -0.46842183839634405 -0.022477617945602192 0.071050357095650093 -0.022807011982598626 0.056428317433751124 0.11828559017140208 0.075600805623190589 -0.33101464176219225 0.06083266597342743 -0.021480438141428238 0.081039676757253432 -0.038460468201242298 0.077289577575125182 -0.021145540146433463 0.05805455598393721 -0.0063848173817021353 0.048235458614261977 -0.0041435397699601138 0.054716615386900716 0.011988104144155898 -0.010500869380467038 0.070096952228782081 -0.032665909837487565 0.053210409175536461 -0.0054902048452618148 0.11144816609076146 -0.014453515976862265
leaf_weight=397446 13487 237286 37154 118709 9615 99612 744912 26690 8067 20279 29004 6879 13085 15887 13260 33635 13311 23152 22985 23817 23792 22458 222442 9671 62247 12630 18891 34078 21716 24203
leaf_count=397446 13487 237286 37154 118709 9615 99612 744912 26690 8067 20279 29004 6879 13085 15887 13260 33635 13311 23152 22985 23817 23792 22458 222442 9671 62247 12630 18891 34078 21716 24203
internal_value=-0.0108272 0.00708055 -0.00558369 -0.0370325 0.0324606 0.0576545 -0.0309921 0.0227948 -0.0281469 0.0248483 -0.0294442 -0.0271949 0.0220181 0.0190719 0.0215804 0.0190029 0.0219685 0.016249 0.0192572 0.0147323 0.019451 0.0146059 0.0186413 0.064538 0.0467319 0.0026073 0.0452069 0.0132387 0.018357 0.0112522
internal_weight=2.3604e+06 1.96295e+06 1.72567e+06 944725 780943 216538 826016 564405 788862 554790 780795 751791 534511 507821 494736 478849 465589 431954 418643 395491 372506 348689 324897 203051 103439 41192 28562 302439 268361 246645
internal_count=2360400 1962954 1725668 944725 780943 216538 826016 564405 788862 554790 780795 751791 534511 507821 494736 478849 465589 431954 418643 395491 372506 348689 324897 203051 103439 41192 28562 302439 268361 246645
is_linear=0
shrinkage=0.1


Tree=21
num_leaves=31
num_cat=0
split_feature=3 3 28 3 3 3 3 9 28 3 28 3 3 3 7 3 28 3 28 7 28 9 28 28 3 3 3 28 3 7
split_gain=366630 209575 167809 23652.4 17339.2 14623.2 16482 15657.1 13436 11356.2 12258.2 11347.4 22104 15234 14168.5 12670.4 14585.2 11152.7 8966.75 24281.3 20167.6 23533.9 20090.8 21007 23138.7 19677.1 19735 10905.7 12992.2 8695.52
threshold=22.212500000000002 289.63500000000005 72.097500000000011 208.62500000000003 74.555000000000021 36.035000000000004 25.635000000000002 36.995000000000012 206.02000000000001 38.505000000000003 70.417500000000018 157.52500000000003 154.19500000000002 148.30000000000004 144.67500000000004 140.24500000000003 137.33750000000001 38.905000000000008 79.642500000000027 82.695000000000007 87.387500000000017 90.995000000000019 95.727500000000006 99.552500000000023 103.825 107.77500000000002 112.52500000000002 117.54750000000001 122.12500000000001 126.61500000000002
decision_type=2 2 8 2 2 2 2 10 10 2 10 2 2 2 10 2 10 2 10 10 10 10 10 10 2 2 2 10 2 10
left_child=-1 2 5 4 -4 6 -2 -7 11 -9 17 12 13 14 15 16 18 -11 -6 -20 -21 -22 -23 -24 -25 -26 -27 -28 -29 -30
right_child=1 -3 3 -5 8 7 -8 9 -10 10 -12 -13 -14 -15 -16 -17 -18 -19 19 20 21 22 23 24 25 26 27 28 29 -31
leaf_value=-1.2606145808050773 -0.0077145430395741954 15.978867421491401 -0.12775209044581146 -0.44108446317947031 0.002337413194854321 -0.01297155340522238 0.052389375887377201 0.071785394137641845 0.08145703115426102 -0.026332363809707007 0.046040602990558455 -0.22880577911668923 0.06549504574731202 -0.24910877200171058 0.055235269826115999 -0.29695437663001201 0.21250511128502297 0.0091875527247168524 -0.1226693503112216 0.0061190476381298708 -0.15852679906558934 0.0064543532647533654 -0.15695761507948305 0.0083625849971383556 -0.21013165870758144 0.018708108711220462 -0.26567039486441929 0.023857341799399023 -0.26589512944144506 -0.053894854783241901
leaf_weight=387739 27804 219616 31611 136379 58210 15060 198441 21245 9534 8879 25823 173120 18413 27123 16700 19777 10508 498941 40144 53754 39939 53160 36644 50253 37108 36425 25097 20913 19435 42605
leaf_count=387739 27804 219616 31611 136379 58210 15060 198441 21245 9534 8879 25823 173120 18413 27123 16700 19777 10508 498941 40144 53754 39939 53160 36644 50253 37108 36425 25097 20913 19435 42605
internal_value=-0.0103761 0.00709676 -0.00443987 -0.0326625 -0.0262525 0.0294777 0.0509876 0.0209391 -0.0233425 0.0236696 0.0208152 -0.024786 -0.0183376 -0.0217173 -0.0181764 -0.0209617 -0.0179973 0.0173975 -0.020383 -0.0251062 -0.017928 -0.0264244 -0.0174344 -0.0285556 -0.0174347 -0.0340544 -0.0173712 -0.0388302 -0.0213555 -0.0443327
internal_weight=2.3604e+06 1.97266e+06 1.75304e+06 956852 820473 796193 226245 569948 788862 554888 533643 779328 606208 587795 560672 543972 524195 507820 513687 455477 415333 361579 321640 268480 231836 181583 144475 108050 82953 62040
internal_count=2360400 1972661 1753045 956852 820473 796193 226245 569948 788862 554888 533643 779328 606208 587795 560672 543972 524195 507820 513687 455477 415333 361579 321640 268480 231836 181583 144475 108050 82953 62040
is_linear=0
shrinkage=0.1


Tree=22
num_leaves=31
num_cat=0
split_feature=3 7 28 28 9 3 7 7 3 28 3 7 3 7 3 3 3 28 3 9 3 7 3 28 28 7 3 3 3 7
split_gain=356047 199902 145105 22083.5 16006.3 14399.8 12489.1 10295.1 11198.7 12161.7 10075 14206.5 13355.1 15047 13081 13656.8 11262.6 10378.7 12336.8 18731.6 10546.2 12549.3 12748.7 14093.2 9788.87 8888.2 8732.89 9641.46 8172.03 16135.3
threshold=21.065000000000001 299.85000000000008 72.097500000000011 236.61000000000004 74.345000000000013 36.035000000000004 36.935000000000009 229.15500000000003 208.62500000000003 206.02000000000001 196.72750000000002 193.48000000000005 186.56250000000003 181.67500000000004 176.14500000000001 173.85250000000002 166.07500000000002 163.34750000000005 157.52500000000003 154.44500000000002 148.30000000000004 144.67500000000004 140.24500000000003 137.33750000000001 70.417500000000018 172.53500000000003 38.505000000000003 38.905000000000008 45.032500000000006 46.295000000000009
decision_type=2 10 8 8 10 2 10 10 2 10 2 10 2 10 2 2 2 10 2 10 2 10 2 10 10 10 2 2 2 10
left_child=-1 2 5 4 -4 -2 -7 8 9 10 11 12 13 14 15 16 17 18 19 20 21 22 23 -6 26 -18 -8 -28 -29 -30
right_child=1 -3 3 -5 7 6 24 -9 -10 -11 -12 -13 -14 -15 -16 -17 25 -19 -20 -21 -22 -23 -24 -25 -26 -27 27 28 29 -31
leaf_value=-1.1495531799450285 0.039848288899587914 15.157979580709446 -0.13197669829576172 -0.48897430787714602 -0.0084783913708179181 -0.012901152011990292 0.058606717394776103 0.21242166044581837 -0.39601020022811328 0.073311328038835208 -0.302532752262195 0.050363107840829008 -0.35663609870213975 0.089954138686826474 -0.46092550638080071 0.17608428976177778 -0.34141647317767654 0.1397600404890767 -0.29024026468670455 0.066912795811254006 -0.21319783376638385 0.049711742843504686 -0.26725893896701225 0.1912546001565204 0.041436542691502612 0.012584381314511006 -0.023699127428736234 0.035642062909398933 -0.0064463281749148399 0.0075568820564349444
leaf_weight=378543 235441 208801 28637 83874 516660 13875 22430 8208 55113 9534 27537 14584 21741 14871 21052 9470 29310 8813 19265 16805 28731 16700 19777 10508 25823 6477 8879 103450 25387 370104
leaf_count=378543 235441 208801 28637 83874 516660 13875 22430 8208 55113 9534 27537 14584 21741 14871 21052 9470 29310 8813 19265 16805 28731 16700 19777 10508 25823 6477 8879 103450 25387 370104
internal_value=-0.0103909 0.00658307 -0.00431571 -0.0304145 -0.0257607 0.0270417 0.0184476 -0.023298 -0.0243781 -0.0213445 -0.0227126 -0.020545 -0.0224708 -0.0201341 -0.0222381 -0.0198433 -0.0215213 -0.0184558 -0.019967 -0.0174754 -0.0204289 -0.0174165 -0.0200238 -0.0170667 0.0207859 -0.0761086 0.017858 0.0151609 0.016999 0.0104536
internal_weight=2.3604e+06 1.98186e+06 1.77306e+06 967667 883793 805389 569948 855156 846948 791835 782301 754764 740180 718439 703568 682516 673046 637259 628446 609181 592376 563645 546945 527168 556073 35787 530250 507820 498941 395491
internal_count=2360400 1981857 1773056 967667 883793 805389 569948 855156 846948 791835 782301 754764 740180 718439 703568 682516 673046 637259 628446 609181 592376 563645 546945 527168 556073 35787 530250 507820 498941 395491
is_linear=0
shrinkage=0.1


Tree=23
num_leaves=31
num_cat=0
split_feature=3 3 3 3 3 3 3 28 9 28 28 28 3 3 28 3 28 3 3 3 3 9 3 3 3 3 3 28 3 9
split_gain=335898 184632 126167 19653.1 16449.8 14946.6 11984.3 10944.9 24437.4 19194.2 22650.4 22497.1 19576.8 18024.7 19687.3 17072.4 12634.9 9639.67 9596.46 9007.42 9814.63 18336.3 16978 10584.9 13198.5 11222.2 12607.9 8727.55 9512.28 15639.4
threshold=19.872500000000006 318.11000000000007 71.675000000000026 208.62500000000003 30.275000000000002 74.555000000000021 70.545000000000016 79.642500000000027 82.695000000000007 87.387500000000017 90.865000000000023 95.727500000000006 99.112500000000011 103.825 107.31750000000001 112.52500000000002 206.02000000000001 27.332500000000003 116.23750000000001 30.867500000000003 32.07500000000001 32.875000000000007 34.392500000000005 35.005000000000003 36.035000000000004 37.182500000000012 38.505000000000003 39.237500000000004 40.605000000000011 41.665000000000006
decision_type=2 2 2 2 2 2 2 10 10 10 10 10 2 2 10 2 10 2 2 2 2 10 2 2 2 2 2 10 2 10
left_child=-1 2 4 5 17 -4 19 -7 -9 -10 -11 -12 -13 -14 -15 -16 18 -2 -17 -6 -21 -22 -23 -24 -25 -26 -27 -28 -29 -30
right_child=1 -3 3 -5 6 7 -8 8 9 10 11 12 13 14 15 16 -18 -19 -20 20 21 22 23 24 25 26 27 28 29 -31
leaf_value=-1.0705978276182504 0.01767203125748118 15.963180768146316 -0.080278814843138951 -0.37212694554356179 -0.018674548921116595 0.0029515110124506807 0.069292857904774505 -0.10955457614301736 0.0063549820113976809 -0.15382579174069946 0.0071670643873702035 -0.16141468582117258 0.0070539045227278052 -0.20627068421731992 0.015998450270637933 -0.3222551500299588 0.065980195234951119 0.060867553056062111 -0.07445783839537512 0.038665601779286268 -0.036623039556067737 0.064100735272461407 -0.033136402661268959 0.06686359733873104 -0.009253847533177862 0.076746213501978397 -0.018295363062327399 0.068452747518117016 -0.028347375315134829 0.007766367703968058
leaf_weight=359963 84592 191609 37154 164386 9671 58210 17738 40006 53892 37581 55518 32472 54425 33589 39944 18478 9534 65990 355213 18891 14103 33106 9515 18154 18688 17617 13084 15887 16234 465156
leaf_count=359963 84592 191609 37154 164386 9671 58210 17738 40006 53892 37581 55518 32472 54425 33589 39944 18478 9534 65990 355213 18891 14103 33106 9515 18154 18688 17617 13084 15887 16234 465156
internal_value=-0.0103335 0.00566861 -0.0042192 -0.0282273 0.0248338 -0.0219432 0.0181018 -0.0190239 -0.0223485 -0.017947 -0.0227969 -0.0180734 -0.0242656 -0.0194828 -0.0259647 -0.0201156 -0.0266003 0.0546905 -0.0295006 0.0158891 0.0173356 0.0151774 0.0177945 0.0137806 0.0155427 0.012757 0.0154525 0.0125815 0.0147027 0.0121901
internal_weight=2.3604e+06 2.00044e+06 1.80883e+06 990402 818426 826016 667844 788862 730652 690646 636754 599173 543655 511183 456758 423169 383225 150582 373691 650106 640435 621544 607441 574335 564820 546666 527978 510361 497277 481390
internal_count=2360400 2000437 1808828 990402 818426 826016 667844 788862 730652 690646 636754 599173 543655 511183 456758 423169 383225 150582 373691 650106 640435 621544 607441 574335 564820 546666 527978 510361 497277 481390
is_linear=0
shrinkage=0.1


Tree=24
num_leaves=31
num_cat=0
split_feature=3 9 28 7 3 7 7 28 3 3 3 28 28 28 3 28 28 3 28 3 3 3 7 3 7 3 3 3 7 3
split_gain=313936 162177 113033 24676.9 17032.9 16769.7 11007.2 10156.9 10769.9 18668.7 20818.4 9571.33 23340.4 17510.4 21040.1 20675.9 19704.1 18691.9 19340.9 15749.2 10706.7 12475.6 10964.4 15829.9 10075.6 12313.4 9626.92 15801.4 10782.7 20761.4
threshold=19.192500000000006 329.75500000000005 72.097500000000011 242.98500000000004 30.275000000000002 74.285000000000011 70.565000000000012 30.957500000000003 32.07500000000001 33.045000000000009 34.392500000000005 79.642500000000027 82.507500000000007 87.387500000000017 90.625000000000014 95.727500000000006 99.552500000000023 103.825 107.31750000000001 112.52500000000002 116.23750000000001 122.12500000000001 126.61500000000002 131.26250000000002 135.42000000000004 140.24500000000003 144.50000000000003 148.30000000000004 152.73500000000004 157.52500000000003
decision_type=2 10 8 8 2 10 10 10 2 2 2 10 10 10 2 10 10 2 10 2 2 2 10 2 10 2 2 2 10 2
left_child=-1 2 4 5 -2 -4 7 -6 -9 -10 -11 -7 -13 -14 -15 -16 -17 -18 -19 -20 -21 -22 -23 -24 -25 -26 -27 -28 -29 -30
right_child=1 -3 3 -5 6 11 -8 8 9 10 -12 12 13 14 15 16 17 18 19 20 21 22 23 24 25 26 27 28 29 -31
leaf_value=-0.97453810589158152 0.037480811864835671 16.917863667894188 -0.11175059766546554 -0.5146059269477633 -0.013719885486067085 0.0026828210667332545 0.042363877290078733 0.036799087377724859 -0.020237067583455115 0.068690722780371513 0.0057379415064772845 -0.10959917956387244 0.0054002100845650606 -0.15144370084787939 0.0058407159198239356 -0.1242725458523367 0.0076687751822333899 -0.18564361579558836 0.014398605243573571 -0.29002963502696277 0.022237463414681715 -0.23101199352068136 0.16778767383771653 -0.29587495471758135 0.080375247466733413 -0.2450882988284292 0.048127687508403488 -0.28143238862052161 0.045101820196009612 -0.1587641977309204
leaf_weight=350838 159707 172406 28445 109530 11919 61375 22765 16643 18401 28807 574852 37398 56500 33632 59467 36644 50253 33589 39944 18478 27532 19435 17799 18180 17134 18625 17852 20104 25432 256714
leaf_count=350838 159707 172406 28445 109530 11919 61375 22765 16643 18401 28807 574852 37398 56500 33632 59467 36644 50253 33589 39944 18478 27532 19435 17799 18180 17134 18625 17852 20104 25432 256714
internal_value=-0.010782 0.0044561 -0.00424645 -0.0268406 0.0229844 -0.0213549 0.016021 0.0136294 0.0153362 0.0132122 0.0162368 -0.0188735 -0.0217767 -0.0180169 -0.0222759 -0.0184417 -0.0238633 -0.0193782 -0.0248967 -0.0199355 -0.0251954 -0.0220555 -0.0264181 -0.0227817 -0.0271663 -0.0234566 -0.0276403 -0.0235737 -0.0289734 -0.0239316
internal_weight=2.3604e+06 2.00956e+06 1.83716e+06 1.00406e+06 833094 894532 673387 650622 638703 622060 603659 866087 804712 767314 710814 677182 617715 581071 530818 497229 457285 438807 411275 391840 374041 355861 338727 320102 302250 282146
internal_count=2360400 2009562 1837156 1004062 833094 894532 673387 650622 638703 622060 603659 866087 804712 767314 710814 677182 617715 581071 530818 497229 457285 438807 411275 391840 374041 355861 338727 320102 302250 282146
is_linear=0
shrinkage=0.1


Tree=25
num_leaves=31
num_cat=0
split_feature=3 3 28 7 28 3 3 3 28 3 7 3 3 3 3 3 9 9 3 28 3 28 3 28 3 28 3 7 3 7
split_gain=298466 147032 103588 24014.5 16464.2 13147.4 9864.22 12856.7 10208.3 12275.3 9176.06 10260.2 16555.5 19017.4 9931.08 11649.2 11062.9 9092.75 8699.81 15552.4 18164.3 15597.1 17269.8 15067.6 25187.9 14677.8 17709.6 13175.5 11975.7 13910.9
threshold=17.375000000000004 354.31500000000005 72.097500000000011 242.98500000000004 74.047500000000028 30.275000000000002 29.212500000000002 28.765000000000004 27.412500000000005 26.935000000000006 30.995000000000001 32.07500000000001 33.045000000000009 34.392500000000005 35.005000000000003 36.035000000000004 36.995000000000012 70.595000000000013 67.805000000000021 66.222500000000011 64.292500000000018 62.682500000000012 60.952500000000008 59.422500000000007 58.175000000000004 56.797500000000007 55.055000000000007 53.605000000000011 52.585000000000008 51.645000000000003
decision_type=2 2 8 8 10 2 2 2 10 2 10 2 2 2 2 2 10 10 2 10 2 10 2 10 2 10 2 10 2 10
left_child=-1 2 5 4 -4 6 7 8 9 -2 -7 -12 -13 -14 -15 -16 -17 18 19 20 21 22 23 24 25 26 27 28 29 -18
right_child=1 -3 3 -5 -6 10 -8 -9 -10 -11 11 12 13 14 15 16 17 -19 -20 -21 -22 -23 -24 -25 -26 -27 -28 -29 -30 -31
leaf_value=-0.90108427241423961 0.028946718296873189 22.520077545245393 -0.10857572100438802 -0.48292233268429641 -0.010716458430353272 -0.010435181774343506 0.052032739452155856 -0.014967268177238681 0.078732616237434175 -0.013947762918156671 0.034119201528135794 -0.01821336082510925 0.061821650502334083 -0.030396556545789367 0.059603443454210495 -0.010032692260830346 0.0057274256974153559 0.038127489561071572 -0.0061367914095640692 0.097278475082525517 -0.016033038778334684 0.088025824750442183 -0.015314220873337094 0.097096365713270683 -0.013288135708226179 0.10308419044542064 -0.017549191293885259 0.072764571918471438 -0.010806446859757558 0.056209219595849194
leaf_weight=332653 102120 147228 25473 134708 869059 13156 29359 9104 25626 11683 15406 18401 28807 9515 18154 15060 252204 22620 37281 21716 24203 22091 24403 21797 25280 21451 23445 20421 17190 20786
leaf_count=332653 102120 147228 25473 134708 869059 13156 29359 9104 25626 11683 15406 18401 28807 9515 18154 15060 252204 22620 37281 21716 24203 22091 24403 21797 25280 21451 23445 20421 17190 20786
internal_value=-0.0114548 0.00294785 -0.00458666 -0.0259316 -0.020004 0.0212204 0.0453995 0.0349303 0.0424481 0.0296082 0.0148329 0.0164807 0.0145539 0.0173001 0.0134747 0.0151144 0.0126026 0.0148978 0.0122589 0.0157675 0.0119705 0.0165187 0.0122796 0.0172311 0.0126024 0.0194609 0.0143118 0.0206377 0.015174 0.0202718
internal_weight=2.3604e+06 2.02775e+06 1.88052e+06 1.02924e+06 894532 851279 177892 148533 139429 113803 673387 660231 644825 626424 597617 588102 569948 554888 532268 494987 473271 449068 426977 402574 380777 355497 334046 310601 290180 272990
internal_count=2360400 2027747 1880519 1029240 894532 851279 177892 148533 139429 113803 673387 660231 644825 626424 597617 588102 569948 554888 532268 494987 473271 449068 426977 402574 380777 355497 334046 310601 290180 272990
is_linear=0
shrinkage=0.1


Tree=26
num_leaves=31
num_cat=0
split_feature=3 3 3 7 28 3 7 3 7 3 7 3 7 3 3 3 9 28 7 28 7 28 3 3 3 3 3 3 9 3
split_gain=292027 135940 88732.1 23373.4 13876.4 11622.7 14955.6 15038.6 19758.9 14276.7 15813.8 13819.1 15102.8 14590.3 13290.6 16230.3 12549.3 10499.4 21098.4 17797.2 20736.5 20930 20650.8 16599.6 17390.5 11818.2 11311.9 10544.2 11485 12247.9
threshold=16.895000000000003 376.24000000000007 71.675000000000026 242.98500000000004 74.047500000000028 43.272500000000008 43.975000000000001 45.032500000000006 46.295000000000009 47.305000000000007 49.045000000000009 49.955000000000005 51.645000000000003 52.585000000000008 41.812500000000007 40.605000000000011 70.595000000000013 79.642500000000027 82.285000000000011 87.387500000000017 90.435000000000016 95.727500000000006 99.112500000000011 103.825 106.78750000000001 112.52500000000002 116.23750000000001 122.12500000000001 126.70500000000001 131.26250000000002
decision_type=2 2 2 10 10 2 10 2 10 2 10 2 10 2 2 2 10 10 10 10 10 10 2 2 2 2 2 2 10 2
left_child=-1 2 5 4 -4 14 -7 -8 -9 -10 -11 -12 -13 -14 15 -2 -15 -6 -19 -20 -21 -22 -23 -24 -25 -26 -27 -28 -29 -30
right_child=1 -3 3 -5 17 6 7 8 9 10 11 12 13 16 -16 -17 -18 18 19 20 21 22 23 24 25 26 27 28 29 -31
leaf_value=-0.82497578413765926 0.020052099872947694 21.270071743845854 -0.073718362526996373 -0.45060941660145493 0.0030527050357406441 -0.020436816010205663 0.049843056884081 -0.0077248688482086441 0.045814433113036304 -0.0073525410503776818 0.051647474208411384 -0.0093637640295078494 0.050588297636264205 0.0018450945341349724 0.081154515280994141 -0.019659205021588379 0.057314313358870099 -0.11756807352812189 0.0052218247779521228 -0.15622759336732203 0.0061402545434219753 -0.13177431681078675 0.0071084708288978509 -0.19100760837299477 0.01078674355907765 -0.25995502568123074 0.021085362916248587 -0.20683914832557804 0.15108110161338573 -0.10171701563418481
leaf_weight=323278 355982 137240 31017 144695 64347 14962 21502 25387 21415 26087 20163 25578 20786 259278 27781 19114 17076 30869 63029 31201 61898 32472 54425 27712 45821 18478 27532 19367 17867 374041
leaf_count=323278 355982 137240 31017 144695 64347 14962 21502 25387 21415 26087 20163 25578 20786 259278 27781 19114 17076 30869 63029 31201 61898 32472 54425 27712 45821 18478 27532 19367 17867 374041
internal_value=-0.0109483 0.00306364 -0.00387929 -0.0234307 -0.0174336 0.0200085 0.00900463 0.0123685 0.00815114 0.0137104 0.00910323 0.0148136 0.00979555 0.0161426 0.0323605 0.0274175 0.0100654 -0.0150879 -0.0181961 -0.0149621 -0.019478 -0.0158183 -0.0213734 -0.0170666 -0.0224593 -0.0182113 -0.0230629 -0.0198354 -0.0238461 -0.0201313
internal_weight=2.3604e+06 2.03712e+06 1.89988e+06 1.04477e+06 900076 855111 452234 437272 415770 390383 368968 342881 322718 297140 402877 375096 276354 869059 804712 773843 710814 679613 617715 585243 530818 503106 457285 438807 411275 391908
internal_count=2360400 2037122 1899882 1044771 900076 855111 452234 437272 415770 390383 368968 342881 322718 297140 402877 375096 276354 869059 804712 773843 710814 679613 617715 585243 530818 503106 457285 438807 411275 391908
is_linear=0
shrinkage=0.1


Tree=27
num_leaves=31
num_cat=0
split_feature=3 3 28 3 3 7 3 9 3 7 3 3 3 3 3 28 3 28 3 28 3 28 3 3 28 3 7 3 9 3
split_gain=283444 126749 80417.4 21595.6 16242.2 13395.5 15464.1 15853.6 14692.3 14517.9 16119.7 21369.9 15809.5 10899.3 12104.6 20845.1 9418.5 14122.5 13151.4 12354.6 9396.1 12951.7 11963.2 9145.87 11249.5 10879.4 11757.6 11041.5 10728.6 10565.5
threshold=16.145000000000003 393.97500000000008 72.097500000000011 208.62500000000003 73.815000000000012 204.09500000000003 196.72750000000002 193.46000000000001 186.56250000000003 181.67500000000004 176.14500000000001 172.35500000000005 166.07500000000002 163.07000000000002 157.52500000000003 154.18250000000003 148.30000000000004 144.12250000000003 140.24500000000003 137.33750000000001 131.26250000000002 128.60750000000004 122.12500000000001 30.275000000000002 29.287500000000005 28.765000000000004 27.485000000000003 26.935000000000006 31.085000000000004 32.07500000000001
decision_type=2 2 8 2 2 10 2 10 2 10 2 2 2 2 2 10 2 10 2 10 2 10 2 2 10 2 10 2 10 2
left_child=-1 2 23 4 -4 6 7 8 9 10 11 12 13 14 15 16 17 18 19 20 21 22 -6 24 25 26 27 -2 -25 -30
right_child=1 -3 3 -5 5 -7 -8 -9 -10 -11 -12 -13 -14 -15 -16 -17 -18 -19 -20 -21 -22 -23 -24 28 -26 -27 -28 -29 29 -31
