tree
version=v4
num_class=1
num_tree_per_iteration=1
label_index=0
max_feature_idx=246
objective=regression_l1
feature_names=Column_0 Column_1 Column_2 Column_3 Column_4 Column_5 Column_6 Column_7 Column_8 Column_9 Column_10 Column_11 Column_12 Column_13 Column_14 Column_15 Column_16 Column_17 Column_18 Column_19 Column_20 Column_21 Column_22 Column_23 Column_24 Column_25 Column_26 Column_27 Column_28 Column_29 Column_30 Column_31 Column_32 Column_33 Column_34 Column_35 Column_36 Column_37 Column_38 Column_39 Column_40 Column_41 Column_42 Column_43 Column_44 Column_45 Column_46 Column_47 Column_48 Column_49 Column_50 Column_51 Column_52 Column_53 Column_54 Column_55 Column_56 Column_57 Column_58 Column_59 Column_60 Column_61 Column_62 Column_63 Column_64 Column_65 Column_66 Column_67 Column_68 Column_69 Column_70 Column_71 Column_72 Column_73 Column_74 Column_75 Column_76 Column_77 Column_78 Column_79 Column_80 Column_81 Column_82 Column_83 Column_84 Column_85 Column_86 Column_87 Column_88 Column_89 Column_90 Column_91 Column_92 Column_93 Column_94 Column_95 Column_96 Column_97 Column_98 Column_99 Column_100 Column_101 Column_102 Column_103 Column_104 Column_105 Column_106 Column_107 Column_108 Column_109 Column_110 Column_111 Column_112 Column_113 Column_114 Column_115 Column_116 Column_117 Column_118 Column_119 Column_120 Column_121 Column_122 Column_123 Column_124 Column_125 Column_126 Column_127 Column_128 Column_129 Column_130 Column_131 Column_132 Column_133 Column_134 Column_135 Column_136 Column_137 Column_138 Column_139 Column_140 Column_141 Column_142 Column_143 Column_144 Column_145 Column_146 Column_147 Column_148 Column_149 Column_150 Column_151 Column_152 Column_153 Column_154 Column_155 Column_156 Column_157 Column_158 Column_159 Column_160 Column_161 Column_162 Column_163 Column_164 Column_165 Column_166 Column_167 Column_168 Column_169 Column_170 Column_171 Column_172 Column_173 Column_174 Column_175 Column_176 Column_177 Column_178 Column_179 Column_180 Column_181 Column_182 Column_183 Column_184 Column_185 Column_186 Column_187 Column_188 Column_189 Column_190 Column_191 Column_192 Column_193 Column_194 Column_195 Column_196 Column_197 Column_198 Column_199 Column_200 Column_201 Column_202 Column_203 Column_204 Column_205 Column_206 Column_207 Column_208 Column_209 Column_210 Column_211 Column_212 Column_213 Column_214 Column_215 Column_216 Column_217 Column_218 Column_219 Column_220 Column_221 Column_222 Column_223 Column_224 Column_225 Column_226 Column_227 Column_228 Column_229 Column_230 Column_231 Column_232 Column_233 Column_234 Column_235 Column_236 Column_237 Column_238 Column_239 Column_240 Column_241 Column_242 Column_243 Column_244 Column_245 Column_246
feature_infos=[0:59] [0:2759.6876344887746] [-1:1] [0:4948.29] [0:6203.703558423389] [0:5002.0600000000004] [0:5000] [1.1100000000000001:4947.6300000000001] [3.1952327434210506e-06:244.70859082200923] [1.1200000000000001:4953] [8.5435873149326554e-06:258.87333777364455] [0:6203.703558423389] [0:6660.7020465537516] [0:inf] [0:inf] [6.74025372770619e-05:336.85992966796482] [0.00019800484259915546:175.69691695874266] [0.00020637561371018609:12917.779554904862] [6.769317318061601e-05:12284.080926219727] [0:3446902.33258997] [0:3499414.3373793382] [1.3876777545819733e-05:6660.7041460138998] [4.3890411552927766e-05:6204.1464817829383] [0.0010821228330219737:12813.356054875367] [0.0019626113233637901:24645.834279522591] [4.6568602968222212e-05:493.55789678475793] [0:12813.184706627899] [0:6917248.9196489938] [1.1150000000000002:4950.3150000000005] [0:5001.0300000000007] [-95.150000000000034:19.860000000000582] [0.69494405437465923:1.0521739130434784] [-2759.6876344887746:946.00874666844425] [-inf:inf] [0:4810.9054293485215] [-1350.8204690271252:4810.9054293485215] [-inf:inf] [-inf:inf] [-71.496302601350692:228.66719040531848] [0:5886120] [0:1708291] [0:18158799] [0:23583903] [0:219372] [0:3026466.5] [0:18158799] [0:23583903] [0:18159736.809172135] [0:23583903] [-0.9997966859814984:0.99993212516120278] [-0.99979653312936712:0.99993218608807666] [-0.99999967112148413:1] [-0.99999967124598632:1] [-1:1] [-1:1] [-0.99809705042816355:0.99913081269013471] [-0.51745068285280726:1] [-0.077519379844961225:1] [-1:0.00059772863120142192] [-1:0.017944535073409516] [-1:0.0088924818108326847] [-1:0.51745068285280726] [-1:0.51745068285280726] [-1:0.51821862348178149] [-1:0.51783455603339235] [-1:0.077519379844961225] [-1:0.081712062256809326] [-1:0.079611650485436836] [-0.17997994968505876:0.025423728813559344] [-0.09888899281846629:0.012552301255230139] [-0.012875536480686706:0.082560369287369054] [2.1194468474734722:17.564325399804794] [-67.964285714285737:11.481308411214773] [-0.12855710691789912:0.01516601481234915] [0:3479182.5699326242] [0:222311.10590158921] [0:3477076.36661901] [0:229806.18274591691] [0:3475093.9351810911] [0:242610.1472351471] [0:3474639.0345497164] [0:242610.1472351471] [0.00036799489517481412:6197.9795285508499] [0:757.16486563512638] [0.001057725361609858:6194.961198746526] [0:748.0375999180842] [0.001057725361609858:6194.2575942856784] [0:966.22474352587744] [0.001057725361609858:6193.5021331591752] [0:966.22474352587744] [-1:1] [0:0.59995556920823612] [-1:1] [0:0.70542225186537777] [-1:1] [0:0.71999850098859286] [-1:1] [0:0.71999850098859286] [-156:566.78666666666663] [0:215.0254353537683] [-156:566.23199999999997] [0:268.17763034984051] [-156:566.23199999999997] [0:282.32638101828741] [-156:566.23199999999997] [0:282.32638101828741] [-0.98675958188153323:0.99913081269013471] [0:1.1783286794994889] [-0.9801753063897426:0.97239075125115326] [0:1.1783286794994889] [-0.9801753063897426:0.97239075125115326] [0:1.1783286794994889] [-0.9801753063897426:0.97239075125115326] [0:1.1783286794994889] [-2759.6876344887746:724.02333303381806] [0:669.03778026708517] [-2759.6876344887746:724.02333303381806] [0:646.50679575342383] [-2759.6876344887746:724.02333303381806] [0:855.40334668027504] [-2759.6876344887746:724.02333303381806] [0:855.40334668027504] [-1:0.0088924818108326847] [0:0.51638369910012749] [-1:0.0088924818108326847] [0:0.51638369909775683] [-1:0.0088924818108326847] [0:0.51638369909775683] [-1:0.0088924818108326847] [0:0.51638369909775683] [-669.20453715947565:744.92179201479235] [-6.8600000000005821:12.050000000000182] [-inf:10.141263940520446] [-21.230000000000473:29.340000000000146] [-20.289999999999964:21.920000000000073] [-23.220000000000255:24.4399999999996] [-29.869999999999891:21.6899999999996] [-24.829999999999927:30.899999999999636] [-24:21.970000000000255] [-24.869999999999891:21.779999999999745] [-28.609999999999673:21.159999999999854] [-1.0775193798449612:0.057079152731326702] [-1.0775193798449612:0.033279554585429076] [-1.0775193798449612:0.084452451140954274] [-1.0775193798449612:0.04369175917672799] [-38.454641309758728:55.520433140430228] [-38.454641309758728:55.520433140430228] [-38.080944778869906:55.520433140430228] [-38.080944778869906:55.520433140430228] [-234.86332361149485:335.95976952336514] [-309.71124237757709:336.82659040335] [-147.26067269599545:336.52653702181681] [-146.99459045624985:147.40808667923403] [-23.029999999999745:30.1200000000008] [-20.909999999999854:21.159999999999854] [-23.304999999999382:22.140000000000327] [-29.239999999999782:21.424999999999272] [-60.460722956467748:35.859323723625522] [-60.460722956467748:36.380744496844514] [-60.460722956467748:35.859323723625522] [-60.460722956467748:36.062933276280205] [-0.032677691472479786:0.033864158372525432] [-0.033864158372525432:0.033864158372525432] [-0.030035476419516538:0.032888548616427871] [-0.033287521508110984:0.025802466967573379] [-15957.666666666664:9832.3157142857144] [-9791.0400000000009:9835.992106094096] [-9376.9541984732823:9832.4242857142854] [-13351.249:9829.6636363636371] [-17.557473684210056:19.42766257788119] [-13.504381270902716:19.37296969696996] [-14.07816149068338:19.784940711462514] [-16.170643687707063:14.514117647058811] [-41.299999999999997:19.23076923076923] [-372.66666666666669:inf] [-372.66666666666669:inf] [-372.66666666666669:53] [0:4938.7600000000002] [0:4938.7600000000002] [0:4938.7600000000002] [0:4938.7600000000002] [0:4708.6400000000003] [0:4708.6400000000003] [0:4708.6400000000003] [0:4708.6400000000003] [0:4600.6499999999996] [0:4600.6499999999996] [0:4600.6499999999996] [0:4600.6499999999996] [-inf:inf] [-1.0188482700840227:1.4703608775771713] [-inf:inf] [-1.0261065671264762:1.4062000289552077] [-inf:inf] [-1.0307908133094277:1.3992516435670175] [-inf:inf] [-1.0307908133094277:1.3814498683081762] [-1:1] [-2:2] [-1:1] [-2:2] [-1:1] [-2:2] [-1:1] [-2:2] [-inf:inf] [-2701.5805559409664:838.08250673324778] [-inf:inf] [-4304.0208744147312:719.23881626488526] [-inf:inf] [-2681.4811539666443:780.63210273929826] [-inf:inf] [-1751.1087515693914:721.46373907902648] [0.090909090909090925:inf] [-3.2420941213100392:62.652440658378097] [0.098126672613737725:inf] [-3.2152933227465041:118.96360591123272] [0.099018733273862625:inf] [-3.0632924990480093:124.64226019574807] [0.11144578313253012:inf] [-2.4770253176587462:146.02872758358322] [0:4995.8039446392049] [0:4990.6913649958415] [0:4904.913602216654] [0:4654.7839486796111] [0:4990.2920733946894] [0:4980.8878285400624] [0:4896.3465095874262] [0:4647.3922959386791] [-6.0278783296774066:1250.1754919461] [-3.0846151237965955:1237.8478147323799] [0:740.91516790350579] [-2.5013088951872078:1249.9177708006714] [0:1237.5915161622161] [0:740.76256987228271] [-5.8576025290563702:1124.8430227964227] [-2.8195864194687195:1211.1881614749836] [0:733.22996768073142] [-2.1840303685976541:1124.6149516706653] [0:1210.9400812136371] [0:733.07926780594039] [-142.22666528782224:479.80271869000899] [-80.613792535491939:320.3086347237404] [-29.121200867359448:137.74934722169215] [-142.1281772908535:482.43621573030038] [-80.930229623391369:319.41864801365864] [-29.233463453097443:137.72079892112095]
tree_sizes=2754 2953 3002 2992 3015 3032 3029 3050 3064 3060 3053 3068 3112 3098 3093 3095 3083 3098 3097 3100 3086 3111 3104 3126 3114 3110 3110 3132 3114 3101 3141 3113 3134 3092 3129 3148 3126 3108 3129 3137 3136 3140 3125 3135 3119 3110 3106 3104 3117 3105 3087 3102 3118 3111 3124 3126 3118 3137 3146 3112 3108 3140 3115 3137 3152 3098 3119 3105 3140 3143 3102 3121 3101 3161 3174 3117 3104 3138 3148 3092 3120 3125 3142 3114 3183 3178 3079 3099 3125 3103 3117 3120 3053 3124 3077 3165 3142 3125 3129 3075 3083 3072 3073 3085 3132 3049 3063 3119 3090 3109 3153 3091 3139 3146 3072 3085 3057 3127 3055 3040 3092 3115 3045 3107 3166 3039 3104 3093 3112 3090 3133 3135 3155 3170 3102 3129 3152 3104 3147 3061 3098 3114 3106 3148 3117 3089 3045 3103 3128 3102 3095 3122 3073 3149 3065 3153 3133 3146 3130 3094 3081 3107 3071 3072 3097 3098 3135 3121 3086 3176 3087 3117 3088 3093 3076 3063 3072 3057 3129 3066 3122 3093 3133 3148 3121 3161 3136 3121 3099 3148 3078 3131 3121 3010 3123 3135 3100 3093 3155 3138 3103 3095 3117 3138 3101 3129 3093 3094 3090 3061 3122 3096 3096 3051 3100 3104 3097 3121 3049 3055 3063 3069 3088 3050 3065 3064 3078 3070 3080 3059 3010 3154 3148 3092 3083 3107 3066 3057 3051 3072 3106 2972 3040 3074 2994 3023 2995 3057 3080 3022 3063 3038 3059 3085 3066 3036 3050 3093 3046 3134 3080 3092 3116 3068 3048 3085 3122 3145 3113 3112 3107 3101 3090 3120 3076 3076 3082 3096 3099 3065 3131 3078 3066 3129 3077 3072 3107 3085 3114 3076 3073 3078 3080 3077 3045 3072 3087 3054 3098 3050 3096 3074 3078 3117 3062 3118 3054 3040 3021 3121 3067 3038 3134 3061 3096 3130 3041 3051 3061 3111 3105 3133 3061 3103 3116 3111 3132 3061 3099 3047 3081 3000 3080 2990 3042 3016 3030 3034 3031 3110 3170 3116 3052 3139 3100 3132 3107 3135 3121 3122 3059 3076 3048 3100 3094 3103 3083 3097 3071 3126 3091 3097 3173 3140 3135 3094 3102 3030 3055 3110 3118 3089 3094 3083 3138 3113 3095 3059 3076 3092 3087 3092 3097 3106 3085 3048 3071 3156 3100 3087 3087 3124 3029 3132 3154 3103 3122 3029 3127 3103 3010 3081 3093 3099 3091 3090 3120 3097 3060 3089 3092 3110 3079 3074 3072 3085 3038 3054 3058 3120 3062 3089 3126 3102 3030 3096 3057 3125 3106 3095 3052 3060 3069 3101 3094 3070 3018 3110 3108 3168 3171 3126 3145 3081 3065 3140 3057 3084 3070 3114 3097 3130 3069 3076 3056 3059 3051 3056 3089 3071 3135 3084 3081 3062 3054 3025 3061 3056 3087 3060 3086 3069 3039 3008 3122 3098 3158 3098 3062 3080 3105 3116 3166 3104 3077 3103 3150 3118 3117 3073 3067 3122 3046 3099 3088 3080 3036 3087 3046 3087 3054 3073 3096 3072 3039 3123 3078 3059 3047 3092 3169 3069 3078 3070 3087 3112 3105 3108 3043 3101 3070 3082 3103 3014 3092 3092 3057 3073 3051 3050 3083 3043 3094 3092 3089 3092 3014 3083 3045 3021 3023 3049 3025 3006 3022 3015 3024 3059 3036 3137 3063 3089 3064 3077 3067 3009 3005 3016 3125 3089 3078 3102 3043 3114 3060 3120 3064 3181 3098 3068 3103 3104 3093 3078 3134 3087 3164 3103 3095 3077 2984 3081 3061 3080 3078 3040 3045 3079 3039 3088 3097 3102 3083 3059 3058 3074 3040 3092 3130 3172 3086 3064 3089 3058 3059 3047 3039 3062 2976 3034 3068 3019 3066 3050 3029 3040 3053 3057 3059 3130 3098 3069 3069 3077 3086 3093 3086 3082 3064 3096 3132 3106 3053 3111 3100 3066 3072 3083 3070 3090 3092 3136 3053 3059 3116 3078 3068 3047 3036 3049 3088 3062 3104 3101 3044 3101 3039 3086 3072 3060 3036 3138 3118 3082 3062 3121 3048 3010 3049 3117 3020 3018 3057 3080 3140 3055 3120 3093 3060 3094 3071 3058 3109 3097 3097 3063 3056 3119 3092 3130 3116 3056 3118 3073 3155 3097 3052 3016 3074 3078 3063 3085 3113 3099 3048 3072 3125 3061 3082 3081 3076 3095 3115 3098 3053 3094 3092 3099 3111 3078 3071 3086 3078 3067 3049 3055 3117 3066 3092 3120 3079 3068 3102 3068 3064 3126 3100 3115 3023 3095 3138 3094 3067 3107 3020 3075 3065 3148 3014 3089 3092 3087 3101 3132 3058 3041 3084 3080 3086 3000 3078 3048 3036 3053 3077 3069 3085 3116 3021 3055 3058 3043 3048 3095 3095 3056 3091 3037 3109 3084 3117 3063 3086 3094 3078 3060 3042 3098 3022 3019 3034 3046 3044 3041 2990 3067 3006 3053 3093 3053 3024 3025 3095 3103 3043 3061 3027 3051 3013 3055 3103 3029 3054 3084 3048 3103 3040 3054 3102 3014 3057 3029 3109 3061 2930 2976 3017 3022 3043 2970 3043 2991 2991 2993 2996 3015 3022 3008 3027 3029 3032 3003 3049 3014 2994 3022 2973 3008 3009 3027 3052 3023 2996 3064 3025 3011 2981 2953 2965 2982 2974 3024 3016 2995 3009 3018 2999 3039 3040 3055 3005 3024 3046 3023 3037 3002 3035 3020 2899 3041 2963 3035 2999 2982 2983 3006 2998 2979 3033 3002 3017 3090 3000 3000 3040 3031 3009 2965 2999 3035 2980 2995 2995 3049 2997 2973 2967 2922 2920 3078 2992 2957 3013 2964 3048 3025 3017 3026 3021 2977 2999 3072 2969 2984 3015 3003 3010 2974 3061 3021 3038 3041 3022 3045 3024 3010 3103 3008 3020 3000 2990 3031 3002 2937 2979 3037 3020 3074 2984 2994 3067 3024 3022 2986 3003 2940 3014 3014 2954 2992 3012 3023 3015 3044 2997 2989 3026 3000 3060 3023 2998 3036 3015 2941 2950 2998 3009 3027 3055 3037 3015 3010 2967 2964 3014 2951 3054 3019

Tree=0
num_leaves=31
num_cat=0
split_feature=3 3 28 13 129 134 90 128 133 116 186 97 13 4 125 97 135 7 55 83 122 114 37 105 100 169 109 123 11 28
split_gain=1.25199e+06 811.474 1768.14 215.961 134.778 110.86 104.496 177.498 82.3244 55.2635 29.1244 24.1715 20.0879 77.539 22.7115 18.9097 11.0595 10.5666 32.9517 10.5537 10.4021 27.6706 9.85671 6.46693 4.82576 4.54882 4.18699 3.77967 3.54912 3.28385
threshold=72.00500000000001 71.302500000000023 71.887500000000017 3.9801271142647527 0.00018374892388865182 0.020000000000024446 0.080654869730880457 -8.0406650286920058e-05 -0.069999999999964743 -8.9868496667378555 111.56125000000002 0.10283493311566098 1.0000000180025095e-35 43.320875593814797 0.0001224709618903279 0.014657280511049227 0.12999999999999726 72.015000000000015 -0.088874066914056846 0.1865476891998093 0.00017632692904093626 5.7650038137917354 3.730801562771731 0.032716707238163369 -0.21519135030238681 0.065073550932412308 0.00086218813197524405 0.00023841342708751741 23.277397740464622 202.25250000000003
decision_type=2 2 10 10 10 8 10 10 10 2 10 8 8 2 10 10 10 10 10 10 10 2 10 10 10 10 10 10 2 10
left_child=1 29 6 4 11 26 12 9 15 25 -11 28 13 -3 -15 -9 -6 18 -2 24 22 -22 27 -10 -7 -8 -5 -14 -4 -1
right_child=17 2 3 5 16 19 7 8 23 10 -12 -13 20 14 -16 -17 -18 -19 -20 -21 21 -23 -24 -25 -26 -27 -28 -29 -30 -31
leaf_value=68.175001525878912 71.898001098632818 71.91000137329101 71.907001495361328 71.897001647949224 71.900001525878906 71.90100173950195 71.867001342773435 71.877001190185553 71.901501464843747 71.896001434326166 71.91000137329101 71.900001525878906 71.863001251220709 71.861001586914057 71.900001525878906 71.913001251220706 71.897001647949224 79.408000946044922 71.91000137329101 71.902001190185544 71.915001678466794 71.850001525878909 71.896751403808594 71.913001251220706 71.900001525878906 71.845001220703125 71.895001220703122 71.863501739501956 71.91000137329101 64.710001373291021
leaf_weight=626193 28 38 32 20 20 26 374 45 20 20 23 26 3095 224 23 21 37 633014 111 44 20 48 28 91 22 28 103 36 678 3912
leaf_count=626193 28 38 32 20 20 26 374 45 20 20 23 26 3095 224 23 21 37 633014 111 44 20 48 28 91 22 28 103 36 678 3912
internal_value=71.9 71.8008 71.8404 71.9591 71.9832 71.8702 71.8114 71.8492 71.9339 71.8155 71.9233 71.9947 71.8047 71.8302 71.8097 71.8455 71.8351 71.9995 71.9719 71.9533 71.8025 71.8412 71.8016 71.9865 71.9208 71.804 71.8081 71.8011 71.9982 71.8005
internal_weight=1.2684e+06 635247 5142 1008 793 215 4134 622 177 445 43 736 3512 285 247 66 57 633153 139 92 3227 68 3159 111 48 402 123 3131 710 630105
internal_count=1268400 635247 5142 1008 793 215 4134 622 177 445 43 736 3512 285 247 66 57 633153 139 92 3227 68 3159 111 48 402 123 3131 710 630105
is_linear=0
shrinkage=1


Tree=1
num_leaves=31
num_cat=0
split_feature=3 3 3 28 9 7 28 14 13 4 61 194 180 122 90 128 5 79 101 89 34 116 127 3 12 120 61 126 74 242
split_gain=1.15124e+06 31872.6 54053.8 6615.69 2218.77 887.851 1980.75 299.491 228.197 185.035 175.402 132.512 106.469 101.9 98.263 171.788 83.9567 80.7756 77.4018 58.076 91.9971 57.4395 55.0406 50.3524 87.457 131.766 85.6329 56.3306 49.8227 48.898
threshold=79.765000000000015 68.015000000000015 71.302500000000023 79.402500000000018 68.215000000000018 72.015000000000015 71.887500000000017 1.1202321045579395 4.0420871368477309 0.2237446667570491 -1.0000000180025095e-35 0.035101855579262271 146.90422821969699 -0.00018492115883440562 0.080654869730880457 -8.0406650286920058e-05 65.335000000000022 60.735583190161144 0.004434975122068926 0.062484257527199265 0.051361515323991379 -8.9868496667378555 4.7474780250737291e-05 78.795000000000016 76.980128536651378 -9.3464583982943825 0.00082961321843120172 -0.00011109343359097549 7116.5963945984922 1.3845683402951168
decision_type=2 2 2 10 10 10 10 10 10 2 10 10 10 10 10 10 2 10 10 10 10 2 10 2 2 2 10 10 2 2
left_child=1 -1 4 5 7 6 14 16 11 -6 29 -8 -10 18 -4 21 -3 -17 -5 20 -15 -16 -19 -7 25 27 28 -25 -27 -9
right_child=-2 2 3 13 9 23 8 10 12 -11 -12 -13 -14 19 15 17 -18 22 -20 -21 -22 -23 -24 24 -26 26 -28 -29 -30 -31
leaf_value=-3.4715002441406257 7.6761997222900398 -0.005499877929688069 -0.033300247192383385 -0.0018001556396484376 -0.033500518798828698 -0.3978000640869141 0.0089998626708990056 -0.0035002136230474438 0.00090019226074247174 0.17849975585937444 0.0055001831054681816 -0.001000213623046875 -0.0035000610351559659 0.019199752807617189 -0.030700378417968466 -0.010700454711914631 -0.010999908447266194 0.011699752807616905 0.0026996612548828127 0.014200210571289062 -0.0018001556396484376 0.0039995574951177558 -0.040699996948242757 -0.0018001556396484376 -0.039799880981445317 -0.039799880981445317 0.018199539184570315 0.0011997222900390625 -0.00079994201660156257 0.00049987792968693163
leaf_weight=605460 583281 221 3512 88 73 44657 850 81 77 23487 178 78 142 72 402 39 582 117 49 1931 55 43 21 26 1969 695 27 93 71 23
leaf_count=605460 583281 221 3512 88 73 44657 850 81 77 23487 178 78 142 72 402 39 582 117 49 1931 55 43 21 26 1969 695 27 93 71 23
internal_value=-0.00375528 -0.0916596 -0.032196 -0.0873305 0.0908785 -0.0943997 -0.0555009 -0.0489401 0.0607672 0.0973175 0.0397163 0.0824353 -0.0310502 0.082779 -0.08776 -0.0511254 -0.0800747 0.0322034 -0.000729927 0.0883382 0.0228346 -0.0842697 0.0681159 -0.098721 -0.0859077 -0.060307 -0.0750315 0.0378151 -0.081201 -0.0634615
internal_weight=1.2684e+06 685119 79659 55014 24645 52819 5281 1085 1147 23560 282 928 219 2195 4134 622 803 177 137 2058 127 445 138 47538 2881 912 793 119 766 104
internal_count=1268400 685119 79659 55014 24645 52819 5281 1085 1147 23560 282 928 219 2195 4134 622 803 177 137 2058 127 445 138 47538 2881 912 793 119 766 104
is_linear=0
shrinkage=0.1


Tree=2
num_leaves=31
num_cat=0
split_feature=3 3 3 9 28 7 28 67 28 37 61 6 9 116 22 5 14 33 13 3 9 28 112 189 54 55 121 14 3 28
split_gain=1.05807e+06 53082.8 105162 3482.54 1908.4 838.827 1871.31 509.329 439.552 433.205 269.142 433.482 267.527 360.087 274.123 249.078 242.744 228.572 212.784 200.919 2048.61 723.858 348.665 325.344 297.043 318.895 285.449 214.281 161.617 5648.79
threshold=87.405000000000015 64.405000000000015 71.302500000000023 64.615000000000023 87.112500000000026 72.015000000000015 71.887500000000017 0.046291778441994703 65.122500000000016 0.65951301330605461 -0.0011740764004302318 65.00500000000001 86.535000000000011 -50.66345970932732 13.703320013031076 88.50500000000001 1.3928250051796685 -0.65508563200750081 4.0420871368477309 68.015000000000015 68.215000000000018 68.902500000000018 0.027397824385657545 -0.23660544149518761 0.096899511252052553 0.043780797619882274 9.4697678129368335 1.1134195579208528 79.765000000000015 79.402500000000018
decision_type=2 2 2 10 10 10 10 10 10 8 10 2 10 2 10 2 10 10 10 2 10 10 10 10 10 10 10 10 2 10
left_child=1 -1 3 -3 5 6 -4 12 9 10 -5 16 28 -14 -15 17 -12 -6 -8 -10 23 22 26 -21 25 27 -22 -24 29 -7
right_child=-2 2 4 8 15 7 18 -9 19 -11 11 -13 13 14 -16 -17 -18 -19 -20 20 21 -23 24 -25 -26 -27 -28 -29 -30 -31
leaf_value=-3.2488501129150396 8.1888302993774413 -0.026349884033203354 -0.028970008850097886 0.027650207519531025 -0.0034197616577145598 -0.34301990509033264 0.0080998764038085376 0.0087800979614257816 0.18564962768554666 0.024649566650390399 -0.0063501892089846031 0.050150054931640403 0.0085797500610354412 0.0025799942016604405 -0.034420280456542683 -0.0044199752807614345 0.012650054931640398 0.013829917907715129 -0.0011503906249998863 0.003049530029296932 0.022650054931639831 0.18065023803710858 0.037650207519530458 -0.0094001922607432689 0.011649993896483579 -0.0093499145507820458 -0.017350097656250795 -0.0083504638671882958 -0.41942012786865207 0.011779975891113282
leaf_weight=580157 533356 1036 4134 686 137 47536 928 228 20961 1645 619 247 239 166 2743 144 109 1054 219 335 1948 20088 309 750 535 458 137 85 45394 2017
leaf_count=580157 533356 1036 4134 686 137 47536 928 228 20961 1645 619 247 239 166 2743 144 109 1054 219 335 1948 20088 309 750 535 458 137 85 45394 2017
internal_value=-0.00777152 -0.0855717 -0.0335619 0.0858733 -0.0904097 -0.0919405 -0.0531149 -0.0940258 0.0897162 0.054507 0.0184828 -0.0152821 -0.0943728 -0.0656925 -0.0753867 0.0283895 -0.0541209 0.0434089 0.0598954 0.0922686 0.0861473 0.0923345 0.0501728 -0.0482028 0.0113194 -0.0253521 0.0760192 0.0406091 -0.0953237 -0.0913749
internal_weight=1.2684e+06 735044 154887 49948 104939 103604 5281 98323 48912 3306 1661 975 98095 3148 2909 1335 728 1191 1147 45606 24645 23560 3472 1085 1387 852 2085 394 94947 49553
internal_count=1268400 735044 154887 49948 104939 103604 5281 98323 48912 3306 1661 975 98095 3148 2909 1335 728 1191 1147 45606 24645 23560 3472 1085 1387 852 2085 394 94947 49553
is_linear=0
shrinkage=0.1


Tree=3
num_leaves=31
num_cat=0
split_feature=3 3 3 28 28 3 28 7 28 9 28 1 28 3 9 110 54 14 57 55 66 38 105 53 74 187 13 129 74 38
split_gain=961335 73676 149805 3871.26 1470.48 1330.05 10355.9 1150.38 1680.69 824.408 441.473 302.244 275.524 1758.37 767.205 345.685 385.173 339.77 298.896 274.299 298.559 310.944 266.385 265.146 254.058 249.947 244.083 234.462 257.836 240.217
threshold=95.375000000000014 61.055000000000007 71.302500000000023 61.732500000000009 95.107500000000016 79.765000000000015 78.56750000000001 72.015000000000015 71.887500000000017 61.145000000000003 79.402500000000018 10.548178023641333 68.902500000000018 68.015000000000015 68.215000000000018 0.02846805536303906 0.096899511252052553 1.1202321045579395 -0.046656200272400812 -0.080553493085920733 0.01266956765054947 -0.30278230009405777 0.25711792427658481 -0.89408684394834792 2164.6934096577097 147.26237500000005 0.94703723750736957 9.8169894764775511e-05 3603.904834985291 2.2433095068826141
decision_type=2 2 2 10 10 2 10 10 10 10 10 2 10 2 10 10 10 10 10 10 10 10 10 10 2 10 8 8 2 10
left_child=1 -1 3 9 5 6 7 8 -4 -3 19 -6 13 18 17 -16 26 -15 -5 -8 21 -21 -10 24 -11 -26 -17 29 -29 -23
right_child=-2 2 4 12 11 -7 10 -9 22 23 -12 -13 -14 14 15 16 -18 -19 -20 20 -22 27 -24 -25 25 -27 -28 28 -30 -31
leaf_value=-3.0754650405883797 8.3666971473693845 -0.043465071105957521 -0.026073007965088379 -0.024715109252929326 0.0066965370178223797 -0.36547784042358417 0.012281993865966002 -0.3447179756164559 0.0062896751403812351 0.0095348068237299799 0.01060197830200167 -0.016303035736083871 0.16258521423339831 -0.0084601730346690832 0.020385049438475279 0.032884973144530254 0.010484994506835222 0.0026447845458974942 0.14753491363525342 -0.0067182502746589989 -0.021518360137939396 0.0052820243835441268 -0.0020348022460936477 0.0065349288940424804 -0.014464979553223145 0.0015350051879877925 -0.0089154113769538412 0.01048160934448248 -0.010518299102783147 -0.0057180366516121246
leaf_weight=555377 484440 829 4134 171 752 97791 681 42376 989 578 2195 298 20088 803 2151 265 567 282 45776 240 501 2689 158 1664 784 281 489 153 455 443
leaf_count=555377 484440 829 4134 171 752 97791 681 42376 989 578 2195 298 20088 803 2151 265 567 282 45776 240 501 2689 158 1664 784 281 489 153 455 443
internal_value=-0.0113422 -0.0797778 -0.0319932 0.0841666 -0.0884125 -0.0892229 -0.0767841 -0.0938309 -0.0498201 -0.0098646 0.0336414 0.0295238 0.0896759 0.0857358 0.0264867 0.049424 0.00915973 -0.0469124 0.0916121 0.0176676 0.0086811 0.0178392 0.0572799 0.0124887 -0.0160073 -0.0449765 -0.0376658 0.0249198 -0.0319079 0.0359515
internal_weight=1.2684e+06 783960 228583 74728 153855 152805 55014 47657 5281 4136 7357 1050 70592 50504 4557 3472 1321 1085 45947 5162 4481 3980 1147 3307 1643 1065 754 3740 608 3132
internal_count=1268400 783960 228583 74728 153855 152805 55014 47657 5281 4136 7357 1050 70592 50504 4557 3472 1321 1085 45947 5162 4481 3980 1147 3307 1643 1065 754 3740 608 3132
is_linear=0
shrinkage=0.1


Tree=4
num_leaves=31
num_cat=0
split_feature=3 3 3 9 3 28 3 3 7 28 25 70 6 28 28 3 9 9 3 9 58 28 28 37 28 13 14 58 7 3
split_gain=851074 100064 188558 4225.72 1818.67 9606.06 1991.8 11981.9 1448.15 1345.01 671.105 1000.77 710.507 521.939 503.361 1531.83 718.993 533.779 3280 1397.68 1041.46 461.758 414.475 507.139 406.732 404.494 465.964 402.544 391.854 3506.39
threshold=104.08750000000002 58.395000000000003 71.302500000000023 103.49500000000002 87.405000000000015 86.097500000000011 79.765000000000015 78.085000000000022 72.015000000000015 71.887500000000017 1.6116062374536935 -2.6433348386122467e-05 94.825000000000003 87.112500000000026 68.902500000000018 68.015000000000015 68.215000000000018 65.27500000000002 64.405000000000015 64.615000000000023 -7.7011936850178217e-05 103.95750000000002 79.402500000000018 -0.93581246025261 78.56750000000001 1.9933777233123944 1.6528007677998229 -0.00011647884462860822 61.805000000000007 61.055000000000007
decision_type=2 2 2 10 2 10 2 2 10 10 10 10 2 10 10 2 10 10 2 10 10 10 10 10 10 10 10 10 10 2
left_child=1 -1 14 4 5 6 7 8 9 -4 -6 -12 -13 25 15 17 -17 18 28 -20 27 -5 23 24 -9 -7 -27 -21 29 -3
right_child=-2 2 3 21 10 13 -8 22 -10 -11 11 12 -14 -15 -16 16 -18 -19 19 20 -22 -23 -24 -25 -26 26 -28 -29 -30 -31
leaf_value=-2.8709186051940927 9.029026456069948 0.10408120407104421 -0.023465707168580253 0.00202755470275946 -0.36575531272888218 0.0095693943023675843 -0.34992996482849181 0.018753913497924657 -0.3372466053009035 0.005160776290894376 -0.052755587387085259 -0.020755617904663383 0.011526913833618835 0.041244389724731434 0.14632669281005803 -0.005114003143312118 0.013346239318846643 0.16333123458862248 -0.035468509063720434 0.0021315122985839708 0.010431759490965932 0.033027310562134461 0.0095417804718010771 -0.0012465442657472181 0.0028539501190181227 -0.0044303157806396603 0.01506942481994571 -0.015468356475830093 0.15978146804809512 0.00088151229858368652
leaf_weight=530349 435285 25028 4134 3072 91316 2504 43402 1339 39536 1147 1673 636 676 1335 20088 1085 3472 19434 1036 1174 2929 698 2195 4211 2452 2051 633 730 19885 4895
leaf_count=530349 435285 25028 4134 3072 91316 2504 43402 1339 39536 1147 1673 636 676 1335 20088 1085 3472 19434 1036 1174 2929 698 2195 4211 2452 2051 633 730 19885 4895
internal_value=-0.0139423 -0.0731516 -0.0272831 -0.0826028 -0.0845874 -0.0755305 -0.0833198 -0.0706838 -0.0929446 -0.0437607 -0.094666 -0.0480067 0.017378 0.0419899 0.0852961 0.0817292 0.0254334 0.0851447 0.0801642 0.00945647 0.0320505 0.0222812 0.027155 0.0165959 0.0431285 0.0276407 0.000670641 -0.0255252 0.0884958 0.0812652
internal_weight=1.2684e+06 833115 302766 203010 199240 104939 98416 55014 44817 5281 94301 2985 1312 6523 99756 79668 4557 75111 55677 5869 4833 3770 10197 8002 3791 5188 2684 1904 49808 29923
internal_count=1268400 833115 302766 203010 199240 104939 98416 55014 44817 5281 94301 2985 1312 6523 99756 79668 4557 75111 55677 5869 4833 3770 10197 8002 3791 5188 2684 1904 49808 29923
is_linear=0
shrinkage=0.1


Tree=5
num_leaves=31
num_cat=0
split_feature=3 3 3 28 8 3 3 3 28 3 9 7 28 9 70 9 3 3 28 3 28 9 1 68 28 14 13 9 3 9
split_gain=768706 112951 212246 7681.58 2380.85 1321.92 10564.2 1800.92 9005.08 1662.09 11205 1632.16 1067.98 992.669 818.566 575.844 3513.74 2414.1 523.102 518.424 3657.5 773.411 509.067 498.827 491.519 480.722 478.02 467.306 1263.16 805.097
threshold=112.84500000000001 55.065000000000005 71.302500000000023 55.577500000000008 29.450964220244877 95.375000000000014 94.585000000000022 87.405000000000015 86.097500000000011 79.765000000000015 77.985000000000014 72.015000000000015 71.887500000000017 85.645000000000024 -4.5000450095650789e-05 102.70500000000001 104.08750000000002 103.35250000000001 87.112500000000026 61.055000000000007 61.732500000000009 61.145000000000003 9.4913136486077736 8.5455478320184175e-05 112.75750000000001 0.18997287693620274 1.9933777233123944 69.145000000000024 68.015000000000015 68.215000000000018
decision_type=2 2 2 10 10 2 2 2 10 2 10 10 10 10 10 10 2 2 10 2 10 10 2 10 10 10 8 10 2 10
left_child=1 -1 3 14 19 6 7 8 9 10 11 12 -4 -11 25 -7 17 -17 -10 -5 21 -21 -19 -6 -18 -3 -12 28 -22 -30
right_child=-2 2 5 4 23 15 -8 -9 18 13 26 -13 -14 -15 -16 16 24 22 -20 20 27 -23 -24 -25 -26 -27 -28 -29 29 -31
leaf_value=-2.6808266760101329 9.1991249090957652 0.0041731714019768162 -0.021119136451721945 0.13417309510803152 0.0026730989227289116 -0.38839734127044639 0.0208202185440058 -0.35017968990325987 0.0056128058242791217 -0.34093718196868966 0.00058741931915164971 -0.30752127338409424 0.0046446986618050804 -0.013937517662049004 0.0056733011016838475 -0.029396944541930738 -0.45137557918548482 -0.0013970666122432363 0.037119950752259004 -0.039206715225220283 0.11580306184387155 0.0012933534393305024 0.018824616127014339 -0.00032677900695858857 0.011124420814515191 -0.020826828598023185 0.009467969169615743 0.13869399301147353 -0.0046026028289816168 0.012011615386961695
leaf_weight=504952 396082 182 4134 45315 151 40479 4904 44012 5188 40213 5825 38997 1147 3189 320 4065 38929 2659 1335 829 45947 3307 1952 861 274 3596 4911 18490 1085 5070
leaf_count=504952 396082 182 4134 45315 151 40479 4904 44012 5188 40213 5825 38997 1147 3189 320 4065 38929 2659 1335 829 45947 3307 1952 861 274 3596 4911 18490 1085 5070
internal_value=-0.0162627 -0.0687201 -0.0265327 0.0792094 0.0837677 -0.0811703 -0.0755718 -0.0803264 -0.0732054 -0.080747 -0.0692042 -0.0914269 -0.0392539 -0.0953781 -0.0554417 -0.0909188 -0.0834959 -0.0259106 0.0405795 0.0850554 0.0799379 -0.0114603 0.0236174 -0.0689723 -0.0962401 -0.0684489 0.0224478 0.085293 0.080446 0.0379041
internal_weight=1.2684e+06 872318 367366 125153 121055 242213 153855 148951 104939 98416 55014 44278 5281 43402 4098 88358 47879 8676 6523 120043 74728 4136 4611 1012 39203 3778 10736 70592 52102 6155
internal_count=1268400 872318 367366 125153 121055 242213 153855 148951 104939 98416 55014 44278 5281 43402 4098 88358 47879 8676 6523 120043 74728 4136 4611 1012 39203 3778 10736 70592 52102 6155
is_linear=0
shrinkage=0.1


Tree=6
num_leaves=31
num_cat=0
split_feature=3 3 3 24 28 3 28 9 3 7 3 28 9 7 7 3 28 3 7 3 9 28 13 28 3 3 3 3 28 9
split_gain=715570 119676 206135 4895.59 4066.75 2061.31 12575.3 2264.77 1637.55 7814.67 2753.55 13581.8 2258.63 1683.43 1339.39 1162.5 974.913 1245.39 8041.04 972.629 992.103 944.88 877.991 811.754 1863 1730.6 973.536 8447.23 792.827 757.06
threshold=122.71500000000002 52.612500000000004 71.302500000000023 1081.3614581194529 52.987500000000004 95.375000000000014 94.492500000000021 121.05000000000003 87.405000000000015 85.515000000000015 79.765000000000015 77.69250000000001 94.075000000000003 72.015000000000015 86.365000000000023 58.722500000000004 69.58750000000002 64.405000000000015 65.185000000000016 68.015000000000015 68.215000000000018 71.887500000000017 15.332023732316044 62.307500000000012 61.055000000000007 61.805000000000007 55.682500000000012 55.065000000000005 65.827500000000015 61.145000000000003
decision_type=2 2 2 10 10 2 10 10 2 10 2 10 10 10 10 2 10 2 10 2 10 10 10 10 2 2 2 2 10 10
left_child=1 -1 3 4 -3 6 8 -7 9 10 11 13 -10 21 -11 -5 17 23 22 28 -21 -4 -19 24 26 29 27 -6 -20 -26
right_child=-2 2 5 15 16 7 -8 -9 12 14 -12 -13 -14 -15 -16 -17 -18 18 19 20 -22 -23 -24 -25 25 -27 -28 -29 -30 -31
leaf_value=-2.50374399315033 8.941211929904938 -0.0032442678085331522 -0.019007222806550317 -0.0052940248123171333 0.11525586952056842 -0.37005779024887037 0.019037993747711115 -0.010787734401702664 -0.34416181246566852 -0.0058432501487743595 -0.30984334170150873 0.0045300212554927558 -0.0031614462547310041 -0.29876926811599702 0.020501888401031468 0.05225589622344913 0.14782416646423258 -0.016361850511171384 0.008418140638731586 -0.0041423425460834556 0.020810301260374333 0.0041802287956244303 0.012807667005918689 0.15622280143585174 -0.035286043702698326 0.021222954023742347 0.12675592292632984 -0.010743962632751902 0.16841798805084096 0.00076397079315171368
leaf_weight=485166 371507 4155 4134 2417 15631 109625 6008 3308 39606 5166 39567 12372 3302 37361 5192 387 14858 4894 4194 1085 8702 1147 345 15643 829 4379 42640 4981 15870 3929
leaf_count=485166 371507 4155 4134 2417 15631 109625 6008 3308 39606 5166 39567 12372 3302 37361 5192 387 14858 4894 4194 1085 8702 1147 345 15643 829 4379 42640 4981 15870 3929
internal_value=-0.017374 -0.0657145 -0.0260617 0.0699363 0.0725177 -0.0782149 -0.0706841 -0.0884746 -0.0764473 -0.0697176 -0.0787484 -0.0642782 -0.0929058 -0.0910417 0.0127438 -0.060913 0.075453 0.0725329 0.056603 0.0766574 0.0508123 -0.0381935 -0.0576637 0.0788827 0.0744188 0.0322097 0.080516 0.0626722 0.0892644 -0.00954182
internal_weight=1.2684e+06 896893 411727 144939 142135 266788 153855 112933 147847 104939 94581 55014 42908 42642 10358 2804 137980 123122 35090 29851 9787 5281 5239 88032 72389 9137 63252 20612 20064 4758
internal_count=1268400 896893 411727 144939 142135 266788 153855 112933 147847 104939 94581 55014 42908 42642 10358 2804 137980 123122 35090 29851 9787 5281 5239 88032 72389 9137 63252 20612 20064 4758
is_linear=0
shrinkage=0.1


Tree=7
num_leaves=31
num_cat=0
split_feature=3 3 3 28 9 3 7 3 28 3 28 3 3 24 7 3 28 28 3 9 3 7 3 9 3 9 3 28 28 28
split_gain=640274 147875 205052 7710.49 5476.02 2769.5 16920.3 3022.06 12984.6 3346.01 8535.23 3439.24 15739.4 2545.31 1715.17 1638.67 3721.99 1268.62 1401.47 7757.57 1335.83 6940.03 1525.79 2812.3 1988.81 6464.26 1286.28 1031.54 954.277 903.727
threshold=131.40500000000003 49.962500000000013 71.302500000000023 50.477500000000013 130.15500000000003 104.08750000000002 102.605 95.375000000000014 93.805000000000021 87.405000000000015 85.352500000000006 79.765000000000015 77.25500000000001 1081.3614581194529 72.015000000000015 52.612500000000004 52.987500000000004 69.58750000000002 55.065000000000005 55.755000000000003 58.395000000000003 58.735000000000007 61.055000000000007 61.905000000000008 64.405000000000015 65.27500000000002 68.015000000000015 94.492500000000021 87.112500000000026 103.24250000000002
decision_type=2 2 2 10 10 2 10 2 10 2 10 2 2 10 10 2 10 10 2 10 2 10 2 10 2 10 2 10 10 10
left_child=1 -1 3 -3 5 6 7 8 9 10 11 12 14 15 -4 -5 -17 18 -18 -20 -21 -22 -23 -24 -25 -26 -27 -10 -12 -8
right_child=-2 2 4 13 -6 -7 29 -9 27 -11 28 -13 -14 -15 -16 16 17 -19 19 20 21 22 23 24 25 26 -28 -29 -30 -31
leaf_value=-2.3713696243528752 8.5980901875980376 -0.024869609094086087 -0.0082301975720980632 0.15163032987075767 0.04209043173866292 -0.40590914101524334 0.0060479491031642857 -0.31955179760093699 0.0011540269840239149 -0.31524566173667951 0.0011405347049702641 -0.28185888546104537 0.0050759804374692413 -0.0027645765547184456 -0.29289289062080287 -0.002919841027679837 0.10373028256851172 0.13304174981780933 -0.0089196235899358101 0.12808026959854077 -0.017419665551605592 0.11558051755386317 -0.00089941767257712974 0.12060082646804773 -0.0065560563902295147 0.1185760061402874 0.013729728898009342 0.017134194372939504 0.031357766836930527 0.040726220282363106
leaf_weight=459868 352124 4095 5281 20987 3012 80149 3746 40086 5001 37907 10212 38378 15019 3020 34714 4155 15631 14858 5444 19953 2874 19350 5541 19239 5869 19434 9787 6008 1335 5323
leaf_count=459868 352124 4095 5281 20987 3012 80149 3746 40086 5001 37907 10212 38378 15019 3020 34714 4155 15631 14858 5444 19953 2874 19350 5541 19239 5869 19434 9787 6008 1335 5323
internal_value=-0.0152944 -0.0593387 -0.0190137 0.0678906 -0.0707112 -0.0721379 -0.0659238 -0.0721668 -0.0657951 -0.07386 -0.0646614 -0.0746895 -0.0586614 0.0712318 -0.0914389 0.072916 0.0690646 0.0718727 0.0685418 0.0644733 0.0706782 0.0650376 0.0705756 0.0626858 0.0696074 0.0554403 0.0746757 0.03885 0.0164458 0.0675819
internal_weight=1.2684e+06 916276 456408 170237 286171 283159 203010 193941 153855 142846 104939 93392 55014 166142 39995 163122 142135 137980 123122 107491 102047 82094 79220 59870 54329 35090 29221 11009 11547 9069
internal_count=1268400 916276 456408 170237 286171 283159 203010 193941 153855 142846 104939 93392 55014 166142 39995 163122 142135 137980 123122 107491 102047 82094 79220 59870 54329 35090 29221 11009 11547 9069
is_linear=0
shrinkage=0.1


Tree=8
num_leaves=31
num_cat=0
split_feature=3 3 3 7 7 3 3 3 9 3 9 3 28 9 3 28 3 28 3 28 70 3 28 3 24 7 28 3 28 3
split_gain=577924 167240 213188 4347.04 2568.27 12121.8 3864.26 9602.92 3862.05 12938.1 3669.29 17006.4 2991.37 2192.58 10516.2 3354.6 2154.82 6744.74 2242.79 3282.75 2052.33 2695.21 2036.05 6705.31 2087.91 1777.55 1670.48 2026.73 1787.07 3742.84
threshold=138.71000000000001 47.995000000000012 71.302500000000023 139.79500000000004 76.985000000000014 79.765000000000015 84.822500000000005 87.405000000000015 93.375000000000014 95.375000000000014 101.79500000000002 104.08750000000002 102.4175 111.08500000000002 112.84500000000001 111.55750000000002 49.962500000000013 50.477500000000013 52.612500000000004 52.987500000000004 -1.939751896087089e-05 131.40500000000003 65.827500000000015 64.405000000000015 1081.3614581194529 72.015000000000015 62.307500000000012 61.055000000000007 59.160000000000011 58.395000000000003
decision_type=2 2 2 10 10 2 2 2 10 2 10 2 10 10 2 10 2 10 2 10 10 2 10 2 10 10 10 2 10 2
left_child=1 -1 16 -2 25 -6 -7 -8 -9 -10 -11 12 -12 -13 15 -15 -3 -18 -19 -20 -16 -22 23 24 26 -4 27 28 29 -21
right_child=3 2 4 -5 5 6 7 8 9 10 11 13 -14 14 20 -17 17 18 19 22 21 -23 -24 -25 -26 -27 -28 -29 -30 -31
leaf_value=-2.29123263140001 -0.03071754942348548 0.11876721601209966 -0.0074071778148876895 8.2942824505765156 0.0035996334057628587 -0.25967351571376868 0.0033269725674813346 -0.30322106504543317 0.0060389294614026316 -0.32259646525295271 -0.01959658732326517 -0.4341413586581041 0.023843651629371722 -0.0091413586581040821 -0.38819134645107312 0.053859129623145922 -0.022382648184677126 0.13746712903700242 -0.0026278569249114981 0.091272456261733484 0.039881815810889523 -0.77671822081020425 0.093737361212981804 -0.0042812740391710239 -0.0034381063107460363 -0.2686031437950504 0.12854043864546158 0.0040406980448757677 0.14002214536390625 -0.0021774853733980137
leaf_weight=439346 1821 20522 5281 335323 16086 35139 14786 34794 14122 35321 3379 30695 10455 3377 55949 5131 4095 21203 4155 41028 1546 1443 40515 9433 2804 33647 15643 9137 15210 7014
leaf_count=439346 1821 20522 5281 335323 16086 35139 14786 34794 14122 35321 3379 30695 10455 3377 55949 5131 4095 21203 4155 41028 1546 1443 40515 9433 2804 33647 15643 9137 15210 7014
internal_value=-0.0137266 -0.054341 -0.0142916 0.0984582 -0.0666865 -0.0631283 -0.0686248 -0.0635115 -0.0693678 -0.0628542 -0.0716204 -0.062756 0.0410438 -0.0773876 -0.0673042 0.0366244 0.068424 0.0647339 0.0678588 0.063415 -0.0823068 -0.00157243 0.0660004 0.058356 0.0666894 -0.0906545 0.0693952 0.0629916 0.0693512 0.0598934
internal_weight=1.2684e+06 931256 491910 337144 301151 262223 246137 210998 196212 161418 147296 111975 13834 98141 67446 8508 190759 170237 166142 144939 58938 2989 140784 100269 90836 38928 88032 72389 63252 48042
internal_count=1268400 931256 491910 337144 301151 262223 246137 210998 196212 161418 147296 111975 13834 98141 67446 8508 190759 170237 166142 144939 58938 2989 140784 100269 90836 38928 88032 72389 63252 48042
is_linear=0
shrinkage=0.1


Tree=9
num_leaves=31
num_cat=0
split_feature=3 3 3 3 3 9 3 7 28 3 28 3 28 3 7 3 28 3 3 28 3 7 3 3 28 3 7 3 9 3
split_gain=524928 176638 224438 5224.35 6407.91 3489.9 3878.4 5863.65 2956.71 12700.8 4437.29 8796.9 4317.48 12874.4 4272.97 15099.7 2864.16 2748.34 8044.34 4353.76 2368.89 3345.33 2421.04 2273.31 2626.56 5688.15 2450.07 2643.08 10282.8 2111.75
threshold=148.66500000000002 45.745000000000012 71.302500000000023 49.962500000000013 50.605000000000011 147.54000000000005 131.40500000000003 130.08500000000004 76.832500000000024 79.765000000000015 84.547500000000028 87.405000000000015 93.177500000000023 95.375000000000014 101.70500000000001 104.08750000000002 102.4175 110.58500000000002 112.84500000000001 111.55750000000002 52.612500000000004 53.165000000000006 69.625000000000014 68.015000000000015 65.827500000000015 64.405000000000015 62.405000000000008 55.065000000000005 55.755000000000003 61.055000000000007
decision_type=2 2 2 2 2 10 2 10 10 2 10 2 10 2 10 2 10 2 2 10 2 10 2 2 10 2 10 2 10 2
left_child=1 -1 3 -3 -5 6 7 8 -4 -10 -11 -12 -13 -14 -15 16 -16 -17 19 -19 -6 -22 23 24 25 26 27 -23 -29 -30
right_child=-2 2 5 4 20 -7 -8 -9 9 10 11 12 13 14 15 17 -18 18 -20 -21 21 22 -24 -25 -26 -27 -28 28 29 -31
leaf_value=-2.3581094674421381 8.9188535341321451 0.097890479152100349 -0.20874264631007691 -0.012279263432127152 0.1267206755327166 0.039854205518864205 -0.44714683207879208 0.03589363422979943 0.0042570790317199682 -0.23770625569512591 0.0019940616876866104 -0.2788987144002647 0.004434822892216062 -0.29533712390343825 -0.01663671496789192 -0.40072707020440251 0.021459286466433983 -0.017226856581356743 -0.34437190663018385 0.048473216660831042 -0.0028647965742173657 0.093230023944276041 0.1113640523377768 0.003164695607124202 0.13034485251042868 -0.0038531466352537793 0.11868665418032975 -0.017154906857115293 0.085019946086304546 0.0029733907449660535
leaf_weight=414205 313094 45663 37619 4994 20304 2801 36229 3123 17395 33251 16674 33094 15822 34959 3741 29358 10455 4714 40835 5131 5309 14477 14602 10043 15870 9433 14717 5444 44981 10063
leaf_count=414205 313094 45663 37619 4994 20304 2801 36229 3123 17395 33251 16674 33094 15822 34959 3741 29358 10455 4714 40835 5131 5309 14477 14602 10043 15870 9433 14717 5444 44981 10063
internal_value=-0.013081 -0.0499099 -0.0122881 0.0667541 0.0586976 -0.0647639 -0.0657295 -0.061827 -0.0633306 -0.0593292 -0.0656121 -0.0598487 -0.0663509 -0.0589132 -0.0693404 -0.0582635 0.036785 -0.0751218 -0.0610182 0.0201219 0.0620704 0.0575891 0.0605515 0.0560514 0.0600365 0.0539888 0.0617582 0.0544347 0.0452486 0.0582152
internal_weight=1.2684e+06 955306 541101 215900 170237 325201 322400 286171 283048 245429 228034 194783 178109 145015 129193 94234 14196 80038 50680 9845 165243 144939 139630 125028 114985 99115 89682 74965 60488 55044
internal_count=1268400 955306 541101 215900 170237 325201 322400 286171 283048 245429 228034 194783 178109 145015 129193 94234 14196 80038 50680 9845 165243 144939 139630 125028 114985 99115 89682 74965 60488 55044
is_linear=0
shrinkage=0.1


Tree=10
num_leaves=31
num_cat=0
split_feature=3 3 7 3 7 9 25 3 3 28 3 9 3 9 3 28 28 3 3 28 3 28 3 9 3 9 70 3 28 3
split_gain=466187 187658 231068 7437.7 6063.77 5467.5 4251 4117.32 10453.7 3945.65 8788.99 3803.93 15904.2 3214.41 12585.3 4810.53 2262 7781.83 3447.75 2079.74 1629.42 3604.67 7339.59 4775.45 2590.95 9086.31 1514.9 2855.77 1424.13 1188.01
threshold=157.92500000000004 43.165000000000006 72.015000000000015 49.962500000000013 156.65000000000001 50.635000000000012 23.862323569791155 76.312500000000014 79.765000000000015 84.547500000000028 87.405000000000015 92.675000000000026 95.375000000000014 101.105 104.08750000000002 102.4175 110.41500000000001 112.84500000000001 111.59500000000001 43.487500000000004 52.612500000000004 56.272500000000008 55.065000000000005 53.195000000000007 58.395000000000003 58.865000000000002 -1.939751896087089e-05 131.40500000000003 50.952500000000008 69.625000000000014
decision_type=2 2 10 2 10 10 10 2 2 10 2 10 2 10 2 10 10 2 2 8 2 10 2 10 2 10 10 2 10 2
left_child=1 -1 3 19 7 -5 20 -4 -9 -10 -11 -12 -13 -14 15 -15 -16 18 -18 -3 28 22 23 -22 -23 -26 -19 -28 -7 -27
right_child=-2 2 4 5 -6 6 -8 8 9 10 11 12 13 14 16 -17 17 26 -20 -21 21 24 -24 -25 25 29 27 -29 -30 -31
leaf_value=-2.3202984749215569 9.5299680586486186 0.0027016700369394187 -0.25486896151305416 -0.011233858908983053 0.080967509332211307 0.0050485927206558763 -0.010646302876802594 0.0018145114784218208 -0.2139356301256129 0.0017946555189183755 -0.26925911761844079 0.0047311935082674957 -0.30280292323184455 -0.015803411513094546 -0.3636542411136503 0.019313357819790156 -0.011504079370486409 -0.31303120892950748 0.045625559301387855 0.10010132442536701 -0.0025783169167958421 0.12864313973298422 -0.013357058631273589 0.085907067326215281 -0.021961899291368072 0.037531771299755691 0.032304270806818636 -0.64833195966192825 0.13404868427339026 0.070227341928217876
leaf_weight=389029 288341 3522 29626 5040 2536 4104 2404 20107 33251 16674 29926 18990 30395 8305 28988 10455 5318 101412 4897 67317 5431 16146 9251 14355 3820 79116 1546 2247 15968 19883
leaf_count=389029 288341 3522 29626 5040 2536 4104 2404 20107 33251 16674 29926 18990 30395 8305 28988 10455 5318 101412 4897 67317 5431 16146 9251 14355 3820 79116 1546 2247 15968 19883
internal_value=-0.012492 -0.0453755 -0.00987429 0.0640838 -0.0627363 0.0530453 0.05608 -0.0638782 -0.0605006 -0.0652966 -0.0611357 -0.0659649 -0.0612652 -0.0698331 -0.0642712 0.0127825 -0.0742812 -0.068009 0.0153206 0.0914341 0.0579685 0.0543425 0.0227537 0.0571313 0.0620527 0.0562046 -0.0761 -0.0140522 0.0847051 0.0620441
internal_weight=1.2684e+06 980059 591030 246357 344673 175518 170478 342137 312511 292404 259153 242479 212553 193563 163168 18760 144408 115420 10215 70839 168074 148002 29037 19786 118965 102819 105205 3793 20072 98999
internal_count=1268400 980059 591030 246357 344673 175518 170478 342137 312511 292404 259153 242479 212553 193563 163168 18760 144408 115420 10215 70839 168074 148002 29037 19786 118965 102819 105205 3793 20072 98999
is_linear=0
shrinkage=0.1


Tree=11
num_leaves=31
num_cat=0
split_feature=3 3 7 3 9 3 3 3 9 3 9 3 25 28 9 9 3 7 3 3 3 9 3 28 3 9 28 3 7 28
split_gain=425768 190823 228436 9175.74 4819.35 8717.87 4920.87 8195.85 4756.31 13815.1 4462.07 9861.82 4393.89 4207.28 4010.62 3314.28 8383.12 2671.57 2330.38 11632.7 2079.22 2852.23 1714.92 8806.34 3193.63 8190.4 1540.96 9569.89 1508.21 1421.79
threshold=166.36500000000004 41.155000000000008 72.015000000000015 49.962500000000013 76.265000000000015 79.765000000000015 84.155000000000015 87.405000000000015 92.675000000000026 95.375000000000014 101.105 104.08750000000002 23.862323569791155 102.4175 50.635000000000012 110.16500000000001 112.84500000000001 111.75500000000001 119.92500000000003 122.71500000000002 52.612500000000004 53.195000000000007 55.065000000000005 56.272500000000008 58.395000000000003 58.865000000000002 129.19750000000002 131.40500000000003 51.025000000000013 76.832500000000024
decision_type=2 2 10 2 10 2 2 2 10 2 10 2 10 10 10 10 2 10 2 2 2 10 2 10 2 10 10 2 10 10
left_child=1 -1 3 -3 -4 29 -7 -8 -9 -10 -11 13 14 -12 -5 -13 17 -17 -18 -20 28 -22 -23 -24 -25 -26 -21 -28 -16 -6
right_child=-2 2 4 12 5 6 7 8 9 10 11 15 -14 -15 20 16 18 -19 19 26 21 22 23 24 25 -27 27 -29 -30 -31
leaf_value=-2.2332687037233465 9.3939710696782868 0.093091451382244381 -0.23338215691448314 -0.0082933305315130209 -0.0090505042136300069 -0.21654185349000415 0.0012148756359707136 -0.24233320585659612 0.0042580741574411718 -0.27252263090865941 -0.014223070361785517 -0.36628875596712906 -0.011031766812145349 0.017382022037810429 0.0065437792249575469 -0.0019370271463287738 -0.3446319612851525 0.054062728713046231 0.10894146037622505 -0.35675868915990638 -0.0023204852251161867 0.077316360593593467 -0.012021352768146443 0.11577882575968559 -0.019765709362231123 0.040704760323286848 0.030073294409731943 -0.31888048860723472 0.12264348015269207 0.003649919980705363
leaf_weight=369264 273285 90604 28985 4768 3353 30013 19912 29926 18990 30395 8305 25752 2676 10455 4941 9651 19553 3800 5022 14762 5431 14355 9251 16146 3820 98999 4621 78839 15131 17395
leaf_count=369264 273285 90604 28985 4768 3353 30013 19912 29926 18990 30395 8305 25752 2676 10455 4941 9651 19553 3800 5022 14762 5431 14355 9251 16146 3820 98999 4621 78839 15131 17395
internal_value=-0.0113425 -0.0417044 -0.00806789 0.0621737 -0.0600316 -0.0566051 -0.0608053 -0.0566802 -0.0614144 -0.0565378 -0.0638853 -0.0579243 0.0488326 0.0107143 0.0508013 -0.0658728 -0.0596545 0.0152925 -0.067864 -0.061869 0.053367 0.049271 0.0519804 0.0483107 0.0556189 0.0491261 -0.069459 -0.0641912 0.0835692 0.00614999
internal_weight=1.2684e+06 995115 625851 266122 359729 330744 309996 279983 260071 230145 211155 180760 175518 18760 172842 162000 136248 13451 122797 103244 168074 148002 142571 128216 118965 102819 98222 83460 20072 20748
internal_count=1268400 995115 625851 266122 359729 330744 309996 279983 260071 230145 211155 180760 175518 18760 172842 162000 136248 13451 122797 103244 168074 148002 142571 128216 118965 102819 98222 83460 20072 20748
is_linear=0
shrinkage=0.1


Tree=12
num_leaves=31
num_cat=0
split_feature=3 3 7 3 28 7 28 3 28 3 28 3 28 3 25 28 9 28 3 3 3 3 3 3 28 3 3 3 28 3
split_gain=386475 188940 214992 7491.96 8377.87 4736.92 4517.41 8821.99 4961.69 7789.43 4820.43 13520.5 4270.45 9588.85 4081.43 4077.66 3415.2 3337.74 9543.14 2679.99 9521.88 2287.87 11445.3 2225.99 2548.95 3106.55 7174.82 3982.06 7991.58 3534.4
threshold=176.48500000000004 38.502500000000005 72.015000000000015 49.962500000000013 38.76250000000001 175.41500000000002 76.08750000000002 79.765000000000015 83.772500000000022 87.405000000000015 92.372500000000016 95.375000000000014 100.87750000000001 104.08750000000002 23.862323569791155 103.24250000000002 50.635000000000012 109.62750000000001 112.84500000000001 157.92500000000004 155.99500000000003 148.66500000000002 146.62500000000003 52.612500000000004 53.657500000000006 55.065000000000005 56.435000000000009 58.395000000000003 59.160000000000011 61.055000000000007
decision_type=2 2 10 2 8 10 10 2 10 2 10 2 10 2 10 10 10 10 2 2 2 2 2 2 10 2 2 2 10 2
left_child=1 -1 3 4 -3 6 -4 -8 -9 -10 -11 -12 -13 15 16 -14 -5 -15 -19 20 21 22 -20 -18 -25 -26 -27 -28 -29 -30
right_child=-2 2 5 14 -6 -7 7 8 9 10 11 12 13 17 -16 -17 23 18 19 -21 -22 -23 -24 24 25 26 27 28 29 -31
leaf_value=-2.1689418486098009 9.7375756716948345 -0.013941734168882648 -0.21854384967030002 -0.0074639974783615066 0.088058311607484549 0.039574573062020592 0.0012289154573679184 -0.20488751555311355 0.00033647584093046137 -0.22884970216546777 0.0040919861325676267 -0.25627042885295026 -0.0058007938431856587 -0.34166015502861885 -0.0099285901309308158 0.028453766458785879 0.088379391536837215 0.0049048551947691978 -0.26716873463905982 -0.41814112560161337 0.066759844857369896 -0.31884028331645597 0.070759631234324161 -0.0010886045492839002 0.091584846604546757 -0.009651807727995277 0.11020069904309225 -0.01108560128179832 0.10969428305658085 0.028708667453858541
leaf_weight=349425 249311 3225 27362 4768 107218 2231 22371 28168 21757 28347 20569 28883 14949 24075 2676 5323 20072 15128 78163 36799 4943 19810 4825 8984 10802 10085 15312 7454 15356 80009
leaf_count=349425 249311 3225 27362 4768 107218 2231 22371 28168 21757 28347 20569 28883 14949 24075 2676 5323 20072 15128 78163 36799 4943 19810 4825 8984 10802 10085 15312 7454 15356 80009
internal_value=-0.0123671 -0.0396693 -0.00856609 0.0570676 0.0774725 -0.0574807 -0.0583304 -0.0553054 -0.0594042 -0.0556789 -0.0601297 -0.055756 -0.0626197 -0.0575247 0.0442279 0.00774467 0.0461254 -0.0647257 -0.0594922 -0.0674014 -0.0594435 -0.0659624 -0.0586735 0.0484929 0.0442548 0.047591 0.043252 0.0501638 0.0430786 0.050873
internal_weight=1.2684e+06 1.01909e+06 669664 285961 110443 383703 381472 354110 331739 303571 281814 253467 232898 204015 175518 20272 172842 183743 159668 144540 107741 102798 82988 168074 148002 139018 128216 118131 102819 95365
internal_count=1268400 1019089 669664 285961 110443 383703 381472 354110 331739 303571 281814 253467 232898 204015 175518 20272 172842 183743 159668 144540 107741 102798 82988 168074 148002 139018 128216 118131 102819 95365
is_linear=0
shrinkage=0.1


Tree=13
num_leaves=31
num_cat=0
split_feature=3 3 7 3 3 3 28 3 9 3 7 9 3 28 28 18 9 3 7 9 3 3 28 7 3 9 3 28 3 7
split_gain=352481 186134 198787 7799.83 5309.27 9399.5 5898.45 6732.91 5273.7 9197.15 5337.8 4746.2 7769.3 4404.26 4309.37 4185.59 3523.51 5969.69 3369.27 2587.23 10064.6 2460.52 2418.22 2153.46 7481.66 4127.27 7082.23 3671.42 3161.82 5604.14
threshold=187.24500000000003 36.605000000000011 72.015000000000015 49.962500000000013 75.735000000000014 79.765000000000015 83.772500000000022 87.405000000000015 91.625000000000014 95.375000000000014 185.66500000000002 100.42500000000003 104.08750000000002 50.952500000000008 102.4175 524.71064745388151 108.53500000000001 112.84500000000001 111.75500000000001 118.75500000000001 122.71500000000002 52.612500000000004 119.90750000000001 65.955000000000013 64.405000000000015 62.495000000000012 61.055000000000007 59.792500000000011 58.395000000000003 56.465000000000011
decision_type=2 2 10 2 2 2 10 2 10 2 10 10 2 10 10 10 10 2 10 10 2 2 10 10 2 10 2 10 2 10
left_child=1 -1 3 -3 -4 -6 -7 -8 -9 -10 11 -11 14 -5 -13 21 -14 18 -18 -19 22 -15 -21 24 25 26 27 28 29 -23
right_child=-2 2 4 13 5 6 7 8 9 10 -12 12 16 15 -16 -17 17 19 -20 20 -22 23 -24 -25 -26 -27 -28 -29 -30 -31
leaf_value=-2.0530476866370044 10.914816029330039 0.077616220795552249 -0.21418900693959841 -0.0059487972506360627 0.0018334418894312421 -0.18439876399780247 0.00030282825683798366 -0.23671500660712469 0.0016831232126705232 -0.24364387424890596 0.11281712796285036 -0.010643691143437196 -0.3514943836663818 0.098541315054051642 0.014323493334561023 -0.0074856368948147184 -0.0056509120019541115 -0.34545140341148228 0.04816597032226469 -0.020451403411482261 -0.27936579419211965 0.0061459480226787383 0.12326424883766407 0.048615664246227652 -0.012684566387474661 0.10012317893761491 -0.0083554443648445453 0.12372485475092249 -0.0046806851093514016 0.10018084276183004
leaf_weight=334482 229928 125386 24759 9144 24974 28168 21757 24974 23942 25411 2208 13289 20532 15724 10455 3932 14871 16420 3800 3054 139371 30147 5101 44740 10489 14015 10765 10700 10891 14971
leaf_count=334482 229928 125386 24759 9144 24974 28168 21757 24974 23942 25411 2208 13289 20532 15724 10455 3932 14871 16420 3800 3054 139371 30147 5101 44740 10489 14015 10765 10700 10891 14971
internal_value=-0.0127868 -0.0375918 -0.00840949 0.0530933 -0.0543214 -0.0513854 -0.0555759 -0.0517733 -0.0556264 -0.0516782 -0.0572523 -0.0586071 -0.0540171 0.0394854 0.000109501 0.0431991 -0.0603434 -0.0559274 -0.00235124 -0.062029 -0.0578379 0.0456668 0.050141 0.0416377 0.0336131 0.0427844 0.0337507 0.0458964 0.0356425 0.0473159
internal_weight=1.2684e+06 1.03847e+06 703990 300904 403086 378327 353353 325185 303428 278454 254512 252304 226893 175518 23744 166374 203149 182617 18671 163946 147526 162442 8155 146718 101978 91489 77474 66709 56009 45118
internal_count=1268400 1038472 703990 300904 403086 378327 353353 325185 303428 278454 254512 252304 226893 175518 23744 166374 203149 182617 18671 163946 147526 162442 8155 146718 101978 91489 77474 66709 56009 45118
is_linear=0
shrinkage=0.1


Tree=14
num_leaves=31
num_cat=0
split_feature=3 3 3 3 3 3 3 28 7 9 3 7 3 9 3 9 3 18 28 3 28 3 9 9 3 9 3 9 3 9
split_gain=319042 179985 190993 6755.72 8728.27 5077.71 9064.62 4384.09 4370.07 4224.24 5002.85 6167.15 6133.51 4226.21 3690.75 4911.79 6560.26 4078.39 3449.09 5277.09 3131.69 3514.41 3692.21 3190.42 7714.78 3116.09 8639.79 5393.81 5419.01 5399.37
threshold=197.92500000000004 34.352500000000006 71.302500000000023 43.165000000000006 43.645000000000003 45.745000000000012 46.07500000000001 34.597500000000004 196.40500000000003 69.77500000000002 47.995000000000012 48.545000000000009 49.962500000000013 51.065000000000005 68.015000000000015 66.105000000000004 64.405000000000015 524.71064745388151 63.062500000000007 61.055000000000007 59.792500000000011 58.395000000000003 58.865000000000002 56.505000000000003 55.065000000000005 75.625000000000014 79.765000000000015 83.315000000000012 87.405000000000015 91.625000000000014
decision_type=2 2 2 2 2 2 2 10 10 8 2 10 2 10 2 10 2 10 10 2 10 2 10 10 2 10 2 10 2 10
left_child=1 -1 3 7 -5 -6 -7 -3 25 10 -8 -12 -13 -14 15 16 17 18 19 20 21 23 -23 24 -15 -4 -27 -28 -29 -30
right_child=-2 2 8 4 5 6 9 -9 -10 -11 11 12 13 14 -16 -17 -18 -19 -20 -21 -22 22 -24 -25 -26 26 27 28 29 -31
leaf_value=-1.9537428645675421 11.804083938115784 -0.0037426738326786337 -0.1637700146929035 -0.020445217415595351 0.08581480188677304 -0.018785208031439994 0.067214853003716254 0.09085488863298892 0.12033454846734629 0.086401545945167871 -0.016785162255072806 0.088714868262505325 -0.0061227180054615367 0.06481156877756647 -0.0072078297683219718 0.11475400626887051 -0.01051298039997306 -0.0067370732053333889 0.10711105940811123 -0.004369890773087093 0.11135236927582995 -0.01646746424264478 0.0061932742140058394 0.090162758485647032 -0.0093012217574631965 0.0013417514542567234 -0.18595934536169381 -0.0018749002475587418 -0.21304350594641194 -0.1479065377285366
leaf_weight=314434 209610 2892 29396 4940 20236 5017 20124 71703 2122 13365 5063 15458 10087 34567 11281 14229 11074 3932 10461 14319 10700 3725 7166 14705 10627 25618 25017 24908 24974 296650
leaf_count=314434 209610 2892 29396 4940 20236 5017 20124 71703 2122 13365 5063 15458 10087 34567 11281 14229 11074 3932 10461 14319 10700 3725 7166 14705 10627 25618 25017 24908 24974 296650
internal_value=-0.0134961 -0.0358111 -0.00901397 0.0500157 0.0418781 0.0446302 0.0401408 0.0763148 -0.0524817 0.0433013 0.0396197 0.0342593 0.0374552 0.0315332 0.0358358 0.0404111 0.0338896 0.0412624 0.0449628 0.0390099 0.0488477 0.0412262 -0.0110275 0.0507271 0.0375625 -0.0531938 -0.0508685 -0.0547414 -0.051504 -0.0549841
internal_weight=1.2684e+06 1.05879e+06 744356 315671 241076 236136 215900 74595 428685 210883 197518 177394 172331 156873 146786 135505 121276 110202 106270 95809 81490 70790 10891 59899 45194 426563 397167 371549 346532 321624
internal_count=1268400 1058790 744356 315671 241076 236136 215900 74595 428685 210883 197518 177394 172331 156873 146786 135505 121276 110202 106270 95809 81490 70790 10891 59899 45194 426563 397167 371549 346532 321624
is_linear=0
shrinkage=0.1


Tree=15
num_leaves=31
num_cat=0
split_feature=3 28 7 3 3 28 3 3 3 28 25 3 9 3 28 3 9 3 9 3 3 28 3 3 3 28 3 28 8 3
split_gain=297166 166135 168362 10528.9 7724.9 6338.1 7799 8236.39 5086.87 10169.6 4369.49 4698.48 12188.7 12676.6 21646.6 10506.1 6230.4 7338.82 4793.09 9571.24 4030.48 9001.6 5913.78 6332.27 5056.32 5353.27 4529.47 6016.72 4975.59 3577.57
threshold=32.565000000000005 208.83250000000001 72.015000000000015 43.165000000000006 43.645000000000003 75.467500000000015 131.40500000000003 129.14500000000001 79.765000000000015 83.772500000000022 23.862323569791155 104.08750000000002 100.42500000000003 95.375000000000014 92.372500000000016 87.405000000000015 108.53500000000001 112.84500000000001 118.75500000000001 122.71500000000002 45.745000000000012 46.267500000000005 47.995000000000012 48.585000000000008 49.962500000000013 51.772500000000015 52.612500000000004 53.657500000000006 7.5048545621658791 55.065000000000005
decision_type=2 8 10 2 2 10 2 2 2 10 10 2 10 2 10 2 10 2 10 2 2 10 2 2 2 10 2 10 10 2
left_child=-1 2 3 -2 -5 -4 7 8 -7 -10 11 12 13 14 15 -11 -13 -18 -19 -20 -6 -22 -23 -24 -25 -26 -27 -28 29 -29
right_child=1 -3 5 4 20 6 -8 -9 9 10 -12 16 -14 -15 -16 -17 17 18 19 -21 21 22 23 24 25 26 27 28 -30 -31
leaf_value=-1.9093686009989712 0.082631597365286788 11.780926520866707 -0.19239347098728532 -0.018400695674036172 0.077233321698095381 0.0014930769975165959 -0.27054973689913314 0.096510071624732074 -0.1473629530618524 0.0004600354559102016 0.021270053613184816 -0.30155429152689095 0.015164215654894521 -0.20448883305116256 0.018305128970897044 -0.1609888806935672 0.010705046594141267 -0.29611560929748038 0.067655239170842665 -0.25263892721098957 -0.0089068855925539484 0.072493260891820913 -0.013106600253198054 0.080343106778051523 -0.0055104462049150984 0.096205965635734011 -0.0080754957743799597 0.075330610264067843 -0.0071284221343965726 0.023882768165206871
leaf_weight=294183 94846 190788 22456 4940 20236 27277 161337 4726 28168 21757 2541 20532 23744 25411 20569 28347 16134 16416 8155 14657 8734 16407 5336 15185 14081 11217 8984 10802 3952 126482
leaf_count=294183 94846 190788 22456 4940 20236 27277 161337 4726 28168 21757 2541 20532 23744 25411 20569 28347 16134 16416 8155 14657 8734 16407 5336 15185 14081 11217 8984 10802 3952 126482
internal_value=-0.0110675 0.0155307 -0.00484805 0.0479282 0.0370285 -0.0455678 -0.0427988 -0.0320291 -0.0344656 -0.0393802 -0.0313921 -0.0330837 -0.0207531 -0.0366076 -0.0148274 -0.0502874 -0.0525522 -0.0351035 -0.0584531 -0.0288006 0.0395616 0.0356533 0.0397437 0.034917 0.0379234 0.0331339 0.0382917 0.0337146 0.0387621 0.0419466
internal_weight=1.2684e+06 974217 783429 341202 246356 442227 419771 258434 253708 226431 198263 195722 119828 96084 70673 50104 75894 55362 39228 22812 241416 221180 212446 196039 190703 175518 161437 150220 141236 137284
internal_count=1268400 974217 783429 341202 246356 442227 419771 258434 253708 226431 198263 195722 119828 96084 70673 50104 75894 55362 39228 22812 241416 221180 212446 196039 190703 175518 161437 150220 141236 137284
is_linear=0
shrinkage=0.1


Tree=16
num_leaves=31
num_cat=0
split_feature=3 28 7 3 28 3 9 3 3 3 3 3 3 9 25 3 28 3 9 3 9 3 7 3 3 28 28 9 3 28
split_gain=267978 154072 162777 11146.3 9845.93 7577.32 11352.3 7539.17 6815.83 8423.38 6655.8 8004.31 4473.96 10001.7 4432.82 5178.33 10830.6 12742.8 19864.5 11505.9 6244.61 6699.33 4810.6 8344.57 3628.29 4992.96 3497.22 3347.21 12705.1 3328.07
threshold=30.867500000000003 220.46750000000003 72.015000000000015 43.165000000000006 43.932500000000012 157.92500000000004 154.97500000000002 75.015000000000015 148.66500000000002 146.62500000000003 45.745000000000012 46.07500000000001 79.765000000000015 83.315000000000012 23.862323569791155 104.08750000000002 100.15750000000001 95.375000000000014 91.625000000000014 87.405000000000015 108.53500000000001 112.84500000000001 118.67500000000003 122.71500000000002 47.995000000000012 48.482500000000009 46.267500000000005 127.63500000000001 131.40500000000003 109.62750000000001
decision_type=2 10 8 2 10 2 10 2 2 2 2 2 2 10 10 2 10 2 10 2 10 2 10 2 2 10 10 10 2 10
left_child=-1 2 3 -2 -5 6 7 -4 9 12 -6 -12 -9 -14 15 16 17 18 19 -15 -17 29 -23 -24 26 -26 -13 -25 -29 -22
right_child=1 -3 5 4 10 -7 -8 8 -10 -11 11 24 13 14 -16 20 -18 -19 -20 -21 21 22 23 27 25 -27 -28 28 -30 -31
leaf_value=-1.809431725640285 0.074568289618504133 12.2118335025691 -0.19515424595886943 -0.012489979954136032 0.092509943751918663 -0.34881988510504131 0.095795281731156479 0.00045725183054088351 -0.27917508570048427 0.13346587499287352 -0.016015998669040955 -0.0016160505489239087 -0.1526271155193385 -0.00041788489876353201 0.019143048251866902 -0.27139886237420113 0.012960172324265785 -0.19403979715815611 0.0155754466096937 -0.17564026728241375 -0.039708533001184779 -0.26950468923687371 0.058540483051456961 -0.27437515656020256 -0.021796169109714471 0.022890450895775419 0.065243934802639111 0.084860163095072494 -0.26274159359556964 0.016634511417149157
leaf_weight=279510 109519 170598 19814 8602 16574 117743 7606 29920 17147 4825 5017 3717 25017 24908 2541 20532 25246 23909 23942 24974 3543 16277 8294 11640 3902 192137 16407 7743 34205 12591
leaf_count=279510 109519 170598 19814 8602 16574 117743 7606 29920 17147 4825 5017 3717 25017 24908 2541 20532 25246 23909 23942 24974 3543 16277 8294 11640 3902 192137 16407 7743 34205 12591
internal_value=-0.0117548 0.0126821 -0.00534064 0.0455 0.0337 -0.0444674 -0.0369857 -0.0397119 -0.0359743 -0.0324708 0.0375026 0.0329225 -0.0346123 -0.0387456 -0.0324821 -0.0338859 -0.0196269 -0.0347099 -0.0141607 -0.0500982 -0.0491574 -0.0382754 -0.0503858 -0.037662 0.0358207 0.0316697 0.0762572 -0.0521087 -0.0389435 0.0203917
internal_weight=1.2684e+06 988890 818292 355875 246356 462417 344674 337068 317254 300107 237754 221180 295282 265362 240345 237804 122979 97733 73824 49882 114825 94293 78159 61882 216163 196039 20124 53588 41948 16134
internal_count=1268400 988890 818292 355875 246356 462417 344674 337068 317254 300107 237754 221180 295282 265362 240345 237804 122979 97733 73824 49882 114825 94293 78159 61882 216163 196039 20124 53588 41948 16134
is_linear=0
shrinkage=0.1


Tree=17
num_leaves=31
num_cat=0
split_feature=3 7 7 3 3 3 3 3 3 3 3 28 3 7 3 28 3 7 3 7 7 7 3 9 3 28 3 28 3 28
split_gain=252728 140044 157647 16041.8 8831.06 8662.28 7877.65 7350.46 5404.7 7466.29 5209.12 8559.77 6849.85 6741.11 5002.03 6267.15 4299.79 9712.46 5817.68 11223.2 5078.92 7603.11 5015.1 7949.47 5354.64 7119.99 4689.33 10314.3 8826.58 11290.6
threshold=28.825000000000003 230.47000000000003 72.015000000000015 38.502500000000005 197.92500000000004 38.937500000000007 75.015000000000015 195.41500000000002 187.24500000000003 184.44500000000002 43.165000000000006 43.932500000000012 45.745000000000012 46.035000000000004 166.36500000000004 164.56250000000003 157.92500000000004 154.82500000000002 148.66500000000002 145.34500000000003 139.79500000000004 136.60500000000005 131.40500000000003 127.63500000000001 122.71500000000002 119.90750000000001 112.84500000000001 109.62750000000001 104.08750000000002 100.15750000000001
decision_type=2 10 8 2 2 2 2 2 2 2 2 10 2 10 2 10 2 10 2 10 10 10 2 10 2 10 2 10 2 10
left_child=-1 2 3 -2 6 -5 -4 8 9 14 -7 -12 -13 -14 15 16 17 18 19 20 21 22 23 24 25 26 27 28 29 -8
right_child=1 -3 4 5 -6 10 7 -9 -10 -11 11 12 13 -15 -16 -17 -18 -19 -20 -21 -22 -23 -24 -25 -26 -27 -28 -29 -30 -31
leaf_value=-1.7464884882264031 0.075511538476477832 11.960651373015313 -0.17563882136298192 -0.043114614616860794 -0.47413633382740844 0.075049426330100033 -0.022326423659640684 0.084237994785871712 -0.38993734727813206 0.1202628480343691 -0.011240981958722786 0.083258949376726579 -0.017454430235242315 0.021508260007458802 -0.35651922596107116 0.1313370602807197 -0.32766257350834282 0.085685861590269502 -0.251257577130437 0.096018716814873534 -0.31646773941179451 0.1352803116776812 -0.27922011556841259 0.076374146785565256 -0.24693764090418285 0.11310890550452087 -0.17755406772529625 0.016035945224165005 -0.20025873199615632 0.01166415509183878
leaf_weight=254207 95218 160068 19814 4952 49542 34652 152670 4971 15347 4851 8602 16574 4627 216553 38506 3924 11132 7628 17125 7762 14467 4990 11811 7743 11640 5101 19474 15128 24075 25246
leaf_count=254207 95218 160068 19814 4952 49542 34652 152670 4971 15347 4851 8602 16574 4627 216553 38506 3924 11132 7628 17125 7762 14467 4990 11811 7743 11640 5101 19474 15128 24075 25246
internal_value=-0.00995743 0.0123902 -0.0036963 0.0441584 -0.0422654 0.0323206 -0.0375912 -0.0345689 -0.036076 -0.0337459 0.034631 0.0295248 0.0330703 0.0284239 -0.0353262 -0.0314566 -0.032924 -0.0308299 -0.0335111 -0.0302762 -0.0334273 -0.0304198 -0.0326566 -0.0297732 -0.0328239 -0.0296333 -0.0321535 -0.0279372 -0.033902 -0.0262124
internal_weight=1.2684e+06 1.01419e+06 854125 381178 472947 285960 423405 403591 398620 383273 281008 246356 237754 221180 378422 339916 335992 324860 317232 300107 292345 277878 272888 261077 253334 241694 236593 217119 201991 177916
internal_count=1268400 1014193 854125 381178 472947 285960 423405 403591 398620 383273 281008 246356 237754 221180 378422 339916 335992 324860 317232 300107 292345 277878 272888 261077 253334 241694 236593 217119 201991 177916
is_linear=0
shrinkage=0.1


Tree=18
num_leaves=31
num_cat=0
split_feature=3 9 7 3 3 9 3 3 3 3 7 9 28 3 7 3 9 3 3 3 3 3 3 28 3 7 3 7 3 3
split_gain=235794 133074 142457 19640.3 10071 8588 7482.68 6549.69 6245.87 6108.73 10500.2 5219.86 5084.04 5072.49 18395.1 13251.3 8517.33 10856.3 7308.21 9979.37 5426.27 8024.64 4848.58 9131.28 6662.61 7733.01 7865.81 7494.12 7171.29 5259.04
threshold=26.965000000000003 244.66500000000002 72.015000000000015 34.352500000000006 197.92500000000004 74.845000000000013 34.835000000000008 36.605000000000011 195.41500000000002 79.765000000000015 83.145000000000024 37.005000000000003 27.147500000000004 95.375000000000014 91.475000000000009 87.405000000000015 99.575000000000003 104.08750000000002 108.15500000000002 112.84500000000001 118.09000000000002 122.71500000000002 38.502500000000005 39.427500000000002 43.165000000000006 44.065000000000005 45.745000000000012 46.345000000000006 47.995000000000012 48.585000000000008
decision_type=2 10 8 2 2 10 2 2 2 2 10 10 10 2 10 2 10 2 2 2 2 2 2 10 2 10 2 10 2 2
left_child=-1 2 3 12 5 -4 -5 -8 9 -7 -11 -9 -2 14 15 -12 -15 -18 -19 -20 -21 -22 -13 -24 -25 -26 -27 -28 -29 -30
right_child=1 -3 4 6 -6 8 7 11 -10 10 13 22 -14 16 -16 -17 17 18 19 20 21 -23 23 24 25 26 27 28 29 -31
leaf_value=-1.6248397080683135 -0.0083397118830106365 12.402586723995032 -0.16107481715637137 -0.022639838912429867 -0.43087087553765857 0.0023238339624612084 0.099900374323425467 -0.013166016419830839 0.075814195307285115 -0.13813163953112878 0.0018565459570766053 0.072834044615325416 0.075060375473556817 -0.19740317507637714 0.01620799496318881 -0.1600931709421147 0.0076556677442781058 -0.23123307241958743 0.011367801446377258 -0.25679878302307912 0.038724471222379014 -0.1622432664622025 -0.029003081438865763 0.079180209290656486 -0.0091170516095303352 0.081933023921475723 -0.0066688184495113491 0.059568593251317026 -0.013767195094020225 0.019133296971735093
leaf_weight=233830 2366 149881 19112 4944 59729 30622 15104 3587 4971 24335 25590 11356 78238 20551 24463 24453 28604 19337 19866 14878 9697 156926 8150 31454 9749 15427 9615 15526 5336 190703
leaf_count=233830 2366 149881 19112 4944 59729 30622 15104 3587 4971 24335 25590 11356 78238 20551 24463 24453 28604 19337 19866 14878 9697 156926 8150 31454 9749 15427 9615 15526 5336 190703
internal_value=-0.00846484 0.012033 -0.00272898 0.0412867 -0.0393125 -0.0338898 0.0302037 0.0321135 -0.0307933 -0.03218 -0.0357445 0.028888 0.0854176 -0.0312584 -0.00816042 -0.0429011 -0.0376356 -0.0325349 -0.0400473 -0.0344083 -0.0417733 -0.0366066 0.0303347 0.0277899 0.0308506 0.025317 0.0289133 0.024098 0.0280221 0.0228409
internal_weight=1.2684e+06 1.03457e+06 884689 401555 483134 423405 320951 316007 404293 399322 368700 300903 80604 344365 74506 50043 269859 249308 220704 201367 181501 166623 297316 285960 277810 246356 236607 221180 211565 196039
internal_count=1268400 1034570 884689 401555 483134 423405 320951 316007 404293 399322 368700 300903 80604 344365 74506 50043 269859 249308 220704 201367 181501 166623 297316 285960 277810 246356 236607 221180 211565 196039
is_linear=0
shrinkage=0.1


Tree=19
num_leaves=31
num_cat=0
split_feature=3 28 7 3 28 7 7 3 3 3 3 9 3 9 3 9 3 3 3 3 3 28 7 7 3 28 3 7 3 28
split_gain=221534 124575 129028 17330.6 11506.6 8476.85 8260.53 6789.93 6595.55 6055.91 6014.03 6009.88 6569.63 7316.69 6329.92 7689.06 8987.02 6149.05 5363.99 11663.3 5410.97 12554.9 6334.95 7118.13 4908.25 11550.2 5015.3 7931.59 5596.64 5719.41
threshold=24.317500000000006 256.13750000000005 72.015000000000015 34.352500000000006 208.83250000000001 74.735000000000014 25.365000000000006 34.835000000000008 206.74500000000003 36.605000000000011 197.92500000000004 194.69000000000003 187.24500000000003 183.43500000000003 176.48500000000004 173.31500000000003 166.36500000000004 163.80500000000004 157.92500000000004 154.44500000000002 148.66500000000002 144.92250000000004 139.79500000000004 136.60500000000005 79.765000000000015 82.997500000000016 131.40500000000003 127.49500000000002 122.71500000000002 119.90750000000001
decision_type=2 10 8 2 8 10 10 2 2 2 2 10 2 10 2 10 2 2 2 2 2 10 10 10 2 10 2 10 2 10
left_child=-1 2 3 6 5 -4 -2 -5 10 -9 11 12 13 14 15 16 17 18 19 20 21 22 23 24 -7 -26 27 28 29 -27
right_child=1 -3 4 7 -6 8 -8 9 -10 -11 -12 -13 -14 -15 -16 -17 -18 -19 -20 -21 -22 -23 -24 -25 25 26 -28 -29 -30 -31
leaf_value=-1.5193557067439039 -0.050355748705573689 13.080327319173655 -0.14596754906378068 -0.020375855021186596 -0.48078305556201717 0.0020914505662148032 0.067649315781883601 0.089910336891082923 0.12636499746066079 0.021404791410017766 -0.33763494150418299 0.053057067501615054 -0.39971867555253482 0.079679548303587922 -0.48664218326171071 0.14392888611637034 -0.35107080870784846 0.093428840566838298 -0.30167156226519298 0.072093239650703828 -0.23490749277117118 0.09004115041730075 -0.29159621157830035 0.13797660715613347 -0.13431832299012569 -0.018109612589738335 -0.23507377736534921 0.084961058753231108 -0.20901942809723267 0.097925567831831026
leaf_weight=218906 2704 141000 18813 4944 49788 30920 92824 15104 4367 300903 14456 7202 13116 7060 12323 6973 17001 5141 9915 9854 14899 9248 12981 4990 23152 183521 11811 7896 11487 5101
leaf_count=218906 2704 141000 18813 4944 49788 30920 92824 15104 4367 300903 14456 7202 13116 7060 12323 6973 17001 5141 9915 9854 14899 9248 12981 4990 23152 183521 11811 7896 11487 5101
internal_value=-0.00765358 0.0114331 -0.0021398 0.0388214 -0.0368125 -0.0316812 0.0762122 0.0276924 -0.0287629 0.0295117 -0.030037 -0.0277725 -0.0294132 -0.0270378 -0.0289256 -0.026545 -0.0285711 -0.0250326 -0.0266944 -0.0244897 -0.0278305 -0.0249197 -0.0285545 -0.025376 -0.0275324 -0.032308 -0.025232 -0.0216327 -0.0255116 -0.0213846
internal_weight=1.2684e+06 1.04949e+06 908494 416479 492015 442227 95528 320951 423414 316007 419047 404591 397389 384273 377213 364890 357917 340916 335775 325860 316006 301107 291859 278878 273888 242968 219816 208005 200109 188622
internal_count=1268400 1049494 908494 416479 492015 442227 95528 320951 423414 316007 419047 404591 397389 384273 377213 364890 357917 340916 335775 325860 316006 301107 291859 278878 273888 242968 219816 208005 200109 188622
is_linear=0
shrinkage=0.1


Tree=20
num_leaves=31
num_cat=0
split_feature=3 3 7 28 3 3 28 28 3 3 28 3 3 3 7 3 3 3 3 7 3 7 3 3 3 3 3 3 3 3
split_gain=204336 118803 109733 13493.6 12318.4 9242.67 8968.09 5187.51 5070.21 5391.69 8091.66 6664.42 5436.35 7488.13 7537.59 7795.8 7869.27 7522.78 4939.49 5355.91 6394.19 6385.36 5849.56 7336.45 6957.81 5291.39 4980.57 9846.19 4816.4 5061.73
threshold=23.065000000000001 271.53000000000003 72.015000000000015 208.83250000000001 36.605000000000011 25.705000000000002 74.522500000000022 206.78750000000005 37.125000000000007 38.502500000000005 39.427500000000002 41.155000000000008 41.695000000000007 43.165000000000006 44.065000000000005 45.745000000000012 46.402500000000011 47.995000000000012 197.92500000000004 194.45000000000002 187.24500000000003 183.24500000000003 176.48500000000004 174.35500000000005 166.36500000000004 163.80500000000004 157.92500000000004 154.44500000000002 48.585000000000008 49.962500000000013
decision_type=2 2 8 8 2 2 10 10 2 2 10 2 2 2 10 2 2 2 2 10 2 10 2 2 2 2 2 2 2 2
left_child=-1 2 4 6 5 -2 -4 18 -6 -10 -11 -12 -13 -14 -15 -16 -17 -18 19 20 21 22 23 24 25 26 27 -8 -19 -30
right_child=1 -3 3 -5 8 -7 7 -9 9 10 11 12 13 14 15 16 17 28 -20 -21 -22 -23 -24 -25 -26 -27 -28 -29 29 -31
leaf_value=-1.387420116996027 -0.018320128058649132 15.215794343115665 -0.14037042794646482 -0.46024873738718669 -0.0099898023661154425 0.061589195776723928 -0.020307546733280904 0.11672837564428279 0.072410176271579738 -0.028243252435981248 0.10112167870301079 -0.025514199478446645 0.073485968368233054 -0.010345825589579506 0.071599242388326448 -0.0081424157455622041 0.053471300561550097 -0.014530954725620404 -0.30187254598657776 0.046751910067860086 -0.36274668592697029 0.07071061691073055 -0.44497869735741347 0.15553544818832848 -0.27696378887222012 0.084085956510153895 -0.2715044060386731 0.064883915685632593 0.063815116171747385 0.010666030705243657
leaf_weight=213897 9990 126058 17651 64730 4992 110595 317168 4238 9951 8150 11689 4968 14797 9749 15427 9935 15206 5336 14585 7341 12977 7131 12252 4777 19197 5141 9915 9854 15185 175518
leaf_count=213897 9990 126058 17651 64730 4992 110595 317168 4238 9951 8150 11689 4968 14797 9749 15427 9935 15206 5336 14585 7341 12977 7131 12252 4777 19197 5141 9915 9854 15185 175518
internal_value=-0.0100132 0.00806361 -0.00430429 -0.0356513 0.0333993 0.0604047 -0.0294096 -0.026506 0.022577 0.024263 0.021745 0.0246262 0.0213801 0.0233514 0.0192015 0.0227521 0.0179582 0.0220488 -0.0276159 -0.0255606 -0.0271202 -0.0247956 -0.0265628 -0.0242878 -0.0259157 -0.0226282 -0.0241645 -0.0220474 0.0167931 0.019415
internal_weight=1.2684e+06 1.0545e+06 928445 506957 421488 120585 442227 424576 300903 295911 285960 277810 266121 261153 246356 236607 221180 211245 420338 405753 398412 385435 378304 366052 361275 342078 336937 327022 196039 190703
internal_count=1268400 1054503 928445 506957 421488 120585 442227 424576 300903 295911 285960 277810 266121 261153 246356 236607 221180 211245 420338 405753 398412 385435 378304 366052 361275 342078 336937 327022 196039 190703
is_linear=0
shrinkage=0.1


Tree=21
num_leaves=31
num_cat=0
split_feature=3 7 3 28 3 28 3 3 3 3 3 28 3 28 3 28 3 9 3 28 3 9 3 3 28 3 28 3 7 3
split_gain=198070 113943 90661.6 13422.4 9020.54 6932.51 6157.7 6141.31 8074.3 6441.03 7283.56 5760.45 5755.51 11276.1 5620.77 17503.5 16280.8 10947.7 10289.3 9356.09 8481.03 6012.04 4702.55 4189.02 5090.35 5878.06 5709.98 6260.92 8098.27 7761.38
threshold=22.295000000000005 284.09500000000008 71.302500000000023 208.83250000000001 43.165000000000006 70.207500000000024 25.705000000000002 44.125000000000007 45.745000000000012 46.402500000000011 47.995000000000012 74.522500000000022 79.765000000000015 82.997500000000016 95.375000000000014 91.277500000000018 87.405000000000015 99.575000000000003 104.08750000000002 108.03250000000001 112.84500000000001 117.48500000000001 206.74500000000003 197.92500000000004 194.0275 187.24500000000003 182.63250000000002 176.48500000000004 173.13000000000002 166.36500000000004
decision_type=2 10 2 10 2 10 2 2 2 2 2 10 2 10 2 10 2 10 2 10 2 10 2 2 10 2 10 2 10 2
left_child=-1 2 4 11 6 7 -2 -6 -9 -10 -11 -4 -13 -14 15 16 -15 -16 -19 -20 -21 -22 23 24 25 26 27 28 29 -23
right_child=1 -3 3 -5 5 -7 -8 8 9 10 -12 12 13 14 17 -17 -18 18 19 20 21 22 -24 -25 -26 -27 -28 -29 -30 -31
leaf_value=-1.2706781319993052 -0.0092885682957685855 15.313715641225976 -0.088333659810021462 -0.44357029498845579 -0.0093112430306213408 0.083812862052685955 0.049530350967117803 0.066439363925861278 -0.0073281741710061968 0.048124170505395372 0.0081966357044677817 0.0034628772047170745 -0.11885573601778532 0.005345073419158553 -0.17382114163643791 0.018370416591739058 -0.14724210739802288 0.010731816902152504 -0.21026780510470219 0.013731981272250948 -0.27827663947206249 -0.035354331645743288 0.10205566015016815 -0.27368419275510691 0.034076535955605891 -0.34847213940458632 0.057318434005918566 -0.44647997312948462 0.11334627102420428 -0.28926832551234155
leaf_weight=209099 14788 120077 22932 70710 10162 9880 165142 15014 9935 15206 180879 32082 23152 26773 20551 25676 23240 28604 18909 20294 11818 110979 4367 14456 8639 11679 8240 11143 7044 16930
leaf_count=209099 14788 120077 22932 70710 10162 9880 165142 15014 9935 15206 180879 32082 23152 26773 20551 25676 23240 28604 18909 20294 11818 110979 4367 14456 8639 11679 8240 11143 7044 16930
internal_value=-0.0101916 0.00736533 -0.00436147 -0.0323651 0.0301084 0.0174625 0.0470516 0.013957 0.0174516 0.012292 0.016272 -0.0259678 -0.023331 -0.0266598 -0.0224161 0.0018827 -0.0325735 -0.0286791 -0.0233825 -0.0300215 -0.024358 -0.0304542 -0.0262248 -0.0285939 -0.0243121 -0.0282065 -0.0230303 -0.0275983 -0.0216498 -0.0273984
internal_weight=1.2684e+06 1.0593e+06 939224 518218 421006 241076 179930 231196 221034 206020 196085 447508 424576 392494 369342 75689 50013 293653 273102 244498 225589 205295 193477 189110 174654 166015 154336 146096 134953 127909
internal_count=1268400 1059301 939224 518218 421006 241076 179930 231196 221034 206020 196085 447508 424576 392494 369342 75689 50013 293653 273102 244498 225589 205295 193477 189110 174654 166015 154336 146096 134953 127909
is_linear=0
shrinkage=0.1


Tree=22
num_leaves=31
num_cat=0
split_feature=3 3 7 28 3 3 3 28 3 9 3 28 3 7 3 3 3 3 3 3 3 9 28 3 28 3 28 3 9 3
split_gain=190394 107040 81770.7 13834.9 8697.12 8328.87 6719.1 7003.68 5458.76 4510.9 6988.8 4414.91 4355.25 8339.64 6836.71 5435.16 6712.34 5808.2 6148.2 6090.89 4694.02 5443.52 4335.89 9110.49 7075.29 9075.63 5496.57 6686.31 7962.32 7197.9
threshold=21.175000000000004 303.14500000000004 72.015000000000015 220.46750000000003 36.605000000000011 74.085000000000022 217.54500000000004 208.83250000000001 37.125000000000007 205.08000000000001 197.92500000000004 196.11250000000004 38.502500000000005 39.600000000000009 41.155000000000008 41.695000000000007 43.165000000000006 44.125000000000007 45.745000000000012 46.402500000000011 47.995000000000012 69.77500000000002 49.022500000000008 49.962500000000013 51.772500000000015 52.612500000000004 53.657500000000006 55.065000000000005 56.505000000000003 58.395000000000003
decision_type=2 2 8 8 2 2 2 10 2 10 2 10 2 10 2 2 2 2 2 2 2 10 10 2 10 2 10 2 10 2
left_child=-1 2 4 5 -2 -4 7 9 -6 10 11 -7 -10 -14 -15 -16 -17 -18 -19 -20 -21 22 -22 -24 -25 -26 -27 -28 -29 -30
right_child=1 -3 3 -5 8 6 -8 -9 12 -11 -12 -13 13 14 15 16 17 18 19 20 21 -23 23 24 25 26 27 28 29 -31
leaf_value=-1.1606103264287693 0.040977500501753639 15.319844077103376 -0.13650026331144147 -0.48321289927867217 -0.013943857226215784 -0.019892343880856346 0.18367660391534457 -0.40207321297918669 0.060216123547709804 0.058849911029682289 -0.34631577347959708 0.081668333043637631 -0.026172095040560353 0.092056613065099671 -0.027915814627314007 0.061184336434698144 -0.0083801187275589946 0.05979542753327536 -0.0065953567539054347 0.043311753454855766 -0.010897644893817216 0.033136578319010825 0.070614261418696603 -0.015339348153893441 0.076205422502690828 -0.017647892766412099 0.057417602668191139 -0.021139322967707843 0.068378259251091575 0.0010766751655367558
leaf_weight=203913 130569 111270 14705 59329 4992 405532 4937 15252 9951 7244 11579 3167 9218 10621 4968 14797 10162 15014 9935 15206 9184 18645 11337 14081 11217 8984 10802 10627 14770 86392
leaf_count=203913 130569 111270 14705 59329 4992 405532 4937 15252 9951 7244 11579 3167 9218 10621 4968 14797 10162 15014 9935 15206 9184 18645 11337 14081 11217 8984 10802 10627 14770 86392
internal_value=-0.0106149 0.00634212 -0.00449205 -0.0311269 0.0277154 -0.0252941 -0.0228618 -0.0241554 0.0183631 -0.0217799 -0.0231285 -0.020958 0.0201125 0.0178493 0.0209661 0.0178261 0.0197972 0.0158681 0.019053 0.0148494 0.0184482 0.0142966 0.00889433 0.0125474 0.00629108 0.0129601 0.00559909 0.0111321 0.00387247 0.0125225
internal_weight=1.2684e+06 1.06449e+06 953217 521745 431472 462416 447711 442774 300903 427522 420278 408699 295911 285960 276742 266121 261153 246356 236194 221180 211245 196039 177394 168210 156873 142792 131575 122591 111789 101162
internal_count=1268400 1064487 953217 521745 431472 462416 447711 442774 300903 427522 420278 408699 295911 285960 276742 266121 261153 246356 236194 221180 211245 196039 177394 168210 156873 142792 131575 122591 111789 101162
is_linear=0
shrinkage=0.1


Tree=23
num_leaves=31
num_cat=0
split_feature=3 7 7 28 3 3 28 28 3 3 3 28 3 3 3 28 3 9 3 9 3 28 28 3 28 3 28 24 7 3
split_gain=182807 97825.9 72553.6 12888.7 8721.65 8078.81 6352.18 6651.67 5826.07 12336.3 6098.58 15430.3 16532.2 11423.9 9834.85 9412.97 7740.76 6529.93 5169.89 4115.18 6628.65 4249.93 3908.21 3945.85 6468.45 9248.06 5709.19 6449.47 5168.89 6073.1
threshold=19.915000000000003 314.11500000000007 72.015000000000015 220.46750000000003 74.085000000000022 36.605000000000011 217.41000000000005 208.83250000000001 79.765000000000015 82.545000000000016 95.375000000000014 91.277500000000018 87.405000000000015 99.365000000000023 104.08750000000002 108.03250000000001 112.84500000000001 117.48500000000001 37.125000000000007 205.08000000000001 197.92500000000004 196.11250000000004 70.207500000000024 49.962500000000013 51.772500000000015 52.612500000000004 49.022500000000008 59.921933188242321 53.745000000000012 55.065000000000005
decision_type=2 10 8 8 2 2 10 10 2 2 2 10 2 2 2 10 2 10 2 10 2 10 10 2 10 2 10 10 10 2
left_child=-1 2 5 4 -4 -2 7 8 -6 -10 11 12 -11 -12 -15 -16 -17 -18 -7 20 21 -19 23 26 -25 -26 27 -20 -27 -30
right_child=1 -3 3 -5 6 18 -8 -9 9 10 13 -13 -14 14 15 16 17 19 22 -21 -22 -23 -24 24 25 28 -28 -29 29 -31
leaf_value=-1.0795492365654333 0.037479687890543192 15.076357594197725 -0.12285023698029676 -0.45060677176919062 0.004157630389906331 -0.012549471503594135 0.15530985905115247 -0.373116196857049 -0.12498062285214076 0.0062562823989196666 -0.16044954894408364 0.018522609320650928 -0.13052866227013454 0.011195053769868936 -0.18725179020614605 0.014348017533112057 -0.24845974113677016 -0.047898008209295996 0.016815991591471402 0.052964919926714066 -0.31168419613163678 0.073501499739273876 0.047117918015516125 -0.013805413338504026 0.068584880252421959 -0.015209850700198048 0.063552835276826869 -0.0059358210785148916 0.055675552484380122 0.0029450258679773358
leaf_weight=194003 140479 105371 14705 65228 35028 4992 5187 15002 20028 29897 19845 25676 23240 29310 18909 20294 11818 171487 101922 7244 11579 3167 15161 14081 11217 9925 11337 7134 9861 115273
leaf_count=194003 140479 105371 14705 65228 35028 4992 5187 15002 20028 29897 19845 25676 23240 29310 18909 20294 11818 171487 101922 7244 11579 3167 15161 14081 11217 9925 11337 7134 9861 115273
internal_value=-0.00979092 0.00634114 -0.00360919 -0.0286356 -0.0227656 0.0263083 -0.0202767 -0.0215663 -0.0192697 -0.022757 -0.018646 0.00605357 -0.0247041 -0.0252751 -0.0199651 -0.026527 -0.0208463 -0.0266704 0.0170643 -0.0222626 -0.0251389 -0.0202812 0.0187668 0.0160962 0.00582388 0.0120553 0.0297783 0.0227571 0.00480901 0.0103185
internal_weight=1.2684e+06 1.0744e+06 969026 527644 462416 441382 447711 442524 427522 392494 372466 78813 53137 293653 273808 244498 225589 205295 300903 193477 186233 174654 295911 280750 160357 146276 120393 109056 135059 125134
internal_count=1268400 1074397 969026 527644 462416 441382 447711 442524 427522 392494 372466 78813 53137 293653 273808 244498 225589 205295 300903 193477 186233 174654 295911 280750 160357 146276 120393 109056 135059 125134
is_linear=0
shrinkage=0.1


Tree=24
num_leaves=31
num_cat=0
split_feature=3 3 7 9 3 3 28 3 3 3 3 9 3 28 3 9 3 7 3 3 28 3 3 7 9 3 9 3 9 3
split_gain=168946 89526.7 67729.2 15567.9 8238.54 7875.54 8314.09 7921.16 5310.54 12092.4 7023.82 15143.2 17328.7 10711.3 8528.65 8834 6813.64 6204.15 4803.85 4399.75 5471.55 9090.26 5144.57 8632.69 5177.95 9704.55 6051.81 12917.5 3989.48 6978.85
threshold=19.285000000000004 331.01000000000005 72.015000000000015 244.66500000000002 74.085000000000022 34.352500000000006 35.297500000000007 36.605000000000011 79.765000000000015 82.545000000000016 95.375000000000014 90.905000000000015 87.405000000000015 99.217500000000015 104.08750000000002 107.22500000000001 112.84500000000001 117.41500000000001 37.125000000000007 122.71500000000002 126.84250000000002 131.40500000000003 135.85500000000005 139.79500000000004 143.35500000000005 148.66500000000002 153.71500000000003 157.92500000000004 33.385000000000012 32.565000000000005
decision_type=2 2 8 8 2 2 10 2 2 2 2 10 2 10 2 10 2 10 2 2 10 2 2 10 10 2 10 2 10 2
left_child=-1 2 5 4 -4 28 -7 -8 -6 -10 11 12 -11 -12 -15 -16 -17 -18 -9 -19 -21 -22 -23 -24 -25 -26 -27 -28 29 -2
right_child=1 -3 3 -5 8 6 7 18 9 10 13 -13 -14 14 15 16 17 19 -20 20 21 22 23 24 25 26 27 -29 -30 -31
leaf_value=-0.98359439683222982 0.036543973805487441 17.235723177551392 -0.11056521328226694 -0.51394276310448961 0.0037418673509151293 -0.032295637856901038 0.071961858570196574 -0.011294524353234437 -0.11248256056692725 0.0056306541590274151 -0.15740508233092498 0.016024693405061897 -0.15947637587710517 0.0093703445086788413 -0.20452667222068754 0.010253330872450306 -0.22561419426918691 0.026803352084910161 0.01129914679690245 -0.20277192654723139 0.07957485626955077 -0.24122099347642634 0.091284503102555453 -0.30709209979542607 0.059082179076787616 -0.2500709711307309 0.047958538022888325 -0.13968321228593653 0.062131491745531522 -0.019868477736890357
leaf_weight=189053 105130 91968 14705 57914 35028 7942 12106 4992 20028 29897 18949 28710 20206 30206 15706 23497 11625 12950 295911 10042 9341 9897 6904 9694 12535 12229 12524 138460 12345 7906
leaf_count=189053 105130 91968 14705 57914 35028 7942 12106 4992 20028 29897 18949 28710 20206 30206 15706 23497 11625 12950 295911 10042 9341 9897 6904 9694 12535 12229 12524 138460 12345 7906
internal_value=-0.0108414 0.00443277 -0.00435689 -0.0281449 -0.0222719 0.0244791 0.0161766 0.0187404 -0.0199582 -0.0229852 -0.0193085 0.00754825 -0.0256332 -0.0256352 -0.0212509 -0.0265988 -0.0223532 -0.0272635 0.0155495 -0.0237296 -0.0270401 -0.0236171 -0.0280717 -0.0244538 -0.0285415 -0.0246171 -0.0311293 -0.0256491 0.0457318 0.0398369
internal_weight=1.2684e+06 1.07935e+06 987379 541047 483133 446332 320951 313009 468428 433400 413372 78813 50103 334559 315610 285404 269698 246201 300903 234576 221626 211584 202243 192346 185442 175748 163213 150984 125381 113036
internal_count=1268400 1079347 987379 541047 483133 446332 320951 313009 468428 433400 413372 78813 50103 334559 315610 285404 269698 246201 300903 234576 221626 211584 202243 192346 185442 175748 163213 150984 125381 113036
is_linear=0
shrinkage=0.1


Tree=25
num_leaves=31
num_cat=0
split_feature=3 28 3 28 3 28 7 3 7 3 3 3 3 3 9 3 3 3 3 3 3 7 9 3 9 3 7 7 3 7
split_gain=159916 81712.7 60763.7 17187.2 6118.84 7418.88 5011.67 4565.65 11714 6002.95 14465 16731.6 10245.8 7719.99 9191.52 5894.65 5905.36 4990.86 5048.08 7048.68 4866.85 6379.8 5548.03 8173.78 6496.34 10676.6 4409.2 4254.22 4103.17 4042.94
threshold=17.405000000000005 348.69250000000005 71.302500000000023 256.13750000000005 36.605000000000011 70.207500000000024 73.955000000000013 79.765000000000015 82.495000000000019 95.375000000000014 90.785000000000011 87.405000000000015 99.365000000000023 104.08750000000002 107.22500000000001 112.84500000000001 117.01000000000001 122.71500000000002 126.81500000000001 131.40500000000003 135.85500000000005 139.79500000000004 143.35500000000005 148.66500000000002 153.71500000000003 157.92500000000004 17.815000000000001 37.005000000000003 144.74500000000003 35.335000000000008
decision_type=2 10 2 10 2 10 10 2 10 2 2 2 2 2 10 2 2 2 2 2 2 10 10 2 10 2 10 10 2 10
left_child=-1 2 4 6 26 27 -4 -8 -9 10 11 -10 -11 -14 -15 -16 -17 -18 -19 -20 -21 -22 -23 28 -25 -26 -2 -6 -24 -28
right_child=1 -3 3 -5 5 -7 7 8 9 12 -12 -13 13 14 15 16 17 18 19 20 21 22 23 24 25 -27 29 -29 -30 -31
leaf_value=-0.90823491137263945 -0.051234941890217559 21.947651958429066 -0.071508814024352316 -0.54315328312557654 -0.014165163470645581 0.066276211534274418 0.003275598168370664 -0.10623460968601535 0.0046108931864864647 -0.12866408581658248 0.014422224064556134 -0.14602812793783215 0.0091385139420140146 -0.18407400499861809 0.0092279977852058447 -0.24405237811375288 0.018947347228044011 -0.1834949475155554 0.071067863758656813 -0.21709889412878455 0.08215605279230119 -0.27638288981588349 -0.045998974929668181 -0.22506387401765837 0.043162684220598636 -0.13783509627478169 0.028577192021233346 0.0081617014502505473 0.081587849791071684 0.066765718489543963
leaf_weight=179275 2294 81513 18958 59487 3828 9880 36056 19197 30728 19845 29175 19741 29310 15706 23497 10198 14377 9967 9416 9897 6904 9694 2851 12229 12524 147341 141449 281915 9684 11464
leaf_count=179275 2294 81513 18958 59487 3828 9880 36056 19197 30728 19845 29175 19741 29310 15706 23497 10198 14377 9967 9416 9897 6904 9694 2851 12229 12524 147341 141449 281915 9684 11464
internal_value=-0.0115896 0.0028163 -0.00497434 -0.0270716 0.0223162 0.0138748 -0.020995 -0.0189964 -0.0217859 -0.0183193 0.00641605 -0.0259862 -0.0240554 -0.0197781 -0.0246526 -0.0204563 -0.0248712 -0.0217662 -0.0253316 -0.0221855 -0.025961 -0.0225939 -0.0259501 -0.0220783 -0.0277569 -0.0223833 0.0383945 0.0109291 0.0558835 0.040459
internal_weight=1.2684e+06 1.08912e+06 1.00761e+06 556782 450830 295623 497295 478337 442281 423084 79644 50469 343440 323595 294285 278579 255082 244884 230507 220540 211124 201227 194323 184629 172094 159865 155207 285743 12535 152913
internal_count=1268400 1089125 1007612 556782 450830 295623 497295 478337 442281 423084 79644 50469 343440 323595 294285 278579 255082 244884 230507 220540 211124 201227 194323 184629 172094 159865 155207 285743 12535 152913
is_linear=0
shrinkage=0.1


Tree=26
num_leaves=31
num_cat=0
split_feature=3 3 7 28 7 28 28 7 3 28 3 28 3 3 3 3 127 3 3 28 3 3 28 3 28 3 3 28 3 28
split_gain=153944 73231.7 49577 15657.8 8905.63 5952.57 5679.3 5166.7 6484.45 8288.79 5758.95 8364.65 7292.75 10691.7 6074.63 5540.62 5205.7 4815.08 6617.39 5552.72 6053.94 5349.11 8923.87 7546 5491.75 5031.78 9548.68 4689.86 8524.92 6051.77
threshold=16.942500000000006 380.49500000000006 72.015000000000015 220.46750000000003 73.955000000000013 217.41000000000005 208.83250000000001 204.86500000000004 197.92500000000004 194.0275 187.24500000000003 182.63250000000002 176.48500000000004 172.55500000000004 166.36500000000004 163.80500000000004 7.8503754189023449e-06 43.165000000000006 44.125000000000007 42.002500000000005 41.155000000000008 45.745000000000012 46.63750000000001 47.995000000000012 70.207500000000024 39.767500000000005 38.502500000000005 49.022500000000008 49.962500000000013 51.772500000000015
decision_type=2 2 8 8 10 10 10 10 2 10 2 10 2 2 2 2 8 2 2 10 2 2 10 2 10 2 2 10 2 10
left_child=-1 2 17 4 -4 6 7 8 9 10 11 12 13 14 15 16 -6 19 -19 20 25 -20 -23 -24 27 26 -2 -25 -29 -30
right_child=1 -3 3 -5 5 -7 -8 -9 -10 -11 -12 -13 -14 -15 -16 -17 -18 18 21 -21 -22 22 23 24 -26 -27 -28 28 29 -31
leaf_value=-0.83141145456765109 0.024560638627644238 21.635387983289288 -0.097857841069182439 -0.41023205984866995 0.0060525514700827902 0.16753070400210959 -0.30805274631527202 0.074253902894116666 -0.25576382359208766 0.057079987529175473 -0.27909405939903992 0.086117456670416467 -0.36730110975144897 0.094179424070446771 -0.27180977240383014 0.11374366008880088 -0.01153717999461179 -0.011169790838665251 0.05018820079608588 0.068438035701897354 -0.0167520239599682 -0.0086469685453906212 0.054353138266132819 -0.01343556438829765 0.034713408802771538 0.086223237257149782 -0.025382680909526556 0.055251466924428887 -0.01437095682936871 0.0064390447915599232
leaf_weight=174266 175159 72638 13677 97961 27030 5187 15002 7389 11434 8639 11679 8240 11143 9405 14569 5141 313881 10162 15014 11612 8157 13416 11725 9184 15161 9924 9911 11337 14081 146276
leaf_count=174266 175159 72638 13677 97961 27030 5187 15002 7389 11434 8639 11679 8240 11143 9405 14569 5141 313881 10162 15014 11612 8157 13416 11725 9184 15161 9924 9911 11337 14081 146276
internal_value=-0.011816 0.0020875 -0.00481137 -0.0247956 -0.0171019 -0.0146791 -0.0159246 -0.0138075 -0.0152619 -0.013189 -0.0152764 -0.0132013 -0.0153562 -0.0129558 -0.015701 -0.0130379 -0.0145918 0.0194746 0.00993359 0.0304191 0.0265748 0.0133331 0.00941224 0.0145165 0.00985569 0.0301055 0.0263857 0.00501001 0.00873414 0.00280936
internal_weight=1.2684e+06 1.09413e+06 1.0215e+06 560377 462416 448739 443552 428550 421161 409727 401088 389409 381169 370026 360621 346052 340911 461119 246356 214763 203151 236194 221180 207764 196039 194994 185070 180878 171694 160357
internal_count=1268400 1094134 1021496 560377 462416 448739 443552 428550 421161 409727 401088 389409 381169 370026 360621 346052 340911 461119 246356 214763 203151 236194 221180 207764 196039 194994 185070 180878 171694 160357
is_linear=0
shrinkage=0.1


Tree=27
num_leaves=31
num_cat=0
split_feature=3 3 7 28 28 28 28 28 3 3 3 28 3 7 3 3 3 7 3 3 7 3 28 3 28 3 28 3 9 3
split_gain=151083 67523.7 43112.2 12969.2 8885.04 5387.44 5427.2 4786.13 6408.78 7953.8 7282.53 6773.06 6940.77 11113.2 8389.27 5034.72 4780.43 6973.6 6557.97 7860.75 6883.98 4679.26 6720.84 8220.18 7757.99 6299.01 5058.38 4836.86 4187.61 4698.66
threshold=16.245000000000001 396.29500000000007 72.015000000000015 220.46750000000003 73.822500000000005 217.41000000000005 208.83250000000001 204.46250000000001 197.92500000000004 193.05250000000004 187.24500000000003 182.63250000000002 176.48500000000004 171.83000000000001 166.36500000000004 163.80500000000004 157.92500000000004 153.56500000000003 148.66500000000002 144.74500000000003 139.79500000000004 43.165000000000006 44.467500000000008 45.745000000000012 46.63750000000001 47.995000000000012 70.207500000000024 42.095000000000006 136.77500000000003 131.40500000000003
decision_type=2 2 8 8 10 10 10 10 2 2 2 10 2 10 2 2 2 10 2 2 10 2 10 2 10 2 10 2 10 2
left_child=-1 2 21 4 -4 6 7 8 9 10 11 12 13 14 15 16 17 18 19 20 28 27 -23 -24 -25 -26 -27 -2 29 -6
right_child=1 -3 3 -5 5 -7 -8 -9 -10 -11 -12 -13 -14 -15 -16 -17 -18 -19 -20 -21 -22 22 23 24 25 26 -28 -29 -30 -31
leaf_value=-0.76027029766679421 0.017729770997756588 20.830845766991612 -0.091571660233748284 -0.36481303984377295 -0.0045393126053596689 0.15077763360189922 -0.27724747168374508 0.050812314626494985 -0.26868841779538005 0.048815346540862947 -0.26718501967007457 0.07750571100337425 -0.3305709987763038 0.06576123752277567 -0.29762867309313495 0.10236929407992079 -0.20513394820568182 0.039970197398287159 -0.20140376861643292 0.074582782811424414 -0.20758996730749005 -0.0091235342012403464 0.054169395975266356 -0.0077822716908514172 0.048917824439519822 0.0028350919213480097 0.031242067922494246 0.070594247390496898 0.11983334361616471 -0.15223546982191466
leaf_weight=169339 209527 67708 12592 102891 268298 5187 15002 8547 10276 10237 10081 8240 11143 11955 12019 5141 9915 12553 12200 9684 12545 13690 11486 13416 11725 180878 15161 10163 5012 11789
leaf_count=169339 209527 67708 12592 102891 268298 5187 15002 8547 10276 10237 10081 8240 11143 11955 12019 5141 9915 12553 12200 9684 12545 13690 11486 13416 11725 180878 15161 10163 5012 11789
