tree
version=v4
num_class=1
num_tree_per_iteration=1
label_index=0
max_feature_idx=246
objective=regression_l1
feature_names=Column_0 Column_1 Column_2 Column_3 Column_4 Column_5 Column_6 Column_7 Column_8 Column_9 Column_10 Column_11 Column_12 Column_13 Column_14 Column_15 Column_16 Column_17 Column_18 Column_19 Column_20 Column_21 Column_22 Column_23 Column_24 Column_25 Column_26 Column_27 Column_28 Column_29 Column_30 Column_31 Column_32 Column_33 Column_34 Column_35 Column_36 Column_37 Column_38 Column_39 Column_40 Column_41 Column_42 Column_43 Column_44 Column_45 Column_46 Column_47 Column_48 Column_49 Column_50 Column_51 Column_52 Column_53 Column_54 Column_55 Column_56 Column_57 Column_58 Column_59 Column_60 Column_61 Column_62 Column_63 Column_64 Column_65 Column_66 Column_67 Column_68 Column_69 Column_70 Column_71 Column_72 Column_73 Column_74 Column_75 Column_76 Column_77 Column_78 Column_79 Column_80 Column_81 Column_82 Column_83 Column_84 Column_85 Column_86 Column_87 Column_88 Column_89 Column_90 Column_91 Column_92 Column_93 Column_94 Column_95 Column_96 Column_97 Column_98 Column_99 Column_100 Column_101 Column_102 Column_103 Column_104 Column_105 Column_106 Column_107 Column_108 Column_109 Column_110 Column_111 Column_112 Column_113 Column_114 Column_115 Column_116 Column_117 Column_118 Column_119 Column_120 Column_121 Column_122 Column_123 Column_124 Column_125 Column_126 Column_127 Column_128 Column_129 Column_130 Column_131 Column_132 Column_133 Column_134 Column_135 Column_136 Column_137 Column_138 Column_139 Column_140 Column_141 Column_142 Column_143 Column_144 Column_145 Column_146 Column_147 Column_148 Column_149 Column_150 Column_151 Column_152 Column_153 Column_154 Column_155 Column_156 Column_157 Column_158 Column_159 Column_160 Column_161 Column_162 Column_163 Column_164 Column_165 Column_166 Column_167 Column_168 Column_169 Column_170 Column_171 Column_172 Column_173 Column_174 Column_175 Column_176 Column_177 Column_178 Column_179 Column_180 Column_181 Column_182 Column_183 Column_184 Column_185 Column_186 Column_187 Column_188 Column_189 Column_190 Column_191 Column_192 Column_193 Column_194 Column_195 Column_196 Column_197 Column_198 Column_199 Column_200 Column_201 Column_202 Column_203 Column_204 Column_205 Column_206 Column_207 Column_208 Column_209 Column_210 Column_211 Column_212 Column_213 Column_214 Column_215 Column_216 Column_217 Column_218 Column_219 Column_220 Column_221 Column_222 Column_223 Column_224 Column_225 Column_226 Column_227 Column_228 Column_229 Column_230 Column_231 Column_232 Column_233 Column_234 Column_235 Column_236 Column_237 Column_238 Column_239 Column_240 Column_241 Column_242 Column_243 Column_244 Column_245 Column_246
feature_infos=[0:50] [0:2759.6876344887746] [-1:1] [0:4948.29] [0:6191.7840695547911] [0:5002.0600000000004] [0:5002.0600000000004] [1.1100000000000001:4947.6300000000001] [6.7139299584833397e-06:244.70859082200923] [1.1200000000000001:4953] [8.4642389248798203e-06:258.87333777364455] [0:6191.7840695547911] [0:6937.6533887723017] [0:inf] [0:inf] [6.74025372770619e-05:310.44997108048386] [0.00019800484259915546:205.12331029001066] [0.00013569359259624545:12917.779554904862] [6.769317318061601e-05:12308.167359408395] [0:3403913.7619774537] [0:3499414.3373793382] [2.8046618247452367e-05:6938.0433574571298] [2.8885027538407551e-05:6191.7842310517253] [0.00026644287335079748:12983.518020933441] [0.0019626113233637901:24645.834279522591] [4.5670776861512898e-05:493.55789678475793] [0:12982.996973084644] [0:6884873.586184416] [1.1150000000000002:4950.3150000000005] [0:5002.0600000000004] [-0.039999999999992042:16.160000000000082] [0.9998422650735439:1.0539024390243903] [-2759.6876344887746:946.00874666844425] [-inf:inf] [0:4810.9054293485215] [-1462.818104184465:4810.9054293485215] [-inf:inf] [-inf:inf] [-71.496302601350692:228.66719040531848] [0:5886120] [0:2452880] [0:38339948] [0:36471839] [0:363051.5] [0:2066735.9999999998] [0:38339948] [0:37094689] [0:38343970.657433629] [0:37081281.511850059] [-0.99985024335454886:0.99993212516120278] [-0.99985001985392929:0.99993218608807666] [-0.99999952300392758:1] [-0.99999952309223172:1] [-1:1] [-1:1] [-0.99617956064947455:0.99809705042816366] [-0.49625935162094759:1] [-0.081081081081081072:1] [-1:0.00016260162601622783] [-1:0.021367521367521389] [-1:0.010036978341257238] [-1:0.49625935162094759] [-1:0.49625935162094759] [-1:0.49700598802395218] [-1:0.4966325767024195] [-1:0.081081081081081072] [-1:0.085271317829457349] [-1:0.083172147001934177] [-7.8873683795385971e-05:0.026243914024462661] [-3.9438397223500963e-05:0.012952001406552152] [-0.013296432224294615:3.9435286694554447e-05] [2.0309758196472938:17.508438645624686] [-11.503636363636693:11.967333333333439] [-0.023525513585155734:0.018065281392409496] [0:3479278.0511457585] [0:219818.62800931648] [0:3467301.2573758098] [0:222305.79936035274] [0:3405976.8734434824] [0:240906.46987905173] [0:3401848.2426673295] [0:240995.10116159654] [0.00014023309123726183:6191.6391798884188] [0:734.14165520686606] [0.00014023309123726183:6165.3191295164497] [0:750.07741844970803] [0.00014023309123726183:6014.252407273304] [0:952.51643224973384] [0.00014023309123726183:6005.0675475389253] [0:957.49002562280941] [-1:1] [0:0.75050541783775249] [-1:1] [0:0.73825104969082034] [-1:1] [0:0.73825104969082034] [-1:1] [0:0.73825104969082034] [-156:566.86666666666667] [0:354.93479578240505] [-156:566.16521739130428] [0:354.93479578240505] [-156:566.16521739130428] [0:354.93479578240505] [-156:566.16521739130428] [0:354.93479578240505] [-0.99617956064947455:0.97239075125115326] [0:1.188148138665057] [-0.99617956064947455:0.96153846153846168] [0:1.188148138665057] [-0.99617956064947455:0.96153846153846168] [0:1.188148138665057] [-0.99617956064947455:0.96153846153846168] [0:1.188148138665057] [-2759.6876344887746:778.85317407828256] [0:649.5927577778557] [-2759.6876344887746:778.85317407828256] [0:652.43393674832487] [-2759.6876344887746:778.85317407828256] [0:845.64622081064351] [-2759.6876344887746:778.85317407828256] [0:848.52359829307693] [-1:0.0088924818108326847] [0:0.52247310678671866] [-1:0.0088924818108326847] [0:0.51353910454536367] [-1:0.0088924818108326847] [0:0.51353910454536367] [-1:0.0088924818108326847] [0:0.51353910454536367] [-1148.8922012800649:1025.452519716006] [-7.4899999999997817:6.4499999999998181] [-inf:inf] [-18.889999999999418:20.219999999999345] [-22.440000000000509:23.200000000000728] [-27.760000000000218:14.900000000000091] none [-18.010000000000218:15.739999999999782] [-23.349999999999454:29.239999999999782] [-21.349999999999454:16.309999999999945] none [-1.0810810810810811:0.084452451140954274] [-1.0810810810810811:0] [-1.0775193798449612:-0.94736082027583224] none [-38.454641309758728:55.693759141699623] [-38.454641309758728:55.520433140430228] [-38.454641309758728:23.335813050615137] none [-101.92170920717832:310.44690581615646] [-310.14344464774246:147.53412563490298] [-102.85017870359711:147.48179367085331] none [-17.660000000000764:17.979999999999563] [-22.544999999999163:26.220000000001164] [-24.554999999999382:15.605000000000473] none [-60.460722956467748:36.380744496844514] [-60.460722956467748:36.380744496844514] [-26.111545037020509:35.90472532656328] none [-0.041738562701114867:0.034631752004605776] [-0.05362025593350106:0.032907644561766425] [-0.030035476419516538:0.012288017792605022] none [-13353.686274509804:13353.747937226986] [-8592.9612403100782:8469.8587084148712] [-2007.7622315592905:8467.6586183769268] none [-15.251538461538804:17.389331983805004] [-13.671653543306757:14.482354022988368] [-10.732988235294192:16.559333333333456] none [-inf:inf] [-inf:inf] [-10.554311297871989:30.900000000000002] none [0:4938.7600000000002] [0:4938.7600000000002] [0:4938.7600000000002] [0:4938.7600000000002] [0:4789.29] [0:4789.29] [0:4789.29] [0:4789.29] [0:4914.1899999999996] [0:4914.1899999999996] [0:4914.1899999999996] [0:4914.1899999999996] [-inf:inf] [-1.0411807163006479:1.4703608775771713] [-inf:inf] [-1.2875536480686696:1.4564916779593688] [-inf:inf] [-1.0395369906011716:1.2218902583460047] none none [-1:1] [-2:2] [-1:1] [-2:2] [-1:1] [-2:2] none none [-inf:inf] [-2957.6577280193014:835.76984603079086] [-inf:inf] [-3507.7765262879739:1003.0396439598244] [-inf:inf] [-4672.8029743137313:756.16102745127012] none none [0:inf] [-4.7790250220672537:60.962926951220297] [0:inf] [-3.7853355207120294:83.286735672343966] [0.10240963855421685:inf] [-1.7863265021623744:132.55736979522376] none none [0:4824.0069359582831] [0:4057.3859004160295] [0:2860.1716798842231] [0:2167.6990594087974] [0:4823.0200257652823] [0:4056.5671549041117] [0:2858.1292753235757] [0:2166.1446173430686] [0:1252.4484382141563] [0:1247.1507968635601] [0:696.08136953240592] [0:1252.1937328763506] [0:1246.893202425772] [0:695.94040651185833] [0:1082.371829344205] [0:1190.9351575407857] [0:624.24285628182827] [0:1082.1531639927093] [0:1190.6918624209127] [0:623.79708974395407] [-158.84882594514727:555.63119734429631] [0:380.54816856040617] [0:160.95205369560693] [-158.72812437374694:555.51998885807666] [0:380.27706936815667] [0:160.9187886172474]
tree_sizes=2769 2919 2944 2972 2994 2984 3009 2976 3017 3002 3019 3024 3005 3012 3008 3001 3013 3005 3017 3027 3012 3040 3032 3042 3024 3027 3034 3048 3008 3059 3033 3023 3034 3025 3044 3020 3015 3042 3025 3060 3025 2997 3068 3057 3066 3066 3040 3017 3048 3033 3056 3074 3029 3088 3089 3013 3048 3092 3002 3040 3086 3027 3065 3045 3090 3017 3047 3083 3032 3072 3026 3011 3052 3042 3017 3057 3071 3073 3059 3083 3012 3051 3001 3022 3022 3007 3094 3036 3065 3076 3106 3055 3058 3047 3062 2979 2989 3071 3073 2970 3000 3031 2902 2892 3001 3000 3051 3049 3008 2993 3013 2991 2993 2944 2976 2968 3023 3042 3005 3025 3023 3071 3024 3085 3034 3083 3088 3058 3056 2973 3025 3062 2973 2901 2886 3026 2881 2928 2940 2933 2990 2876 2976 3008 2998 3044 3072 3025 3030 2979 2994 3042 3020 3028 3054 2965 2953 2898 3052 2985 3041 3040 3016 2957 3055 3018 2971 3006 3009 3030 3053 3038 3042 3015 3111 2924 3067 3022 2940 3003 2988 3001 2936 3004 3084 2915 3014 3051 3029 2940 2938 2943 3008 3012 3033 3025 3011 3002 3020 2961 3009 3012 2880 2971 2987 2969 3047 2946 3038 2981 2996 2986 3028 2853 2972 2978 2930 2929 2897 2963 2980 3037 2992 3022 3052 3017 3044 3038 3009 3012 2911 2992 2980 2985 2955 2927 2971 3041 2975 2958 3040 2980 2938 3048 2991 2921 2966 2949 2914 3071 2955 2958 2959 2964 2980 2948 2990 3043 2938 3008 2976 2981 3003 3001 2965 2921 2940 2992 2995 2949 3031 2965 2982 2953 3028 3031 2952 2979 2942 3000 2960 2979 3003 3009 2956 3007 2947 3030 2974 3035 2922 3052 2970 2997 2966 3005 3000 2938 3027 3060 2966 2981 2960 3030 3026 3041 3028 2975 3041 2975 3038 2931 3021 3012 2957 3014 2964 3027 2964 2991 2932 3037 2967 2957 2914 2884 3070 2988 3028 3041 2942 2935 2935 2913 2920 2910 2958 2971 2958 3007 2946 2968 2951 2958 2973 2988 2946 2959 3033 3019 3023 3010 3066 3025 2995 2971 3029 2988 3051 2963 2931 2939 2940 2962 2972 3095 2924 3045 2965 2893 2967 3016 3049 3028 2952 3071 2976 3020 2985 3012 3024 2977 3031 3022 3064 2994 3059 2965 2982 3016 3009 3060 3041 2979 2966 2938 3024 2981 2990 3006 2961 2988 3082 3008 2980 2983 3006 3028 3048 3040 3021 3020 2992 3048 3044 2998 3006 3003 3048 2942 2973 2978 3035 3023 3026 2968 2955 2964 3001 2986 3032 2976 2961 2987 3007 3003 2991 2981 2930 2987 2962 2995 3004 2963 2971 2965 2968 2980 2880 2958 2903 2889 2836 2877 2860 2906 2983 2931 2897 2996 2994 2999 2980 2859 3017 2920 3008 2981 3001 2976 3069 3002 3004 2889 3003 3005 2982 2991 3035 3026 3090 3001 2945 3065 2975 2934 2999 2966 2972 2987 2909 2916 2996 2948 2924 3012 3033 2909 3006 3023 3007 3039 2990 2960 3022 2985 2932 3005 2946 2932 2987 2988 2994 2988 3078 2991 3058 3037 2947 2999 2941 2935 2983 2976 3008 2942 2945 3018 3043 3038 2981 2967 3020 2986 3020 3005 2941 2989 2997 3016 2986 2995 2977 2907 3029 3000 3044 2996 2978 3019 3016 2955 3013 2967 2980 2951 2946 2999 3047 3021 2987 2969 3011 3013 3009 2977 3012 3021 2958 3009 2969 2970 2989 3025 2955 2995 2945 2952 2945 3046 2965 2971 3008 3045 3001 3027 2953 2960 2962 2940 2874 3032 2978 2989 3015 2973 3016 2996 3037 2978 2949 3046 3018 2981 2926 3037 2969 3013 2998 2913 2955 2985 2966 2980 3029 2945 3018 2951 2973 2871 2892 2849 3052 2989 2897 2956 2995 2967 2958 3009 3088 2964 2933 2988 2998 2972 2989 2974 3007 2989 2992 3035 2998 2997 2998 2967 3010 3048 3046 3033 2977 3021 3027 3019 2985 2978 2992 3021 2996 3034

Tree=0
num_leaves=31
num_cat=0
split_feature=3 3 28 37 32 124 3 124 92 190 122 114 1 85 13 137 137 161 15 14 205 174 134 123 4 149 109 34 123 179
split_gain=421756 101.397 216.883 146.203 28.4755 52.9402 16.8085 116.921 94.7722 14.5566 13.4532 22.7668 12.0403 6.4029 4.83073 13.9364 3.07971 2.16774 1.91092 1.90821 1.59989 1.08437 1.06524 1.05356 1.225 0.717596 2.99699 0.539344 1.63333 0.510848
threshold=71.937500000000014 71.295000000000016 71.792500000000004 -3.9041643476665309 -70.090511671687864 -8.7370288358181692e-05 72.535000000000011 -0.0003230228813943836 0.37988535251135674 0.0065808526972753198 -0.00022972515289469337 -7.6742212579404896 84.191404125282418 0.14805502889074132 1.0000000180025095e-35 -0.069999999999999826 0.060000000000030702 -1.5154652543980515e-07 0.010237655835967497 0.43456760168638781 47.997323287382635 -0.15641342829266122 2.4300000000000357 0.00021437336065019085 113.03260283292818 4.7560454088096789 0.04716863414575153 0.047446516554472969 8.0252079957193905e-05 311.82968137254909
decision_type=2 2 10 10 2 10 2 10 10 10 10 2 2 10 8 10 8 8 10 10 10 10 8 10 2 8 10 10 8 10
left_child=1 21 4 9 5 17 7 -2 12 16 11 -6 20 -5 15 -12 -4 -3 -16 -15 25 -1 -8 29 -25 -9 27 28 -27 -20
right_child=6 2 3 13 10 -7 22 8 -10 -11 14 -13 -14 19 18 -17 -18 -19 23 -21 -22 -23 -24 24 -26 26 -28 -29 -30 -31
leaf_value=68.092999267578122 71.843499374389651 71.874499511718753 71.877999114990232 71.893999481201178 71.851499557495117 71.897999572753903 79.279749298095709 71.917999267578125 71.885999298095697 71.894999313354489 71.88199958801269 71.890999603271482 71.903499221801752 71.893999481201178 71.841999816894528 71.825999450683597 71.879999542236334 71.868499755859375 71.85074958801269 71.901999664306643 71.908499526977536 68.220999526977536 79.667499542236328 71.873499298095709 71.858499526977539 71.927999114990229 71.917999267578125 71.921999359130865 71.921999359130865 71.86599960327149
leaf_weight=111082 38 20 68 20 32 28 109766 1162 37 20 22 23 20 36 29 57 24 42 1012 79 20 101659 102694 20 20 21 37 235 49 28
leaf_count=111082 38 20 68 20 32 28 109766 1162 37 20 22 23 20 36 29 57 24 42 1012 79 20 101659 102694 20 20 21 37 235 49 28
internal_value=71.89 71.7908 71.8161 71.9021 71.8001 71.8544 71.9893 71.9791 71.9833 71.8177 71.7962 71.8445 71.9871 71.9722 71.794 71.8178 71.8009 71.8029 71.7923 71.9813 71.9881 71.7906 71.9894 71.7916 71.8075 71.9885 71.9844 71.9877 71.98 71.791
internal_weight=428400 214321 1580 247 1333 90 214079 1619 1581 112 1243 55 1544 135 1188 79 92 62 1109 115 1524 212741 212460 1080 40 1504 342 305 70 1040
internal_count=428400 214321 1580 247 1333 90 214079 1619 1581 112 1243 55 1544 135 1188 79 92 62 1109 115 1524 212741 212460 1080 40 1504 342 305 70 1040
is_linear=0
shrinkage=1


Tree=1
num_leaves=31
num_cat=0
split_feature=3 3 3 3 28 7 9 134 128 102 86 28 142 191 125 21 191 4 28 119 28 134 37 1 186 124 114 124 184 189
split_gain=383969 12968.1 17007.8 1444.71 2154.89 894.954 448.772 197.837 134.885 129.709 125.104 96.567 124.076 95.5536 98.4116 72.6804 90.2655 67.1323 46.0518 67.1367 43.0367 55.665 42.6717 42.5939 37.6577 39.6204 35.3809 49.9723 35.3583 31.746
threshold=79.615000000000023 67.955000000000013 72.535000000000011 71.295000000000016 71.792500000000004 68.175000000000026 79.455000000000013 0.42000000000004439 -0.0003154642370780995 -1.2977920920353128 1.9138680987225287 79.137500000000003 -1.0077679466401832 9.9853761142130981 4.926208227022628e-05 121.50370144833468 2.5693805097733109 0.18945357429366289 68.770000000000024 18.356601773071034 80.06750000000001 -0.61000000000000643 2.6057733359146384 97.561792549978819 160.42353553921572 0.00023806903032527215 -70.217085829810358 -7.977226710031327e-05 194.34117081447965 1.1087870660713481
decision_type=2 2 2 2 10 10 10 8 10 10 10 10 10 8 8 10 8 2 10 10 10 10 8 2 10 10 2 10 10 8
left_child=1 -1 3 5 26 13 11 -8 -6 -10 -11 -4 -13 -3 -15 16 -14 -7 19 28 21 24 -9 -12 25 -2 27 -5 -19 -26
right_child=20 2 6 4 8 17 7 22 9 10 23 12 15 14 -16 -17 -18 18 -20 -21 -22 -23 -24 -25 29 -27 -28 -29 -30 -31
leaf_value=-3.4712998199462888 0.027250289916992188 -0.020350151062011435 -0.36775016784667969 -0.020849609375000001 -0.047849769592285443 -0.019299774169921593 0.024024734497069745 -0.025749588012695314 -0.0056998443603511369 -0.011799697875976279 0.024200439453125 -0.024975051879883383 0.0080251312255853694 0.010699768066406535 -0.020299987792968467 -0.022474899291992756 -0.01697486877441463 0.035699768066406533 0.19669982910156281 -0.0040999221801754976 7.6870244598388666 0.05802513122558537 0.0022502899169921874 -0.0086499977111813564 -0.014749908447265626 -0.011750030517578126 -0.035074958801268964 0.0072001647949221596 -0.003300170898437216 0.0022502899169921874
leaf_weight=204338 324 226 14332 71 52 38 169 122 52 35 1691 281 113 115 150 47 34 1002 6812 21 196378 539 28 36 28 30 1235 27 39 35
leaf_count=204338 324 226 14332 71 52 38 169 122 52 35 1691 281 113 115 150 47 34 1002 6812 21 196378 539 28 36 28 30 1235 27 39 35
internal_value=-0.00324556 -0.0907351 -0.025232 0.0658507 0.00865896 0.0876235 -0.0950945 0.0222571 0.0780279 0.0825799 0.0871737 -0.0976227 -0.0532632 -0.0433809 -0.00264151 0.00824742 0.0428571 0.0957533 0.0963932 0.0770245 0.0991993 0.0780335 -0.0613333 0.090967 0.0505995 0.0632768 -0.0884471 -0.0306122 0.0805956 -0.0206349
internal_weight=428400 231066 26728 11602 3199 8403 15126 319 1866 1814 1762 14807 475 491 265 194 147 7912 7874 1062 197334 956 150 1727 417 354 1333 98 1041 63
internal_count=428400 231066 26728 11602 3199 8403 15126 319 1866 1814 1762 14807 475 491 265 194 147 7912 7874 1062 197334 956 150 1727 417 354 1333 98 1041 63
is_linear=0
shrinkage=0.1


Tree=2
num_leaves=31
num_cat=0
split_feature=3 3 3 3 3 7 28 28 9 158 154 3 28 191 3 13 11 61 124 28 134 28 3 7 28 216 191 14 92 125
split_gain=350494 21355.6 32890.7 1686.37 2036.53 1088.74 242.555 198.259 2947.76 187.278 187.134 139.769 133.78 127.084 120.666 118.854 110.21 111.065 105.768 100.353 106.228 96.5043 495.691 390.831 113.918 153.928 103.875 90.7229 87.5817 86.7062
threshold=87.155000000000015 64.385000000000005 72.535000000000011 71.295000000000016 71.937500000000014 64.605000000000004 86.872500000000016 80.06750000000001 79.455000000000013 0.34347306834934677 0.52000000000006719 78.70750000000001 71.792500000000004 32.0873020906497 79.615000000000023 4.1381537725848254 150.29895307087665 -0.0072324096086512314 -0.0003230228813943836 87.797500000000028 -0.68999999999996919 68.770000000000024 67.955000000000013 68.175000000000026 65.08750000000002 0.69865557832496739 9.9853761142130981 0.8808121352671946 0.37988535251135674 5.6178931211911479e-05
decision_type=2 2 2 2 2 10 10 10 10 8 8 2 10 8 2 8 2 8 10 10 10 10 2 10 10 8 8 10 10 10
left_child=1 -1 3 5 12 -3 7 8 11 16 -10 -4 -5 27 -12 -14 17 -8 -6 20 -2 22 24 26 25 -7 -24 -13 -20 -28
right_child=19 2 6 4 18 21 9 -9 10 -11 14 13 15 -15 -16 -17 -18 -19 28 -21 -22 -23 23 -25 -26 -27 29 -29 -30 -31
leaf_value=-3.2451701278686529 0.013547386169433651 -0.023470031738281705 -0.3449750900268555 -0.030567249298094623 -0.037065036773681469 0.0090296630859370459 -0.030677009582520044 -0.40367734527587945 0.040222343444823144 -0.031677223205566922 -0.020174751281737714 0.0060113067626950574 0.0073799896240231535 -0.025974845886230471 0.022524833679199219 -0.0079348201751713535 -0.018677497863770043 0.0093223800659174572 0.022779846191406251 8.2123222579956057 0.04432299041747996 0.17702984619140666 -0.018315135955811003 0.030130126953125114 0.18703030395507769 0.033030212402343294 0.0086303405761725578 -0.013727165222168481 -0.0030300979614253268 -0.025269958496093637
leaf_weight=195988 563 395 13483 1333 38 376 42 15205 694 253 147 206 126 813 434 121 60 232 1544 179448 575 6813 226 1099 6848 731 147 305 37 118
leaf_count=195988 563 395 13483 1333 38 376 42 15205 694 253 147 206 126 813 434 121 60 232 1544 179448 575 6813 226 1099 6848 731 147 305 37 118
internal_value=-0.00693651 -0.0841502 -0.0270636 0.0736267 0.00709597 0.0863308 -0.0900922 -0.0912871 -0.0835468 -0.0264055 0.0623529 -0.0961099 -0.0736709 -0.0651057 0.0204819 -0.00607287 0.0227545 0.049635 0.0859172 0.0990221 0.06942 0.0902922 0.083803 0.0328302 0.0939912 0.0642276 -0.0413442 -0.0260274 0.0898798 0.00113208
internal_weight=428400 247814 51826 19952 3199 16753 31874 31287 16082 587 1275 14807 1580 1324 581 247 334 274 1619 180586 1138 16358 9545 1590 7955 1107 491 511 1581 265
internal_count=428400 247814 51826 19952 3199 16753 31874 31287 16082 587 1275 14807 1580 1324 581 247 334 274 1619 180586 1138 16358 9545 1590 7955 1107 491 511 1581 265
is_linear=0
shrinkage=0.1


Tree=3
num_leaves=31
num_cat=0
split_feature=3 3 3 3 3 7 28 9 28 28 9 216 3 28 191 170 134 3 28 102 187 13 207 10 113 28 37 134 124 3
split_gain=318208 28158.9 47685.2 1805.28 1856.65 962.707 317.557 2635.31 280.934 1986.35 978.972 363.531 276.718 217.136 204.497 201.603 170.597 124.087 123.275 116.228 115.709 105.436 103.607 103.286 112.172 98.5746 163.342 102.744 97.6748 94.6571
threshold=95.235000000000014 61.105000000000011 72.535000000000011 71.295000000000016 71.937500000000014 61.205000000000005 87.797500000000028 87.075000000000003 78.500000000000014 80.06750000000001 79.455000000000013 0.80919292870657855 86.095000000000013 61.737500000000004 0.0079719170707054209 0.14424653215637187 -0.68999999999996919 87.155000000000015 71.792500000000004 0.74542011771035799 159.83197023809524 4.1381537725848254 1.6712609558160716 2.9048912448278092 0.049043930069853754 96.197500000000005 4.2558476624370405 -0.059999999999980951 -0.0003230228813943836 68.847500000000011
decision_type=2 2 2 2 2 10 10 10 10 10 10 8 2 10 10 8 10 2 10 10 10 8 10 10 10 10 10 10 10 2
left_child=1 -1 3 5 18 -3 7 8 -4 10 11 23 -11 22 -14 -12 17 -9 -5 28 -16 -20 -7 24 -10 26 -2 -28 -6 -15
right_child=25 2 6 4 19 13 -8 16 9 12 15 -13 14 29 20 -17 -18 -19 21 -21 -22 -23 -24 -25 -26 -27 27 -29 -30 -31
leaf_value=-3.067552910614014 0.046315251922607104 -0.034653054046631125 -0.33170240402221796 -0.027510524368284453 -0.033358533096313182 0.014347113800048562 -0.37168477859497107 -0.028284586334228836 -0.0096023368835460587 -0.38508481826782204 0.037200322723387559 -0.034477367401123615 -0.039084909820556395 0.13032678527831934 -0.010309732818603834 0.0050421867370616276 0.034890386199950288 0.012192647552490145 0.0066419906616204116 -0.0024977111816411935 0.017690145111083667 -0.0071413381576547865 -0.0039529426574709701 0.012297840118407066 0.00029756546020394127 8.4140911308288562 -0.020684564971924148 0.022090550994872161 0.020501861572265058 0.16002704925537189
leaf_weight=187740 1221 329 12683 1333 38 890 15642 90 465 13998 692 1128 1065 16931 395 583 703 563 126 37 116 121 97 81 450 162464 84 37 1544 6754
leaf_count=187740 1221 329 12683 1333 38 890 15642 90 465 13998 692 1128 1065 16931 395 583 703 563 126 37 116 121 97 81 450 162464 84 37 1544 6754
internal_value=-0.0105626 -0.0783744 -0.027387 0.076078 0.00534542 0.0851286 -0.0873556 -0.0817945 -0.0876422 -0.0799399 -0.0106796 -0.0522599 -0.0950559 0.0873946 -0.0553299 0.0585882 0.0547198 0.0179173 -0.0717722 0.0806053 -0.00332681 -0.00688259 0.0414387 -0.00823293 -0.0178142 0.0989732 0.0719821 -0.038843 0.0847029 0.0893097
internal_weight=428400 264594 76854 28200 3199 25001 48654 33012 31656 18973 3399 2124 15574 24672 1576 1275 1356 653 1580 1619 511 247 987 996 915 163806 1342 121 1582 23685
internal_count=428400 264594 76854 28200 3199 25001 48654 33012 31656 18973 3399 2124 15574 24672 1576 1275 1356 653 1580 1619 511 247 987 996 915 163806 1342 121 1582 23685
is_linear=0
shrinkage=0.1


Tree=4
num_leaves=31
num_cat=0
split_feature=3 3 3 3 3 7 28 28 3 28 7 216 134 28 28 3 37 138 7 192 3 28 28 12 192 9 3 7 126 14
split_gain=282946 35225.1 60165.8 1845.26 1548.01 586.054 419.854 3277.35 331.87 1983.68 957.268 519.019 324.017 278.055 1781.93 1013.15 274.244 260.279 258.672 246.678 228.846 244.576 185.59 181.704 181.349 178.291 996.132 533.552 164.352 160.235
threshold=104.05250000000002 58.415000000000006 72.535000000000011 71.295000000000016 71.937500000000014 103.34500000000001 96.197500000000005 95.077500000000029 77.94250000000001 80.06750000000001 79.515000000000015 0.80919292870657855 -0.5500000000000077 85.847500000000011 87.797500000000028 87.155000000000015 2.1539815866921628 0.28999999999999565 94.495000000000019 -0.029205057836593811 57.772500000000008 58.322500000000012 103.97250000000001 165.03934928473757 -0.20531303464149001 69.065000000000012 67.955000000000013 68.175000000000026 -9.8029146121763404e-05 1.7026216755605457
decision_type=2 2 2 2 2 10 10 10 2 10 10 8 10 10 10 2 8 8 10 10 2 10 10 2 10 10 2 10 10 10
left_child=1 20 3 25 -5 6 7 8 -4 10 11 -10 16 -11 15 17 -9 23 -16 -20 -1 -22 29 -15 -23 26 -3 -28 -29 -7
right_child=-2 2 5 4 -6 22 -8 12 9 13 -12 -13 -14 14 18 -17 -18 -19 19 -21 21 24 -24 -25 -26 -27 27 28 -30 -31
leaf_value=-2.8818976638031013 8.9939060778045654 0.11929453399658173 -0.31453252983093311 -0.02175959400176879 0.018451675415037984 -0.019093647537231109 -0.36331880622863794 0.022683482589721395 -0.00074186515808207789 -0.35980097633361796 0.024768436813354812 -0.031307432174682508 0.049708857955931766 0.0014216951751706121 -0.37974091011047478 0.027973962631224938 -0.016616444168090539 -0.04027851539611902 -0.034516300735474202 0.00025863212585335303 -0.04269783470153854 0.011102175979613806 0.021905955734253271 -0.018851193008422487 -0.012697529525757291 0.15032412612915069 -0.023265919418334138 -0.0039155947875968876 0.022284318237305457 0.011681193771362076
leaf_weight=177556 147037 25062 11765 1580 1619 1097 14014 618 1520 13442 1103 1694 880 857 14019 1138 190 1205 873 404 1361 190 215 288 169 6385 491 290 1237 101
leaf_count=177556 147037 25062 11765 1580 1619 1097 14014 618 1520 13442 1103 1694 880 857 14019 1138 190 1205 873 404 1361 190 215 288 169 6385 491 290 1237 101
internal_value=-0.0134085 -0.0721584 -0.0252696 0.0772802 0.00472023 -0.08274 -0.0841462 -0.0798584 -0.0846444 -0.0799414 -0.0162845 -0.0438706 0.057109 -0.0884689 -0.0806112 -0.0161124 0.0113861 -0.053617 -0.095319 -0.0522318 -0.0988587 -0.0625581 -0.0190375 -0.019476 0.0108635 0.0842163 0.0806721 0.0130823 0.0422397 -0.0343907
internal_weight=428400 281363 102087 36664 3199 65423 64010 49996 48308 36543 4317 3214 1688 32226 18784 3488 808 2350 15296 1277 179276 1720 1413 1145 359 33465 27080 2018 1527 1198
internal_count=428400 281363 102087 36664 3199 65423 64010 49996 48308 36543 4317 3214 1688 32226 18784 3488 808 2350 15296 1277 179276 1720 1413 1145 359 33465 27080 2018 1527 1198
is_linear=0
shrinkage=0.1


Tree=5
num_leaves=31
num_cat=0
split_feature=3 3 3 28 3 28 28 3 28 174 28 28 9 28 7 134 28 216 3 28 170 70 37 7 3 7 7 3 215 9
split_gain=261493 35127.9 63790.1 1338.01 1434.58 1410.06 511.099 3207.35 641.13 601.953 442.582 3091.66 407.031 1946.69 866.709 547.793 377.59 425.234 323.363 1399.72 311.678 300.181 268.428 266.617 912.573 456.474 298.11 1955.52 269.664 225.194
threshold=112.68500000000002 55.155000000000008 72.535000000000011 55.620000000000005 71.295000000000016 71.792500000000004 58.667500000000011 57.772500000000008 58.322500000000012 -0.17983610944261549 96.197500000000005 95.077500000000029 77.77500000000002 80.06750000000001 79.515000000000015 0.37500000000000006 94.407500000000013 0.96334887406796899 61.105000000000011 61.737500000000004 0.27700879360843217 -4.5033888023544327e-05 2.1539815866921628 69.065000000000012 67.955000000000013 68.175000000000026 65.27500000000002 64.385000000000005 1.1686855211521625 112.98500000000001
decision_type=2 2 2 10 2 10 10 2 10 10 10 10 10 10 10 8 10 8 2 10 8 10 8 10 2 10 10 2 10 10
left_child=1 -1 3 21 6 -6 7 -5 -9 -10 11 12 -4 14 15 -14 -15 -18 -8 -20 -13 -3 -22 24 26 -26 27 -21 -29 -2
right_child=29 2 10 4 5 -7 18 8 9 -11 -12 20 13 16 -16 -17 17 -19 19 23 22 -23 -24 -25 25 -27 -28 28 -30 -31
leaf_value=-2.6737078211288456 0.0052906165084834816 -0.01770787453460727 -0.29607900218963723 0.12779230857086149 -0.02258351253127984 0.013606629943846827 0.1391728751678464 -0.038428051231385041 0.0080825159568782123 -0.0076271660308840699 -0.35270956659698527 0.045238078971861745 -0.0006676786422744386 -0.29582100077056878 0.022291593132018762 -0.032176780509948343 0.0012329825363153191 -0.035542148689270907 -0.0089022190551759205 0.14238485980224597 0.019915408988951812 0.007492206336974761 -0.014954799751281202 0.13829235438537638 -0.020939327476500583 0.0158560954589845 0.15516495394897448 0.0055648105163584212 -0.011735146759033199 9.1875162634811414
leaf_weight=170697 329 1049 11391 5489 1333 1866 7051 1362 870 901 28532 876 1772 30462 1103 1816 865 899 1316 6932 622 321 190 6231 491 1681 6273 1075 1002 133603
leaf_count=170697 329 1049 11391 5489 1333 1866 7051 1362 870 901 28532 876 1772 30462 1103 1816 865 899 1316 6932 622 321 190 6231 491 1681 6273 1075 1002 133603
internal_value=-0.017105 -0.069795 -0.0292338 0.0653471 0.068386 0.00390747 0.0734572 0.0518441 -0.0288861 0.0107849 -0.0837256 -0.0780542 -0.0827027 -0.0776038 -0.0174163 -0.0412486 -0.086365 -0.0413832 0.0792712 0.073937 0.0549763 -0.0319708 0.0103448 0.0795145 0.0731752 0.012523 0.0817956 0.070141 -0.0149735 0.0987412
internal_weight=428400 294468 123771 45243 43873 3199 40674 8622 3133 1771 78528 49996 48308 36917 4691 3588 32226 1764 32052 25001 1688 1370 812 23685 17454 2172 15282 9009 2077 133932
internal_count=428400 294468 123771 45243 43873 3199 40674 8622 3133 1771 78528 49996 48308 36917 4691 3588 32226 1764 32052 25001 1688 1370 812 23685 17454 2172 15282 9009 2077 133932
is_linear=0
shrinkage=0.1


Tree=6
num_leaves=31
num_cat=0
split_feature=3 3 3 3 7 28 3 28 28 28 7 28 28 3 191 134 9 28 28 3 9 216 7 3 28 174 9 3 9 215
split_gain=238800 41817.1 64949.4 1410.06 1237.55 893.179 643.398 2919.96 697.665 1493.36 826.954 4554.39 869.362 764.254 665.147 644.437 545.92 2440.91 869.269 499.51 1429.96 483.337 480.043 2810.01 757.696 533.454 436.292 392.153 1560.17 354.322
threshold=122.325 52.612500000000004 72.535000000000011 71.295000000000016 72.035000000000011 52.967500000000008 104.05250000000002 103.20750000000002 77.557500000000019 80.06750000000001 85.235000000000014 87.797500000000028 86.872500000000016 79.615000000000023 -0.19610477178026189 0.42000000000004439 93.895000000000024 96.197500000000005 95.077500000000029 55.155000000000008 55.745000000000012 0.0016367562070442045 58.865000000000002 57.772500000000008 58.322500000000012 -0.15641342829266122 102.67500000000003 61.105000000000011 61.945000000000007 1.4337227640026697
decision_type=2 2 2 2 10 10 2 10 10 10 10 10 10 2 10 8 10 10 10 2 10 10 10 2 10 10 10 2 10 10
left_child=1 -1 3 5 -5 -3 7 8 -4 13 -11 12 14 15 -12 -10 -13 18 21 -7 29 -18 23 -22 -25 -26 -19 -24 -29 -21
right_child=-2 2 6 4 -6 19 -8 -9 9 10 11 16 -14 -15 -16 -17 17 26 -20 20 22 -23 27 24 25 -27 -28 28 -30 -31
leaf_value=-2.5003370924217232 8.901538379808807 -0.0023371381980901162 -0.27824569913864111 -0.011523201286698282 0.017246272125242969 0.12026294038467356 -0.43921305451736431 0.026861393114471357 4.2788867949639099e-05 -0.30901401666030781 -0.023013955625151541 -0.34418468850479234 0.037186142946625013 0.025061976055144444 0.011666395632171601 -0.029581569499970331 -0.032509998029327393 -0.33371578584060729 0.020594132143401112 0.0030627755897519649 0.120712807633209 -0.0018901936470030025 0.13445568378143308 -0.034585246108246537 0.0093645320194241325 -0.0046653041107177278 -0.01849071870193484 -0.0058536414367679869 0.10384809692077682 -0.015737006209564443
leaf_weight=163949 125665 1308 10941 1909 1290 5440 21372 1863 2107 12224 1696 12292 1725 956 1285 2078 1459 12342 1688 994 5225 1545 6525 1362 1143 1154 1222 1796 23205 640
leaf_count=163949 125665 1308 10941 1909 1290 5440 21372 1863 2107 12224 1696 12292 1725 956 1285 2078 1459 12342 1688 994 5225 1545 6525 1362 1143 1154 1222 1796 23205 640
internal_value=-0.0168338 -0.0649363 -0.0245414 0.0638476 -0.000468897 0.0680644 -0.0774872 -0.0725662 -0.0761831 -0.0714058 -0.0769493 -0.069178 0.0223969 -0.0202101 -0.0102986 -0.038638 -0.0832853 -0.072316 -0.0101449 0.07031 0.0666207 -0.0424101 0.0703291 0.0497974 -0.0174091 0.0176317 -0.0938219 0.076115 0.0704172 -0.0250918
internal_weight=428400 302735 138786 51991 3199 48792 86795 65423 63560 52619 47478 35254 4706 5141 2981 4185 30548 18256 4692 47484 42044 3004 40410 8884 3659 2297 13564 31526 25001 1634
internal_count=428400 302735 138786 51991 3199 48792 86795 65423 63560 52619 47478 35254 4706 5141 2981 4185 30548 18256 4692 47484 42044 3004 40410 8884 3659 2297 13564 31526 25001 1634
is_linear=0
shrinkage=0.1


Tree=7
num_leaves=31
num_cat=0
split_feature=3 3 3 28 3 28 3 28 191 3 3 28 3 28 3 7 3 7 3 3 7 7 3 3 7 28 28 3 28 28
split_gain=218712 46755.8 68236.9 1717.09 1359.76 1226.15 797.116 760.695 687.314 628.578 910.193 671.509 2185.39 611.962 763.71 954.655 890.321 2490.89 947.594 644.181 588.47 572.415 549.218 546.85 1973.11 754.845 1501.27 761.854 1176.35 923.94
threshold=131.26500000000001 49.975000000000001 72.535000000000011 50.482500000000009 71.295000000000016 71.792500000000004 52.612500000000004 52.967500000000008 inf 69.472500000000011 67.955000000000013 65.83750000000002 64.385000000000005 62.372500000000009 55.155000000000008 55.755000000000003 57.772500000000008 58.435000000000009 61.105000000000011 58.82500000000001 129.35500000000005 61.975000000000001 65.155000000000015 104.05250000000002 102.62500000000001 96.197500000000005 95.077500000000029 77.045000000000016 80.06750000000001 85.082500000000024
decision_type=2 2 2 10 2 10 2 10 8 2 2 10 2 10 2 10 2 10 2 2 10 10 2 2 10 10 10 2 10 10
left_child=1 -1 3 -3 6 -6 -5 -8 20 10 11 12 13 14 -9 -16 -17 -18 19 -19 23 -20 -14 24 25 26 27 -4 -29 -30
right_child=-2 2 8 4 5 -7 7 9 -10 -11 -12 -13 22 -15 15 16 17 18 21 -21 -22 -23 -24 -25 -26 -27 -28 28 29 -31
leaf_value=-2.3631034091194922 8.5573852132146442 -0.020303459473495877 -0.24864637946891863 0.15369670837318383 -0.019172841149482169 0.01155525708698093 -0.0021034243782807496 0.10823664634620656 -0.24931433207344045 0.13127782555114892 0.0058853405276494191 0.15726352679168798 -0.019045997744444779 0.1527617930117792 -0.0032432578285984449 0.11064157264625507 -0.018126614685898802 0.002922244710082822 -0.0043413535412604176 0.11650991703903202 0.052384908038862935 0.020761823529357317 0.0082637404147348544 -0.44051712138008131 0.019597830707320442 -0.26734402415107755 0.04090476630760094 0.0027283148212433163 -0.2683376821329489 -0.095766280689468894
leaf_weight=155402 119073 1316 4255 7231 1333 1866 1308 5440 51058 5063 3340 5208 1666 5204 1808 5051 1908 1543 1961 6733 533 1083 1476 12322 1520 6243 780 2638 4761 9277
leaf_count=155402 119073 1316 4255 7231 1333 1866 1308 5440 51058 5063 3340 5208 1666 5204 1808 5051 1908 1543 1961 6733 533 1083 1476 12322 1520 6243 780 2638 4761 9277
internal_value=-0.0161223 -0.0604535 -0.021389 0.0613069 0.0638175 0.000406377 0.0674384 0.0628464 -0.0749965 0.0649187 0.0609439 0.0652261 0.0600862 0.068208 0.0618365 0.0528352 0.0596914 0.0460538 0.0638693 0.0814161 -0.0655744 0.0161629 -0.0193507 -0.0669059 -0.0595101 -0.0655434 -0.0567316 -0.0618078 -0.0521708 -0.0636843
internal_weight=428400 309327 153925 60538 59222 3199 56023 48792 93387 47484 42421 39081 33873 30731 25527 20087 18279 13228 11320 8276 42329 3044 3142 41796 29474 27954 21711 20931 16676 14038
internal_count=428400 309327 153925 60538 59222 3199 56023 48792 93387 47484 42421 39081 33873 30731 25527 20087 18279 13228 11320 8276 42329 3044 3142 41796 29474 27954 21711 20931 16676 14038
is_linear=0
shrinkage=0.1


Tree=8
num_leaves=31
num_cat=0
split_feature=3 3 3 7 28 7 28 3 28 3 3 28 6 7 3 28 3 3 3 28 3 28 3 9 9 28 3 28 28 28
split_gain=192750 57016.2 66980.7 1519.96 1237.5 4223.22 1747.17 5923.83 1620.63 3346.88 1874.58 978.48 819.538 800.549 3281.56 1085.19 633.597 567.347 577.677 568.724 1053.32 603.446 1501.05 554.734 2130.45 1166.06 481.956 1899.23 458.834 432.194
threshold=138.58500000000004 48.082500000000003 71.295000000000016 139.22500000000005 96.197500000000005 93.865000000000023 87.797500000000028 85.305000000000021 80.06750000000001 77.94250000000001 72.535000000000011 71.792500000000004 52.455000000000005 101.74500000000002 104.05250000000002 103.20750000000002 77.045000000000016 69.472500000000011 67.955000000000013 65.83750000000002 64.385000000000005 59.157500000000006 57.772500000000008 110.72500000000001 112.98500000000001 111.49250000000002 49.975000000000001 50.482500000000009 95.077500000000029 86.872500000000016
decision_type=2 2 2 10 10 10 10 2 10 2 2 10 2 10 2 10 2 2 2 10 2 10 2 10 10 10 2 10 10 10
left_child=1 -1 12 -2 5 6 7 8 9 10 11 -4 26 -6 15 -15 -12 18 19 20 21 22 -14 -16 25 -25 -3 -28 -7 -9
right_child=3 2 4 -5 13 28 -8 29 -10 -11 16 -13 17 14 23 -17 -18 -19 -20 -21 -22 -23 -24 24 -26 -27 27 -29 -30 -31
leaf_value=-2.2777930910957269 -0.055127600099007169 0.12370703860398038 -0.017255557034533808 8.1978722778306814 -0.32118776794568621 0.0038755911157437595 -0.29618950003263084 0.013666849829277794 -0.25118151748029194 0.010308295315573446 -0.25228210773296383 0.010399731378282696 0.071012892447669881 -0.017610048982064086 -0.46346522613660429 0.032215318144400838 -0.0094900927459491413 0.11615037868939311 -0.0045033415353699984 0.13298710239621131 -0.013362842672148646 0.094358971111496007 -0.0066901434877323146 -0.045360315858283685 -0.41535312500135152 0.035534560240348866 -0.01807303265456426 0.075813116751869108 0.034304890515692681 0.048199230878626056
leaf_weight=148551 439 6720 1333 113526 10719 2941 12355 2885 12320 4317 10085 1866 5775 2845 10132 1863 1680 2100 1363 2106 1303 5482 1980 1236 19650 2054 1298 36063 1688 1725
leaf_count=148551 439 6720 1333 113526 10719 2941 12355 2885 12320 4317 10085 1866 5775 2845 10132 1863 1680 2100 1363 2106 1303 5482 1980 1236 19650 2054 1298 36063 1688 1725
internal_value=-0.013402 -0.0537844 -0.0134877 0.0980152 -0.0639723 -0.0534392 -0.0621381 -0.0510591 -0.0665074 -0.0484052 -0.0707832 -0.00290716 0.0664932 -0.0755253 -0.0686818 0.00943076 -0.0892393 0.0497638 0.044028 0.0491529 0.0421183 0.0505628 0.0326112 -0.0798016 -0.0711944 0.00328267 0.0741249 0.0696903 0.0378267 0.0548373
internal_weight=428400 314435 165884 113965 101694 53195 48566 36211 31601 19281 14964 3199 64190 48499 37780 4708 11765 20109 18009 16646 14540 13237 7755 33072 22940 3290 44081 37361 4629 4610
internal_count=428400 314435 165884 113965 101694 53195 48566 36211 31601 19281 14964 3199 64190 48499 37780 4708 11765 20109 18009 16646 14540 13237 7755 33072 22940 3290 44081 37361 4629 4610
is_linear=0
shrinkage=0.1


Tree=9
num_leaves=31
num_cat=0
split_feature=3 3 3 3 28 28 28 28 28 9 3 9 3 9 9 7 3 7 9 24 3 28 3 28 3 28 3 7 3 7
split_gain=176617 58883.2 68721.5 2145.61 1814.8 4291.04 1731.4 5732.14 1454.92 3029.54 2137.46 1389.42 1123.51 1620.01 1114.1 1004.04 918.017 1735.09 833.053 759.173 826.982 1042.53 2456.38 1012.67 1215.94 1059.62 2307.33 859.747 713.761 1536.08
threshold=148.41500000000002 45.82500000000001 71.295000000000016 49.975000000000001 96.197500000000005 93.657500000000013 87.797500000000028 85.082500000000024 80.06750000000001 76.865000000000023 72.535000000000011 50.615000000000002 52.612500000000004 53.135000000000012 147.28500000000003 69.705000000000013 55.155000000000008 55.755000000000003 72.035000000000011 1724.7327754719206 67.955000000000013 65.83750000000002 64.385000000000005 62.372500000000009 61.105000000000011 59.157500000000006 57.772500000000008 58.435000000000009 131.26500000000001 129.35500000000005
decision_type=2 2 2 2 10 10 10 10 10 10 2 10 2 10 10 10 2 10 10 10 2 10 2 10 2 10 2 10 2 10
left_child=1 -1 3 -3 5 6 7 8 9 10 18 -5 -13 -14 28 16 -15 -18 -4 20 21 22 23 24 25 26 -19 -28 29 -6
right_child=-2 2 4 11 14 -7 -8 -9 -10 -11 -12 12 13 15 -16 -17 17 19 -20 -21 -22 -23 -24 -25 -26 -27 27 -29 -30 -31
leaf_value=-2.3480137362097873 8.844083890379645 0.10098624090202933 -0.010530459094752587 -0.012465718707955632 -0.28101376272704498 0.01286512437328753 -0.2705706415821027 0.021238410473943505 -0.22938548751342155 0.0030300119465991315 -0.23726175990234 0.1344257070923682 -0.0094743936156390877 0.098231728782737102 0.011972226561285028 0.11736900140141274 -0.01013532978049554 0.092476126136863013 0.012325932443144439 -0.0044453810347683037 0.0045353408204533707 0.13295564881428562 -0.0094533843888413571 0.12890408841236792 -0.0032426677493702983 0.12792310451792446 -0.021340357766068508 0.0039790997428767131 -0.46927777343871502 0.056077605894782327
leaf_weight=140092 105883 15310 1749 1570 42093 5131 11853 5192 11738 6394 9688 6977 1616 5132 1106 4585 1808 5051 1450 722 3818 5208 3142 5204 3044 5381 1857 2224 12084 1298
leaf_count=140092 105883 15310 1749 1570 42093 5131 11853 5192 11738 6394 9688 6977 1616 5132 1106 4585 1808 5051 1450 722 3818 5208 3142 5204 3044 5381 1857 2224 12084 1298
internal_value=-0.0130434 -0.0498333 -0.0123892 0.063058 -0.0623196 -0.0490591 -0.0583389 -0.04748 -0.0637577 -0.0468596 -0.0747808 0.0541778 0.0567896 0.0514224 -0.0747866 0.0547948 0.0500082 0.0445741 -0.00390747 0.0494208 0.0515188 0.0569091 0.0487009 0.0601423 0.0486587 0.0607111 0.0399693 -0.015952 -0.0767679 -0.070782
internal_weight=428400 322517 182425 72649 109776 53195 48064 36211 31019 19281 12887 57339 55769 48792 56581 47176 42591 37459 3199 35651 34929 31111 25903 22761 17557 14513 9132 4081 55475 43391
internal_count=428400 322517 182425 72649 109776 53195 48064 36211 31019 19281 12887 57339 55769 48792 56581 47176 42591 37459 3199 35651 34929 31111 25903 22761 17557 14513 9132 4081 55475 43391
is_linear=0
shrinkage=0.1


Tree=10
num_leaves=31
num_cat=0
split_feature=3 3 3 3 3 28 28 7 28 3 28 28 3 7 7 3 7 28 3 7 3 3 3 7 3 28 3 28 7 28
split_gain=155474 64703.3 70739.4 2460.53 2075.76 5407.01 1826.02 4842.21 1868.69 5819.48 1861.11 2889.26 2145.73 1704.07 1369.87 1044.31 1474.01 1090.1 997.921 1463.43 957.768 1182.67 1947.72 1201.18 858.609 2508.69 1470.93 842.872 758.925 731.644
threshold=157.66500000000002 43.195000000000007 71.295000000000016 49.975000000000001 104.05250000000002 102.45250000000003 96.197500000000005 93.185000000000016 87.797500000000028 84.545000000000016 80.06750000000001 76.592500000000015 72.535000000000011 156.25500000000002 50.645000000000003 52.612500000000004 53.165000000000006 69.452500000000015 55.155000000000008 55.755000000000003 67.955000000000013 65.905000000000015 64.385000000000005 62.545000000000009 57.772500000000008 58.667500000000011 61.105000000000011 43.507500000000014 101.74500000000002 71.792500000000004
decision_type=2 2 2 2 2 10 10 10 10 2 10 10 2 10 10 2 10 10 2 10 2 2 2 10 2 10 2 8 10 10
left_child=1 -1 3 27 5 6 7 8 9 10 11 12 29 -6 -5 -16 -17 18 -18 -20 21 22 23 24 -21 -26 -27 -3 -8 -4
right_child=-2 2 4 14 13 -7 28 -9 -10 -11 -12 -13 -14 -15 15 16 17 -19 19 20 -22 -23 -24 -25 25 26 -28 -29 -30 -31
leaf_value=-2.3222123778475976 9.4609512886951972 0.0012874924526954602 -0.014476955421605453 -0.010807651914521444 -0.32232370520128772 0.04251789209485253 -0.26096761487841319 0.013486392058528907 -0.26493413239291785 0.018223067653097048 -0.23244715238512584 0.001974495106935592 -0.22353543132421549 0.059175775999884196 0.12550303765876622 -0.0085269542540750368 0.093088369289473158 0.095798318609999461 -0.009121796802445915 0.083228513523176423 -0.0022841936400205044 0.12414299512184074 -0.0075080993557179454 0.12201381690023255 -0.0070007208609787598 0.078785573288715938 0.00028413476064912405 0.10158751839263687 -0.0063255393626661773 0.009093674892189086
leaf_weight=131460 97616 1147 1333 1822 48457 3474 10719 6365 10619 6348 10582 6796 9286 964 6725 1795 4953 5159 1808 5051 3244 5051 3299 4626 3133 7051 3622 22795 1234 1866
leaf_count=131460 97616 1147 1333 1822 48457 3474 10719 6365 10619 6348 10582 6796 9286 964 6725 1795 4953 5159 1808 5051 3244 5051 3299 4626 3133 7051 3622 22795 1234 1866
internal_value=-0.0119001 -0.0446261 -0.00870843 0.0630836 -0.0581424 -0.0468888 -0.0533708 -0.0454347 -0.0565578 -0.0457402 -0.0642233 -0.045729 -0.0742891 -0.0737682 0.0518408 0.0546409 0.0495491 0.0529459 0.0475979 0.0419385 0.0464606 0.0517356 0.0433649 0.0534727 0.0422708 0.029364 0.0524595 0.0900092 -0.088689 -0.00365739
internal_weight=428400 330784 199324 81281 118043 68622 65148 53195 46830 36211 29863 19281 12485 49421 57339 55517 48792 46997 41838 36885 35077 31833 26782 23483 18857 13806 10673 23942 11953 3199
internal_count=428400 330784 199324 81281 118043 68622 65148 53195 46830 36211 29863 19281 12485 49421 57339 55517 48792 46997 41838 36885 35077 31833 26782 23483 18857 13806 10673 23942 11953 3199
is_linear=0
shrinkage=0.1


Tree=11
num_leaves=31
num_cat=0
split_feature=3 3 3 3 9 7 3 28 28 28 28 9 28 3 3 28 3 7 3 7 28 3 28 3 3 3 7 3 9 3
split_gain=140960 66545.6 69280.9 3279.72 2261.06 4905.55 2186.61 4786.41 1585.77 4738.14 1945.84 5275.19 1683.94 2615.77 1406.86 1298.74 1337.62 1383.51 1166.26 1056.66 1049.01 942.814 1609.2 1168.65 2984.37 1114.44 1282.92 1094.4 1935.09 1201.82
threshold=166.14500000000001 41.157500000000006 71.295000000000016 49.975000000000001 112.98500000000001 110.65500000000002 104.05250000000002 102.45250000000003 96.197500000000005 93.08750000000002 87.797500000000028 84.475000000000009 80.06750000000001 77.94250000000001 72.535000000000011 50.992500000000014 52.612500000000004 69.705000000000013 76.222500000000011 53.165000000000006 101.57750000000003 55.155000000000008 56.297500000000007 57.772500000000008 59.225000000000001 61.105000000000011 61.975000000000001 64.385000000000005 65.265000000000015 67.955000000000013
decision_type=2 2 2 2 10 10 2 10 10 10 10 10 10 2 2 10 2 10 2 10 10 2 10 2 2 2 10 2 10 2
left_child=1 -1 3 -3 5 6 7 8 9 10 11 12 13 14 -4 -5 -17 19 -16 -18 -10 -21 -23 -24 -25 -26 -27 -28 -29 -30
right_child=-2 2 4 15 -6 -7 -8 -9 20 -11 -12 -13 -14 -15 18 16 17 -19 -20 21 -22 22 23 24 25 26 27 28 29 -31
leaf_value=-2.2320910927605917 9.3715805555776317 0.093053894345731802 -0.00081608932554502191 -0.0047269630170148963 -0.30943213973487221 0.064404277583854252 -0.35568062628577479 0.03826610288536756 -0.24987100597846279 0.012717319953964079 -0.24402059143069438 0.016553272982285705 -0.21120210145325446 0.0087770150786639078 -0.22440713843593585 0.12643286313483273 -0.0076742588286677462 0.09605226940027195 -0.0091758922758444338 0.083779532360525627 -0.0048713111542440408 -0.0074245905719081406 0.094225635162802496 -0.0057189670271490913 0.11090678707800805 -0.012047429846091973 0.087812313139896514 -0.016509020259969986 0.075728634574500131 0.0027260810019967608
leaf_weight=124678 92578 30724 3199 3057 41037 3251 10171 3474 10226 6796 10188 6543 10387 4317 8433 5490 1795 4585 3332 4953 1727 3039 3820 5142 5042 1961 6287 1939 6411 3818
leaf_count=124678 92578 30724 3199 3057 41037 3251 10171 3474 10226 6796 10188 6543 10387 4317 8433 5490 1795 4585 3332 4953 1727 3039 3820 5142 5042 1961 6287 1939 6411 3818
internal_value=-0.0104561 -0.0405739 -0.00636722 0.0613527 -0.05482 -0.0452343 -0.0502012 -0.0437877 -0.0498864 -0.0424908 -0.0539128 -0.0430505 -0.0609748 -0.0434884 -0.0632719 0.0472261 0.0507977 0.0455321 -0.0792605 0.040109 -0.0827993 0.0432896 0.0378681 0.0440267 0.0375163 0.0515516 0.041154 0.0493254 0.0318212 0.0491837
internal_weight=428400 335822 211144 88063 123081 82044 78793 68622 65148 53195 46399 36211 29668 19281 14964 57339 54282 48792 11765 44207 11953 42412 37459 34420 30600 25458 20416 18455 12168 10229
internal_count=428400 335822 211144 88063 123081 82044 78793 68622 65148 53195 46399 36211 29668 19281 14964 57339 54282 48792 11765 44207 11953 42412 37459 34420 30600 25458 20416 18455 12168 10229
is_linear=0
shrinkage=0.1


Tree=12
num_leaves=31
num_cat=0
split_feature=3 3 3 3 7 9 28 3 28 28 3 28 28 28 28 3 7 7 9 9 174 215 9 3 28 3 28 3 7 3
split_gain=127307 66615.9 64515.6 2349.24 2803.58 2259.26 4515.24 1645.61 4262.65 1341.79 4430.48 2412.17 5013.21 1672.34 2309 1791.4 1645.23 1248.73 1181 1175.34 1171.74 886.674 750.414 1190.7 775.312 1041.16 1138.38 867.624 1632.31 749.689
threshold=176.07500000000002 38.482500000000009 71.295000000000016 49.975000000000001 38.835000000000008 112.98500000000001 110.3875 104.05250000000002 102.45250000000003 96.197500000000005 92.415000000000006 87.797500000000028 84.307500000000019 80.06750000000001 76.592500000000015 72.535000000000011 100.97500000000001 69.705000000000013 175.15500000000003 110.03500000000001 -0.15641342829266122 4.6797550289955598 51.07500000000001 52.612500000000004 53.687500000000007 55.155000000000008 56.297500000000007 57.772500000000008 59.285000000000004 157.66500000000002
decision_type=2 2 2 2 8 10 10 2 10 10 2 10 10 10 10 2 10 10 10 10 10 8 10 2 10 2 10 2 10 2
left_child=1 -1 3 4 -3 6 7 8 9 10 11 12 13 14 15 -4 -11 20 29 -9 -5 -21 -22 -24 -25 -26 -27 -28 -29 -7
right_child=-2 2 5 17 -6 18 -8 19 -10 16 -12 -13 -14 -15 -16 -17 -18 -19 -20 21 22 -23 23 24 25 26 27 28 -30 -31
leaf_value=-2.1719820353644153 9.7274217675979955 -0.015782007898594942 -0.00073448039299108816 0.035672981998378366 0.088423292432521103 -0.26203650266568274 0.054963971895782039 -0.36921722979489291 0.034439492596830233 -0.25188356968725717 0.010581209400747582 -0.24461853228762465 0.01469810990143401 -0.19408198286066353 0.0017996126430631421 -0.17874117434820108 -0.0058836612399915111 0.086447042460244469 0.040422255879244064 0.016782831240263363 -0.0095745240290419538 -0.027112533139619189 0.11030929499151583 -0.010598481910682979 0.088401685935996718 -0.012822039351631532 0.072483068137000825 -0.0074057954120107187 0.025876638296681877 -0.43670108396450757
leaf_weight=117935 84446 1395 3199 26963 36072 35999 3684 8444 3474 8998 8052 8932 6889 10041 6796 9286 2955 4585 906 685 1620 609 2486 1532 1813 1447 1899 2653 12341 12264
leaf_count=117935 84446 1395 3199 26963 36072 35999 3684 8444 3474 8998 8052 8932 6889 10041 6796 9286 2955 4585 906 685 1620 609 2486 1532 1813 1447 1899 2653 12341 12264
internal_value=-0.0111592 -0.0381702 -0.00638044 0.0564732 0.0759468 -0.0517944 -0.0416362 -0.0467228 -0.0412637 -0.0470191 -0.0402162 -0.0524046 -0.040924 -0.0589591 -0.041725 -0.0672567 -0.0772944 0.0437486 -0.0687445 -0.085192 0.039398 0.00355487 0.0241596 0.0285756 0.0210606 0.026274 0.0191276 0.0264192 0.018354 -0.070868
internal_weight=428400 343954 226019 94806 37467 131213 82044 78360 68622 65148 53195 45143 36211 29322 19281 12485 11953 57339 49169 9738 52754 1294 25791 24171 21685 20153 18340 16893 14994 48263
internal_count=428400 343954 226019 94806 37467 131213 82044 78360 68622 65148 53195 45143 36211 29322 19281 12485 11953 57339 49169 9738 52754 1294 25791 24171 21685 20153 18340 16893 14994 48263
is_linear=0
shrinkage=0.1


Tree=13
num_leaves=31
num_cat=0
split_feature=3 3 3 3 9 3 7 3 28 28 7 28 7 28 3 28 28 3 3 215 28 3 7 3 28 3 7 3 9 3
split_gain=116461 65008.5 60553.2 2555.8 1937.54 3842.41 1855.14 1412.16 3829.05 1451.4 1342.41 1336.14 3907.85 2588.64 4786.41 2377.48 2505.2 1989.18 1631.66 1044.67 934.837 1602.47 1050.6 1020.55 1211.88 1412.21 2557.98 1265.51 1495.45 1487.7
threshold=186.87500000000003 36.592500000000008 71.295000000000016 49.975000000000001 112.98500000000001 110.46500000000002 185.33000000000001 104.05250000000002 102.45250000000003 109.46250000000002 69.705000000000013 96.197500000000005 92.375000000000014 87.797500000000028 83.875000000000014 80.06750000000001 76.017500000000027 72.535000000000011 100.93250000000002 4.6797550289955598 50.992500000000014 52.612500000000004 53.165000000000006 55.155000000000008 56.297500000000007 57.772500000000008 59.285000000000004 61.105000000000011 62.495000000000012 64.385000000000005
decision_type=2 2 2 2 10 2 10 2 10 10 10 10 10 10 2 10 10 2 2 8 10 2 10 2 10 2 10 2 10 2
left_child=1 -1 3 -3 5 7 -6 8 11 -9 20 12 13 14 15 16 17 -4 -13 -11 -5 -22 -23 -24 -25 -26 -27 -28 -29 -30
right_child=-2 2 4 10 6 -7 -8 9 -10 19 -12 18 -14 -15 -16 -17 -18 -19 -20 -21 21 22 23 24 25 26 27 28 29 -31
leaf_value=-2.0557838547161573 10.919682032244445 0.076661098534727759 -0.0006610323536918373 -0.0052331819081025801 -0.28470718253827132 0.051286586638575216 0.11356829323077165 -0.34119026084372311 0.030995543337147071 0.015984726949244531 0.077802338214219446 -0.23111767686037865 0.0098078999172059866 -0.22015667905886291 0.012201151853948034 -0.18457630268601691 0.0008407449941358891 -0.20186742312431818 -0.0059173948405714331 -0.025400730509251446 0.10427867066814543 -0.0077679324533178832 0.067581327065297361 -0.0065101761452282863 0.080734639252987961 -0.006296172342316453 0.10124873387642382 -0.0074504448515156701 0.095788821879123284 0.015509123717559704
leaf_weight=112901 77739 42501 3199 3057 55072 3561 804 8046 3474 929 4585 8785 8051 8933 7937 8993 8456 7626 3168 886 5490 1795 4953 3039 3820 5358 4826 3450 4798 12168
leaf_count=112901 77739 42501 3199 3057 55072 3561 804 8046 3474 929 4585 8785 8051 8933 7937 8993 8456 7626 3168 886 5490 1795 4953 3039 3820 5358 4826 3450 4798 12168
internal_value=-0.0118091 -0.0363585 -0.00668826 0.0526262 -0.0496259 -0.0398445 -0.0639881 -0.0444542 -0.0393693 -0.0798398 0.0388514 -0.0448241 -0.0380355 -0.0494817 -0.037588 -0.0568508 -0.0370468 -0.0689053 -0.0750356 0.000936639 0.0343405 0.0376421 0.031314 0.0344855 0.0288449 0.0341894 0.0270327 0.0403534 0.0294671 0.0416716
internal_weight=428400 350661 237760 99840 137920 82044 55876 78483 68622 9861 57339 65148 53195 45144 36211 28274 19281 10825 11953 1815 52754 49697 44207 42412 37459 34420 30600 25242 20416 16966
internal_count=428400 350661 237760 99840 137920 82044 55876 78483 68622 9861 57339 65148 53195 45144 36211 28274 19281 10825 11953 1815 52754 49697 44207 42412 37459 34420 30600 25242 20416 16966
is_linear=0
shrinkage=0.1


Tree=14
num_leaves=31
num_cat=0
split_feature=3 9 3 3 3 3 215 28 28 3 28 9 28 3 28 28 7 28 7 28 3 174 3 3 3 7 3 28 3 3
split_gain=106996 61998.3 58500.1 2300.28 1974.53 2831.63 1676.27 1418.41 1213.76 999.361 1416.24 1123.39 3189.17 1851.09 1913.6 1658.64 2459.96 1845.44 3621.9 1691.48 2300.4 938.805 936.541 801.264 2931.77 755.962 758.076 770.884 1090.32 952.133
threshold=34.342500000000008 196.46500000000003 71.295000000000016 49.975000000000001 131.26500000000001 128.84250000000003 6.7703715168073773 70.127500000000012 34.562500000000007 122.325 119.64250000000003 112.98500000000001 109.46250000000002 104.05250000000002 100.81250000000001 96.197500000000005 92.375000000000014 87.797500000000028 83.75500000000001 80.06750000000001 75.615000000000023 -0.16722523061768027 72.535000000000011 38.482500000000009 38.927500000000002 51.095000000000006 52.612500000000004 53.687500000000007 55.155000000000008 56.495000000000012
decision_type=2 8 2 2 2 2 8 10 10 2 10 10 10 2 10 10 10 10 10 10 2 10 2 2 2 10 2 10 2 2
left_child=-1 2 3 8 5 6 9 21 -2 10 11 12 13 14 15 16 17 18 19 20 22 -5 -4 -10 -25 -23 -27 -28 -29 -30
right_child=1 -3 4 7 -6 -7 -8 -9 23 -11 -12 -13 -14 -15 -16 -17 -18 -19 -20 -21 -22 25 -24 24 -26 26 27 28 29 -31
leaf_value=-1.9532054425416605 -0.01020531665665061 11.648486534098124 -0.00080858795347324994 0.027123921523937611 -0.29366158788063218 0.11631937107322302 -0.074680711329465063 0.087021921287328052 0.096749963714061249 -0.28107612768471313 0.22349881738364274 -0.24575128942788071 0.038688052908494801 -0.28667631288435164 0.020473900380386569 -0.19800606176223143 0.017438158642787017 -0.18314085856508627 0.021385134787908558 -0.15321627637630827 0.0065998771855632302 -0.0099848796550773503 -0.18197239062312037 -0.019069738434376406 0.072814988376079276 0.091090555417126851 -0.010870247966920488 0.072803384635867024 -0.01088881780194555 0.011971436662904011
leaf_weight=106133 964 71693 1621 27451 47381 1742 45946 3488 10838 2506 906 3254 2753 4162 3589 4342 4141 4581 4180 4525 4800 1726 3538 1704 35762 2394 1536 1820 1645 17279
leaf_count=106133 964 71693 1621 27451 47381 1742 45946 3488 10838 2506 906 3254 2753 4162 3589 4342 4141 4581 4180 4525 4800 1726 3538 1704 35762 2394 1536 1820 1645 17279
internal_value=-0.0119599 0.01672 -0.00674132 0.0494086 -0.0483201 -0.0401176 -0.0424381 0.0357924 0.0652553 -0.0295513 -0.0262287 -0.0286945 -0.0243323 -0.0315889 -0.0241555 -0.0319844 -0.0228803 -0.0355302 -0.0215709 -0.0452361 -0.022201 0.0317896 -0.0685598 0.0674727 0.0605456 0.0183258 0.0228013 0.0170557 0.0221172 0.0150074
internal_weight=428400 322267 250574 106607 143967 96586 94844 57339 49268 48898 46392 45486 42232 39479 35317 31728 27386 23245 18664 14484 9959 53851 5159 48304 37466 26400 24674 22280 20744 18924
internal_count=428400 322267 250574 106607 143967 96586 94844 57339 49268 48898 46392 45486 42232 39479 35317 31728 27386 23245 18664 14484 9959 53851 5159 48304 37466 26400 24674 22280 20744 18924
is_linear=0
shrinkage=0.1


Tree=15
num_leaves=31
num_cat=0
split_feature=3 7 3 3 3 3 7 3 28 28 28 28 28 7 3 9 9 28 3 28 3 9 3 215 7 3 3 9 28 3
split_gain=99146.3 56044.4 55098.6 3412.92 2715.91 2982.02 2265.62 2181.11 2298.41 2906 4291.57 2620.16 4725.37 2206.17 3476.12 1892.37 3474.19 1408.77 1377.82 2644.08 2109.97 1946.95 1427 1277.53 1125.52 2313.41 1406.15 1120.86 1104.97 1080.35
threshold=32.602500000000006 207.06500000000003 72.535000000000011 43.195000000000007 157.66500000000002 155.61500000000004 43.625000000000007 75.615000000000023 80.06750000000001 83.507500000000007 87.797500000000028 92.157500000000013 96.197500000000005 100.29500000000002 104.05250000000002 108.43500000000002 112.98500000000001 111.49250000000002 45.82500000000001 46.337500000000013 48.082500000000003 48.535000000000004 49.975000000000001 6.7703715168073773 118.28500000000001 122.325 119.69000000000001 51.07500000000001 43.947500000000012 52.612500000000004
decision_type=2 10 2 2 2 2 10 2 10 10 10 10 10 10 2 10 10 10 2 10 2 10 2 8 10 2 2 10 10 2
left_child=-1 2 3 -2 5 7 -5 -4 -9 -10 -11 -12 -13 -14 -15 -16 17 23 28 -20 -21 -22 -23 -17 -18 26 -26 -24 -8 -29
right_child=1 -3 4 6 -6 -7 18 8 9 10 11 12 13 14 15 16 24 -19 19 20 21 22 27 -25 25 -27 -28 29 -30 -31
leaf_value=-1.9048849249903754 0.080315003293316076 11.708250612621907 -0.18721233502073745 -0.030466418908794424 -0.36292123289506439 0.13351766600020198 -0.00046649520273973623 0.0030723340822142124 -0.16489507598477077 0.011374243923405913 -0.19282665063826557 0.011604753230783161 -0.22220493678718045 0.010492797581255786 -0.33060368242523314 0.012491120039825887 -0.32642830801661377 0.074480461398466966 -0.014366355584819957 0.076433548284808958 -0.025516658471782708 0.081483692480365744 -0.0050952196934524359 -0.020269670448000456 -0.031426252037826431 -0.22663771389150469 0.18664888986891129 0.090401778771200023 0.10153355057362745 0.017387047187153826
leaf_weight=99477 31983 65510 6796 1572 32106 1587 1283 9286 8379 8551 8450 8534 7321 8106 6828 2325 4956 2054 2967 5492 1442 5408 3303 2215 1301 26462 1693 5244 5778 51991
leaf_count=99477 31983 65510 6796 1572 32106 1587 1283 9286 8379 8551 8450 8534 7321 8106 6828 2325 4956 2054 2967 5492 1442 5408 3303 2215 1301 26462 1693 5244 5778 51991
internal_value=-0.0112432 0.015213 -0.00537217 0.0460017 -0.0460878 -0.0388997 0.0354688 -0.0408072 -0.037301 -0.0418431 -0.0365309 -0.0437074 -0.0375082 -0.046931 -0.0401752 -0.0504369 -0.0423206 0.0241735 0.0377237 0.0337904 0.0375576 0.0327002 0.0352137 -0.0069163 -0.0550622 -0.0476439 0.0356713 0.030817 0.0799745 0.0340858
internal_weight=428400 328923 263413 116463 146950 114844 84480 113257 106461 97175 88796 80245 71795 63261 55940 47834 41006 6594 82908 75847 72880 67388 65946 4540 34412 29456 2994 60538 7061 57235
internal_count=428400 328923 263413 116463 146950 114844 84480 113257 106461 97175 88796 80245 71795 63261 55940 47834 41006 6594 82908 75847 72880 67388 65946 4540 34412 29456 2994 60538 7061 57235
is_linear=0
shrinkage=0.1


Tree=16
num_leaves=31
num_cat=0
split_feature=3 28 3 3 3 3 28 28 3 28 3 28 28 3 7 9 9 3 3 7 3 3 28 28 3 3 3 9 28 138
split_gain=89569.2 52297.4 53597 3769.17 3412.12 2809.25 2047.52 2216.6 2588.82 3356.42 2464.99 3884.34 2095.93 3074.76 1999.61 1937.84 3235.44 1462.7 2277.75 1258.34 2204.62 1293.08 1228.66 1195.49 1190.16 1931.12 1410.9 1224.54 1046.85 1022.62
threshold=30.862500000000001 220.45250000000001 72.535000000000011 43.195000000000007 186.87500000000003 184.29500000000004 75.322500000000005 80.06750000000001 83.095000000000013 87.797500000000028 91.315000000000012 96.197500000000005 100.08250000000002 104.05250000000002 43.625000000000007 108.43500000000002 112.98500000000001 45.82500000000001 46.092500000000008 118.28500000000001 122.325 119.69000000000001 111.49250000000002 102.45250000000003 48.082500000000003 48.585000000000008 49.975000000000001 46.415000000000006 43.947500000000012 -0.46000000000000435
decision_type=2 10 2 2 2 2 10 10 2 10 2 10 10 2 10 10 10 2 2 10 2 2 10 10 2 2 2 10 10 10
left_child=-1 2 3 -2 5 6 -4 -8 -9 -10 -11 -12 -13 23 -5 -15 22 28 -19 -18 21 -21 29 -14 27 -26 -27 -20 -16 -17
right_child=1 -3 4 14 -6 -7 7 8 9 10 11 12 13 15 17 16 19 18 24 20 -22 -23 -24 -25 25 26 -28 -29 -30 -31
leaf_value=-1.8113963638267869 0.073103567508662343 12.218426833097999 -0.18549091841319554 -0.027419777017914981 -0.45262856028915055 0.11175753285049837 0.0023553249093779985 -0.16930738459341654 0.007339532370798452 -0.20181046371428979 0.007578784378915771 -0.2079846262139313 -0.0066221799263914251 -0.29754331418270968 -0.00041984568246604685 -0.017575297758057929 -0.29378547721495213 -0.024129861933076313 -0.00092982683786146936 -0.028283626834043219 -0.2313049571501381 0.16798400088202073 0.067032415258620401 0.029008822584066254 -0.019164600473725812 0.0753349875389695 0.016894233153578141 0.070790239232695035 0.091380195516264709 0.011988316817887324
leaf_weight=94295 37165 57658 5917 1572 20081 1627 10165 7355 9575 7293 9691 6864 5089 6828 1283 2232 4956 1696 1443 1301 46299 1693 2054 3474 1718 5132 60538 5320 5778 2308
leaf_count=94295 37165 57658 5917 1572 20081 1627 10165 7355 9575 7293 9691 6864 5089 6828 1283 2232 4956 1696 1443 1301 46299 1693 2054 3474 1718 5132 60538 5320 5778 2308
internal_value=-0.0121335 0.0121582 -0.00591036 0.0437609 -0.0449426 -0.0392107 -0.0408072 -0.0381319 -0.042023 -0.0381708 -0.0435823 -0.0391824 -0.0461696 -0.0414041 0.0320857 -0.0485481 -0.0428792 0.0342042 0.0301515 -0.0509189 -0.0460897 0.0370741 0.0232636 0.0150531 0.0327723 0.0287588 0.0314969 0.0727636 0.0777369 -0.00577093
internal_weight=428400 334105 276447 121645 154802 134721 133094 127177 117012 109657 100082 92789 83098 76234 84480 67671 60843 82908 75847 54249 49293 2994 6594 8563 74151 67388 65670 6763 7061 4540
internal_count=428400 334105 276447 121645 154802 134721 133094 127177 117012 109657 100082 92789 83098 76234 84480 67671 60843 82908 75847 54249 49293 2994 6594 8563 74151 67388 65670 6763 7061 4540
is_linear=0
shrinkage=0.1


Tree=17
num_leaves=31
num_cat=0
split_feature=3 7 3 3 9 7 3 3 3 3 3 7 3 134 3 3 7 28 3 28 3 3 3 7 3 7 3 7 3 3
split_gain=83607.6 48307.8 52947.5 4986.26 3675.48 2027.49 1774.38 2052.21 1601.79 1443.3 1353.16 1644.52 1417.95 1186.22 1150.69 2487.8 1141.27 960.14 2279.12 1259.54 2058.38 1564.95 2026.9 3321.22 1337.37 1871.73 1614.31 2444.6 2138.71 894.286
threshold=28.787500000000005 231.00500000000002 71.295000000000016 34.342500000000008 196.46500000000003 34.625000000000007 45.82500000000001 46.092500000000008 70.142500000000013 195.32500000000002 48.082500000000003 48.57500000000001 49.975000000000001 0.41000000000001796 44.195000000000007 43.195000000000007 46.415000000000006 51.807500000000012 52.612500000000004 53.687500000000007 55.155000000000008 56.495000000000012 57.772500000000008 59.285000000000004 61.105000000000011 62.545000000000009 64.385000000000005 66.045000000000016 67.955000000000013 41.665000000000006
decision_type=2 10 2 2 10 10 2 2 2 2 2 10 2 8 2 2 10 10 2 10 2 2 2 10 2 10 2 10 2 2
left_child=-1 2 3 -2 9 -5 14 -8 10 13 16 -12 -13 -4 15 29 -9 -14 -19 -20 -21 -22 -23 -24 -25 -26 -27 -28 -29 -7
right_child=1 -3 4 5 -6 6 7 8 -10 -11 11 12 17 -15 -16 -17 -18 18 19 20 21 22 23 24 25 26 27 28 -30 -31
leaf_value=-1.7495568067898113 0.076943132175032514 12.013583966682731 -0.037504887252572422 -0.02352680991786258 -0.51330537327636139 0.056777646786277107 -0.021716875739768684 -3.6711402610478676e-05 0.077058093131454092 0.1045213501831242 -0.017248140426353586 0.067801488785072195 -0.0052752888861448358 -0.086944891923349144 0.090042278198524894 -0.0093778763730085757 0.068711139015480427 0.095672162319932863 -0.010131781464765767 0.074685309400840436 -0.0094391504871836687 0.073021926664019784 -0.010806861671505175 0.084983340302314053 -0.012360757341009077 0.082584881613893657 -0.017964658862659633 0.10291461745125474 -0.0020406841184041013 0.089371663281027483
leaf_weight=85673 20460 53958 68179 1279 17734 18907 1696 1726 3387 898 1733 5117 4811 74890 5126 3506 5037 3736 3024 3724 3358 3501 5358 4826 3622 4626 3736 4614 5016 5142
leaf_count=85673 20460 53958 68179 1279 17734 18907 1696 1726 3387 898 1733 5117 4811 74890 5126 3506 5037 3736 3024 3724 3358 3501 5358 4826 3622 4626 3736 4614 5016 5142
internal_value=-0.0104855 0.0116019 -0.00462688 0.0436774 -0.0425854 0.0349992 0.0365189 0.0278136 0.0304121 -0.037294 0.027048 0.0223282 0.0251452 -0.0380872 0.0558704 0.0477772 0.069481 0.0203737 0.0245477 0.0183702 0.0228192 0.015979 0.0221848 0.0142336 0.0287821 0.0181549 0.0313584 0.0137363 0.0403738 0.0592499
internal_weight=428400 342727 288769 127068 161701 106608 105329 72648 70952 143967 67565 60802 59069 143069 32681 27555 6763 53952 49141 45405 42381 38657 35299 31798 26440 21614 17992 13366 9630 24049
internal_count=428400 342727 288769 127068 161701 106608 105329 72648 70952 143967 67565 60802 59069 143069 32681 27555 6763 53952 49141 45405 42381 38657 35299 31798 26440 21614 17992 13366 9630 24049
is_linear=0
shrinkage=0.1


Tree=18
num_leaves=31
num_cat=0
split_feature=3 7 3 3 3 3 3 28 3 28 3 28 28 3 3 9 3 3 7 3 7 7 3 28 3 7 3 3 7 3
split_gain=80758.7 43607.3 48741.4 5280.49 3985.69 2456.86 2299.15 2888.75 3244.99 3941.49 3086.03 4613.71 2492.12 3504.26 2317.88 3554.76 2097.52 1893.61 1608.91 2034.82 1548.82 1408.98 1436.3 3140.22 1949.61 1710.21 1397.41 1822.62 1225.58 2460.38
threshold=26.985000000000003 244.28000000000003 72.535000000000011 34.342500000000008 186.87500000000003 184.29500000000004 74.815000000000012 80.06750000000001 83.095000000000013 87.797500000000028 91.315000000000012 96.197500000000005 100.08250000000002 104.05250000000002 108.21500000000002 112.98500000000001 34.822500000000012 36.592500000000008 118.28500000000001 122.325 27.185000000000006 37.005000000000003 38.482500000000009 39.377500000000005 43.195000000000007 43.625000000000007 45.82500000000001 46.092500000000008 126.83500000000002 131.26500000000001
decision_type=2 10 2 2 2 2 2 10 2 10 2 10 10 2 2 10 2 2 10 2 10 10 2 10 2 10 2 2 10 2
left_child=-1 2 3 20 5 6 -4 -8 -9 -10 -11 -12 -13 -14 -15 -16 -5 -18 -17 -20 -2 -19 -23 -24 -25 -26 -27 -28 -21 -30
right_child=1 -3 4 16 -6 -7 7 8 9 10 11 12 13 14 15 18 17 21 19 28 -22 22 23 24 25 26 27 -29 29 -31
leaf_value=-1.6253010276916406 -0.0083011154296777079 12.363613814643362 -0.18068772533717664 -0.018673976338185839 -0.40486925900261217 0.10632793742843774 0.0062067031659466922 -0.14631125665931535 0.011859878595822694 -0.1766128777238464 0.01262994618224127 -0.18143601056064115 0.012742327070485261 -0.26909434098421342 0.01393969309963552 -0.25971253185385595 0.098100004177961608 -0.014944410275545295 0.048815535930208404 -0.29701506136366335 0.072048997485361352 0.070055437136564078 -0.029982503842440167 0.077434619023237172 -0.023740011678822271 0.052037958825938091 -0.019545188165791674 0.017926363136562883 0.091910708025338295 -0.21711847089177638
leaf_weight=79018 837 50645 5049 1736 27094 1627 11033 7355 9575 7293 9691 6864 8563 6572 6850 4956 5032 1361 2994 3628 26278 3674 2706 10819 1571 7061 1696 74151 2964 39707
leaf_count=79018 837 50645 5049 1736 27094 1627 11033 7355 9575 7293 9691 6864 8563 6572 6850 4956 5032 1361 2994 3628 26278 3674 2706 10819 1571 7061 1696 74151 2964 39707
internal_value=-0.00758917 0.0130591 -0.00148726 0.0424242 -0.0386435 -0.0316053 -0.0330984 -0.0304885 -0.0351007 -0.0307878 -0.0366519 -0.031729 -0.0393439 -0.0341475 -0.0417742 -0.0357043 0.0326655 0.0344172 -0.0442755 -0.0388148 0.0819436 0.031492 0.0328449 0.0305437 0.03356 0.0284414 0.0304 0.0264388 -0.0439815 -0.0392374
internal_weight=428400 349382 298737 136922 161815 134721 133094 128045 117012 109657 100082 92789 83098 76234 67671 61099 109807 108071 54249 49293 27115 103039 101678 98004 95298 84479 82908 75847 46299 42671
internal_count=428400 349382 298737 136922 161815 134721 133094 128045 117012 109657 100082 92789 83098 76234 67671 61099 109807 108071 54249 49293 27115 103039 101678 98004 95298 84479 82908 75847 46299 42671
is_linear=0
shrinkage=0.1


Tree=19
num_leaves=31
num_cat=0
split_feature=3 7 3 3 9 3 28 7 28 9 28 7 7 3 28 9 3 3 3 3 174 7 3 9 7 3 3 7 3 28
split_gain=74383.8 41670.5 44543.8 5770.34 3896.06 2457.28 2452.8 3408.43 3215.08 3332.44 3675.73 2502.94 2288.3 2425.14 2420.63 2979.57 1812.1 1903.54 1640.97 1571.85 1543.58 1390.02 2031.61 1324.73 2229.94 1569.13 4554.24 1355.11 4361.17 1282.25
threshold=25.675000000000004 256.78500000000003 72.535000000000011 34.342500000000008 196.46500000000003 74.815000000000012 80.06750000000001 83.015000000000015 87.797500000000028 91.315000000000012 96.197500000000005 99.335000000000022 194.33500000000004 104.05250000000002 108.06250000000001 112.98500000000001 34.822500000000012 36.592500000000008 117.90500000000002 122.325 -0.15641342829266122 126.83500000000002 131.26500000000001 136.27500000000003 139.22500000000005 144.70500000000001 148.41500000000002 153.38500000000002 157.66500000000002 102.45250000000003
decision_type=2 10 2 2 10 2 10 10 10 10 10 10 10 2 10 10 2 2 2 2 10 10 2 10 10 2 2 10 2 10
left_child=-1 2 3 -2 5 -4 -7 -8 -9 -10 -11 -12 13 29 -15 -16 -5 -18 -17 -20 -19 -21 -23 -24 -25 -26 -27 -28 -29 -13
right_child=1 -3 4 16 -6 6 7 8 9 10 11 12 -14 14 15 18 17 20 19 21 -22 22 23 24 25 26 27 28 -30 -31
leaf_value=-1.5057709554400547 0.067374157551278555 13.167975699780591 -0.1626189528034587 -0.016806578704367327 -0.41910557957878325 0.0055860328493523076 -0.13399503174288727 0.010067702853018546 -0.15995104063505608 0.011044129271851943 -0.19125847993892792 -0.0060843376294101859 0.091645575111377303 -0.24618499843852676 0.01149075546258942 -0.25374173643214276 0.088290003760165811 0.028427143460329065 0.028054413855743122 -0.26731355522729816 0.010533229806400257 0.082719637222803052 -0.27024822231334156 0.12275104526478345 -0.32524065417690623 0.13742948154408055 -0.3099070510486911 0.080923179441259666 -0.26527522941117071 0.029990080142916042
leaf_weight=75471 30662 47410 5049 1736 24282 11033 7219 9711 7218 9766 5593 6360 1676 6394 7028 4613 5032 52925 3337 3628 50114 2964 3816 1731 4445 3198 4031 4236 24248 3474
leaf_count=75471 30662 47410 5049 1736 24282 11033 7219 9711 7218 9766 5593 6360 1676 6394 7028 4613 5032 52925 3337 3628 50114 2964 3816 1731 4445 3198 4031 4236 24248 3474
internal_value=-0.00763585 0.0116332 -0.00190266 0.039487 -0.0371281 -0.030747 -0.0281987 -0.0321977 -0.028099 -0.0330654 -0.0283535 -0.0346252 -0.0303702 -0.0326922 -0.0389187 -0.0333304 0.0287769 0.030405 -0.0405182 -0.0357659 0.0274721 -0.0400119 -0.0355606 -0.0407636 -0.0356251 -0.0404154 -0.0334416 -0.0446409 -0.0369611 0.0139516
internal_weight=428400 352929 305519 140469 165050 140768 135719 124686 117467 107756 100538 90772 85179 83503 73669 67275 109807 108071 60247 55634 103039 52297 48669 45705 41889 40158 35713 32515 28484 9834
internal_count=428400 352929 305519 140469 165050 140768 135719 124686 117467 107756 100538 90772 85179 83503 73669 67275 109807 108071 60247 55634 103039 52297 48669 45705 41889 40158 35713 32515 28484 9834
is_linear=0
shrinkage=0.1


Tree=20
num_leaves=31
num_cat=0
split_feature=3 3 3 3 9 3 28 9 28 28 28 7 9 3 28 9 28 3 3 3 7 3 3 3 28 3 3 3 7 3
split_gain=69246.1 39362.8 40431.7 5341.75 3926.67 2406.55 2199.53 3156.1 2824.24 3224.63 3183.32 2615.67 2073.76 2202.87 2430.06 2610.48 1562.14 1449.04 1815.02 1375.21 3185.99 1815.47 2576.15 1731.09 2096.77 1378.96 3968.99 1570.77 4054.4 1728.11
threshold=24.232500000000005 270.97500000000008 72.535000000000011 34.342500000000008 196.46500000000003 74.815000000000012 80.06750000000001 83.00500000000001 87.797500000000028 91.117500000000021 96.197500000000005 99.335000000000022 194.45500000000001 104.05250000000002 108.06250000000001 112.98500000000001 117.8575 34.822500000000012 36.592500000000008 186.87500000000003 182.96500000000003 176.07500000000002 173.99250000000004 166.14500000000001 163.85000000000005 157.66500000000002 154.44500000000002 148.41500000000002 145.13500000000002 122.325
decision_type=2 2 2 2 10 2 10 10 10 10 10 10 10 2 10 10 10 2 2 2 10 2 2 2 10 2 2 2 10 2
left_child=-1 2 3 -2 5 -4 -7 -8 -9 -10 -11 -12 13 -13 -15 -16 -17 -5 -19 20 21 22 23 24 25 26 27 28 29 -18
right_child=1 -3 4 17 -6 6 7 8 9 10 11 12 -14 14 15 16 19 18 -20 -21 -22 -23 -24 -25 -26 -27 -28 -29 -30 -31
leaf_value=-1.3709938591331097 0.062956497350349847 15.069454496990028 -0.14635705752311309 -0.015125920833930452 -0.40598912874459075 0.0050274295644172186 -0.12227995643237649 0.0089003498722931337 -0.1552781395861203 0.0092899855392133187 -0.17213263194503556 0.0062027270371572745 0.081576986723712261 -0.2215664985946745 0.010341679916330549 -0.23236689140220934 0.024549655285485986 0.079461003384149367 0.018007281310761413 -0.33282635263109911 0.093054728171352963 -0.494710656909507 0.17509613264127497 -0.29888209684030759 0.16138759942755032 -0.27578204801218648 0.11366629091519087 -0.2150007119000179 0.15753914863464902 -0.17358238281003652
leaf_weight=73765 32368 42747 5049 1736 28945 11033 7124 9806 6800 10184 5593 9834 1720 6394 7028 4567 3383 5032 103039 4327 2461 4246 1606 6526 1423 3615 3153 5114 2704 17078
leaf_count=73765 32368 42747 5049 1736 28945 11033 7124 9806 6800 10184 5593 9834 1720 6394 7028 4567 3383 5032 103039 4327 2461 4246 1606 6526 1423 3615 3153 5114 2704 17078
internal_value=-0.0095014 0.00883472 -0.00349933 0.0358382 -0.0364539 -0.0295564 -0.0270345 -0.0308214 -0.026905 -0.0315806 -0.027091 -0.0330388 -0.028689 -0.030929 -0.0368666 -0.0312639 -0.0379964 0.0253144 0.0267704 -0.0333813 -0.0288156 -0.0344088 -0.0284606 -0.0331054 -0.0246175 -0.029449 -0.0227221 -0.0345875 -0.0235139 -0.0387224
internal_weight=428400 354635 311888 142175 169713 140768 135719 124686 117562 107756 100956 90772 85179 83459 73625 67231 60203 109807 108071 55636 51309 48848 44602 42996 36470 35047 31432 28279 23165 20461
internal_count=428400 354635 311888 142175 169713 140768 135719 124686 117562 107756 100956 90772 85179 83459 73625 67231 60203 109807 108071 55636 51309 48848 44602 42996 36470 35047 31432 28279 23165 20461
is_linear=0
shrinkage=0.1


Tree=21
num_leaves=31
num_cat=0
split_feature=3 9 3 3 9 28 28 28 28 28 28 9 9 3 28 7 28 3 3 7 28 3 3 9 3 9 3 3 3 7
split_gain=66449 37691.8 35202.3 4368.79 3679.32 2455.31 2252.94 3235.77 2438.43 3286.75 2727.78 2739.38 2154.55 2711.23 2022.44 1978.93 1889.26 1838.82 1798.83 2443.99 1793.54 2514.97 1618.02 2704.13 1999.64 2874.44 2414.03 2071.98 1779.17 3470.77
threshold=22.040000000000003 283.65000000000003 72.535000000000011 43.195000000000007 196.46500000000003 75.322500000000005 80.06750000000001 82.847500000000011 87.797500000000028 91.117500000000021 96.197500000000005 99.385000000000005 44.105000000000011 45.82500000000001 46.337500000000013 22.405000000000005 193.83000000000001 48.082500000000003 104.05250000000002 107.11500000000002 49.032500000000006 49.975000000000001 186.87500000000003 183.02500000000003 176.07500000000002 172.90500000000003 166.14500000000001 163.26500000000001 157.66500000000002 154.67500000000004
decision_type=2 10 2 2 10 10 10 10 10 10 10 10 10 2 10 10 10 2 2 10 10 2 2 10 2 10 2 2 2 10
left_child=-1 2 3 15 5 -4 -7 -8 -9 -10 -11 -12 -5 -14 -15 -2 18 -16 -13 -20 -19 -22 23 24 25 26 27 28 29 -21
right_child=1 -3 4 12 -6 6 7 8 9 10 11 16 13 14 17 -17 -18 20 19 22 21 -23 -24 -25 -26 -27 -28 -29 -30 -31
leaf_value=-1.2763944922932851 -0.033894473219798729 15.247733046314465 -0.11084378035323682 -0.016487362190624567 -0.39025407067912288 0.0056892758574775826 -0.11836738033747025 0.0075487315948393535 -0.13975032562750869 0.0083609869852921299 -0.15691979599662603 0.0051966410688436332 0.070180024856530562 -0.01348004354465502 0.049393235454673605 0.050040974568440082 0.066493271543382096 -0.016970055007820405 -0.2322589551844928 -0.051259199325117778 0.068385500678788708 0.0080490342928413849 -0.3113746192446627 0.082918414512701599 -0.44765543888540837 0.11606487092904844 -0.32182515524388866 0.12124829016838988 -0.2640340737009183 0.12237408656732499
leaf_weight=70221 891 40693 5917 3213 30999 10165 6740 10190 6800 10184 5479 9948 5420 2967 5492 60348 2086 2976 5229 41646 3874 60538 3961 2509 4198 2591 5541 1717 3321 2546
leaf_count=70221 891 40693 5917 3213 30999 10165 6740 10190 6800 10184 5479 9948 5420 2967 5492 60348 2086 2976 5229 41646 3874 60538 3961 2509 4198 2591 5541 1717 3321 2546
internal_value=-0.00988142 0.00755684 -0.00405687 0.0320953 -0.0347267 -0.0278586 -0.0250921 -0.0287827 -0.0249317 -0.0293534 -0.0248207 -0.0303265 0.0173532 0.0205286 0.015646 0.0524323 -0.0259236 0.0189407 -0.0282801 -0.0336982 0.0144061 0.0179128 -0.0286344 -0.0247998 -0.0289474 -0.0240717 -0.0289405 -0.0218972 -0.0257972 -0.0204924
internal_weight=428400 358179 317486 145719 171767 140768 134851 124686 117946 107756 100956 90772 84480 81267 75847 61239 85293 72880 83207 73259 67388 64412 68030 64069 61560 57362 54771 49230 47513 44192
internal_count=428400 358179 317486 145719 171767 140768 134851 124686 117946 107756 100956 90772 84480 81267 75847 61239 85293 72880 83207 73259 67388 64412 68030 64069 61560 57362 54771 49230 47513 44192
is_linear=0
shrinkage=0.1


Tree=22
num_leaves=31
num_cat=0
split_feature=3 3 3 9 3 9 208 28 3 3 3 28 3 9 3 28 3 3 28 3 28 3 28 25 3 3 3 28 3 28
split_gain=63789.8 36107.9 30160.5 3638.99 3600.78 2529.8 1846.4 1774.29 2268.38 1744.99 1587.42 2931.68 2035.99 1671.96 2462.87 1804.27 1562.76 1457.88 1498.66 2445.24 1538.76 2798.87 1639.44 1715.84 1501.89 2277.37 1598.77 2777.21 2056.42 2587.36
threshold=20.995000000000001 300.89500000000004 72.535000000000011 196.46500000000003 34.342500000000008 74.615000000000023 -6.0713330724344425 35.222500000000004 36.592500000000008 37.115000000000002 38.482500000000009 39.377500000000005 43.195000000000007 44.105000000000011 45.82500000000001 46.337500000000013 22.857500000000005 48.082500000000003 49.032500000000006 49.975000000000001 51.807500000000012 52.612500000000004 53.687500000000007 5.9511985550669797 55.155000000000008 56.495000000000012 57.772500000000008 59.837500000000013 61.105000000000011 63.107500000000009
decision_type=2 2 2 10 2 10 10 10 2 2 2 10 2 10 2 10 2 2 10 2 10 2 10 10 2 2 2 10 2 10
left_child=-1 2 4 5 16 -4 -7 -6 -9 -10 -11 -12 -13 -14 -15 -16 -2 -17 -19 -20 -21 -22 -23 24 -24 -26 -27 -28 -29 -30
right_child=1 -3 3 -5 7 6 -8 8 9 10 11 12 13 14 15 17 -18 18 19 20 21 22 23 -25 25 26 27 28 29 -31
leaf_value=-1.1672550850256265 -0.0042549782141030335 15.200959619612707 -0.12463706528821206 -0.37657155617072252 -0.016117655089217208 -0.042937545466803333 -0.010868225656997766 0.075510820847679849 -0.018808422992331944 0.062202287876161937 -0.035832042110410356 0.061032875800889036 -0.014838625971562181 0.06316202237087723 -0.01213203919018966 0.044453911909206313 0.053506373838585836 -0.015273049507038651 0.061546950610910048 -0.011199183005506087 0.078863963867890879 -0.015463756412786724 0.060046103122238043 -0.012809682096113308 -0.015186138312810727 0.059478583930889783 -0.017755869136442472 0.092873702156585136 -0.014864724759884497 0.018884723627687807
leaf_weight=68570 3392 37829 4739 33863 2589 67925 68104 4180 1707 3327 2706 10819 3212 5420 2967 5492 34171 2976 3874 4811 3736 3024 3724 1716 3352 3478 4817 3685 4727 23468
leaf_count=68570 3392 37829 4739 33863 2589 67925 68104 4180 1707 3327 2706 10819 3212 5420 2967 5492 34171 2976 3874 4811 3736 3024 3724 1716 3352 3478 4817 3685 4727 23468
internal_value=-0.0104286 0.00641636 -0.00444129 -0.0325561 0.0288743 -0.025476 -0.0229738 0.0197319 0.0217072 0.0187775 0.0204666 0.0181605 0.0210749 0.0158442 0.018641 0.0139874 0.0555999 0.0170993 0.0130617 0.0162672 0.0113383 0.0160228 0.0100152 0.0144281 0.0179954 0.0127806 0.0193877 0.0132463 0.0239398 0.0147579
internal_weight=428400 359830 322001 174631 147370 140768 136029 109807 107218 103038 101331 98004 95298 84479 81267 75847 37563 72880 67388 64412 60538 55727 51991 48967 47251 43527 40175 36697 31880 28195
internal_count=428400 359830 322001 174631 147370 140768 136029 109807 107218 103038 101331 98004 95298 84479 81267 75847 37563 72880 67388 64412 60538 55727 51991 48967 47251 43527 40175 36697 31880 28195
is_linear=0
shrinkage=0.1


Tree=23
num_leaves=31
num_cat=0
split_feature=3 3 3 7 3 7 3 28 3 3 9 28 3 28 3 28 3 3 3 9 3 28 3 3 24 7 25 7 3 7
split_gain=60869.4 32838.7 25674.4 3168.11 2764.77 2180.75 1880.27 1485.36 2179.49 1511.38 1477.25 1659.03 1477.18 2508.34 2269.97 2795.33 2104.58 1851.96 1527.19 3236.05 1476.5 1985.95 2048.53 1748.42 2116.64 1436.15 1288.91 1340.55 1859.72 1878.29
threshold=19.865000000000006 319.14500000000004 71.295000000000016 207.06500000000003 34.342500000000008 204.86500000000004 70.142500000000013 35.222500000000004 36.592500000000008 37.115000000000002 196.46500000000003 193.83000000000001 186.87500000000003 182.02250000000001 176.07500000000002 172.60250000000005 166.14500000000001 163.26500000000001 157.66500000000002 154.80500000000004 52.612500000000004 51.807500000000012 49.975000000000001 49.26250000000001 66.714367945148624 20.105000000000004 7.3231478419084164 53.815000000000005 55.155000000000008 56.515000000000008
decision_type=2 2 2 10 2 10 2 10 2 2 10 10 2 10 2 10 2 2 2 10 2 10 2 2 10 10 10 10 2 10
left_child=-1 2 4 5 25 10 7 -6 -9 -10 11 12 13 14 15 16 17 18 19 -4 21 22 23 24 -11 -2 27 -22 -29 -30
right_child=1 -3 3 -5 6 -7 -8 8 9 20 -12 -13 -14 -15 -16 -17 -18 -19 -20 -21 26 -23 -24 -25 -26 -27 -28 28 29 -31
leaf_value=-1.0827295315096361 -0.02152948497032945 16.189890146909246 -0.02101804546522601 -0.37433220566693137 -0.014505889580295417 0.19642757647851852 0.061056215158244248 0.067959738762911573 -0.016927580693099031 0.021971470290364437 -0.29979648358007865 0.062558373701128295 -0.27732004322938625 0.06954350404677144 -0.41599977359243784 0.091986082105580638 -0.30751761708520747 0.1124177650146379 -0.23483685074899086 0.11129823039572387 -0.013519317036646328 0.070977567481101997 -0.010079264704955194 0.06539210296192835 -0.012683507609806811 0.041456297405959935 -0.011575344819720357 0.063170262325188284 -0.013557426036985731 0.0094180063435871375
leaf_weight=65245 752 34564 115421 30946 2589 1472 3387 4180 1707 35019 4710 2086 3961 2875 3832 2939 5193 1717 3321 2622 3507 3736 4811 3412 2362 40136 1628 3241 3566 33463
leaf_count=65245 752 34564 115421 30946 2589 1472 3387 4180 1707 35019 4710 2086 3961 2875 3832 2939 5193 1717 3321 2622 3507 3736 4811 3412 2362 40136 1628 3241 3566 33463
internal_value=-0.00988702 0.00609024 -0.00366261 -0.0288893 0.0273106 -0.0228846 0.0188316 0.0164259 0.01835 0.0152864 -0.0240838 -0.0222808 -0.0235824 -0.0218532 -0.0238209 -0.0216053 -0.0238146 -0.0211836 -0.0226426 -0.0207611 0.0169666 0.028942 0.0231997 0.0304783 0.0242235 0.0494179 0.00395331 0.00720241 0.0123665 0.0060088
internal_weight=428400 363155 328591 181095 147496 150149 106608 103221 100632 96452 148677 143967 141881 137920 135045 131213 128274 123081 121364 118043 94745 49340 45604 40793 37381 40888 45405 43777 40270 37029
internal_count=428400 363155 328591 181095 147496 150149 106608 103221 100632 96452 148677 143967 141881 137920 135045 131213 128274 123081 121364 118043 94745 49340 45604 40793 37381 40888 45405 43777 40270 37029
is_linear=0
shrinkage=0.1


Tree=24
num_leaves=31
num_cat=0
split_feature=3 28 3 7 3 7 154 3 3 28 3 7 3 28 3 28 3 28 3 7 3 25 28 3 7 3 7 3 7 3
split_gain=58116.5 29333.4 22899.6 3865.83 2681.91 1974.83 1316.17 1292.06 1292.85 2095.56 1600.73 1805.69 1805.32 1740.82 2343.41 1939.09 1998.72 1863.9 1594.73 2090.1 3732.54 1254.66 1155.74 1189.12 1634.52 2002.59 2025.93 1576.93 1804.16 1799.31
threshold=19.105000000000004 331.16500000000002 71.295000000000016 256.78500000000003 36.592500000000008 70.325000000000003 0.53999999999999571 37.115000000000002 52.612500000000004 51.807500000000012 49.975000000000001 49.245000000000012 48.082500000000003 46.712500000000013 45.82500000000001 44.487500000000004 43.195000000000007 42.017500000000005 41.157500000000006 39.535000000000004 38.482500000000009 5.9511985550669797 53.687500000000007 55.155000000000008 56.515000000000008 57.772500000000008 59.285000000000004 61.105000000000011 62.545000000000009 64.385000000000005
decision_type=2 10 2 10 2 10 8 2 2 10 2 10 2 10 2 10 2 10 2 10 2 10 10 2 10 2 10 2 10 2
left_child=-1 2 4 6 -2 7 -4 -6 9 10 11 12 13 14 15 16 17 18 19 20 -9 22 -10 -24 -25 -26 -27 -28 -29 -30
right_child=1 -3 3 -5 5 -7 -8 8 21 -11 -12 -13 -14 -15 -16 -17 -18 -19 -20 -21 -22 -23 23 24 25 26 27 28 29 -31
leaf_value=-0.98645656691458083 0.035860567720295222 17.147625985733949 -0.014264340867654823 -0.50960705200101875 -0.015234822623789057 0.062950776747888432 -0.047820182461016714 0.053784912059509082 -0.01256544906784356 0.063879810732991871 -0.0090713382344596027 0.058852892665735373 -0.012477393795354175 0.06182211507532074 -0.0094151110724588708 0.066659521302348423 -0.010551986697387862 0.073742923178421196 -0.022997675172103983 0.093516838797317092 -0.031065606958323146 -0.010491931320842696 0.048058960804376133 -0.012113348753031517 0.056589016456176471 -0.018197698828168997 0.060144683894458241 -0.016913176556541742 0.064971585807472823 -0.0013919157781373316
leaf_weight=63571 49330 31068 81805 16342 1707 2825 86444 3327 3024 3736 4811 3403 3448 3809 4650 4036 4596 3972 2811 3600 3142 1716 3724 3563 3267 3676 4826 3621 4622 13928
leaf_count=63571 49330 31068 81805 16342 1707 2825 86444 3327 3024 3736 4811 3403 3448 3809 4650 4036 4596 3972 2811 3600 3142 1716 3724 3563 3267 3676 4826 3621 4622 13928
internal_value=-0.0102708 0.00510404 -0.00354715 -0.027094 0.0255909 0.0161659 -0.0225838 0.0137659 0.0153104 0.026552 0.0206534 0.0270873 0.0207403 0.0277436 0.019692 0.0316041 0.0196382 0.0355803 0.0171118 0.0357036 0.00171588 0.00324363 0.00649703 0.0108739 0.00552222 0.0122864 0.00435888 0.0138423 0.00256642 0.0151698
internal_weight=428400 364829 333761 184591 149170 99840 168249 97015 95308 49341 45605 40794 37391 33943 30134 25484 21448 16852 12880 10069 6469 45967 44251 41227 37503 33940 30673 26997 22171 18550
internal_count=428400 364829 333761 184591 149170 99840 168249 97015 95308 49341 45605 40794 37391 33943 30134 25484 21448 16852 12880 10069 6469 45967 44251 41227 37503 33940 30673 26997 22171 18550
is_linear=0
shrinkage=0.1


Tree=25
num_leaves=31
num_cat=0
split_feature=3 7 3 7 28 28 28 28 3 28 3 3 6 3 9 9 3 7 9 3 3 28 3 3 3 3 3 3 3 3
split_gain=56137 26446.4 21336.2 4732.67 2739.38 2641.4 3738.63 3104.97 3557.86 3151.75 3158.8 2560.28 2524.76 2112.09 2872.71 2929.45 2272.01 1754.21 1620.71 1713.81 1864.79 2353.2 2382.47 2630.07 1869.5 1621.61 1309.28 1440.95 1267.99 2994.13
threshold=18.205000000000002 347.92500000000001 72.535000000000011 207.06500000000003 74.387500000000017 80.06750000000001 82.847500000000011 87.797500000000028 90.675000000000026 96.197500000000005 99.287500000000009 204.12250000000003 36.810000000000009 104.05250000000002 107.21500000000002 112.98500000000001 109.605 117.13500000000001 196.46500000000003 193.02500000000003 186.87500000000003 182.02250000000001 176.07500000000002 172.37500000000003 166.14500000000001 163.26500000000001 19.865000000000006 20.375000000000004 157.66500000000002 154.44500000000002
decision_type=2 10 2 10 10 10 10 10 2 10 2 2 2 2 10 10 2 10 10 2 2 10 2 2 2 2 2 2 2 2
left_child=-1 2 12 4 -4 -6 -7 -8 -9 -10 -11 13 26 -12 -15 16 -16 -17 19 20 21 22 23 24 25 28 -2 -28 29 -19
right_child=1 -3 3 -5 5 6 7 8 9 10 11 -13 -14 14 15 17 -18 18 -20 -21 -22 -23 -24 -25 -26 -27 27 -29 -30 -31
leaf_value=-0.89961091327488063 0.055657258820713908 21.862111434035555 -0.1138496668079597 -0.38164439367591857 0.010265660303589642 -0.098915703175048011 0.013492685631720748 -0.16059762417272055 0.012397863356306972 -0.13405033061039262 0.011506757395426349 0.11898670457758272 0.0018356430010953773 -0.20100643691260986 -0.026042475084311435 -0.27333110458362458 0.032103736041482027 -0.063195983636467196 -0.31881075691737237 0.053516340073721837 -0.27979512630114128 0.065015038412451528 -0.37110697518062497 0.072445278104802932 -0.29604665844668149 0.10495855607568104 -0.013261186741744169 0.022719596929195521 -0.20707163570924081 0.084595024548383441
leaf_weight=61968 3277 27601 4332 37909 11750 6740 10190 5513 11471 5420 10007 2080 41415 5202 2972 3335 5248 29511 4102 2615 3432 2875 3832 3273 4859 1717 1622 107658 3321 3153
leaf_count=61968 3277 27601 4332 37909 11750 6740 10190 5513 11471 5420 10007 2080 41415 5202 2972 3335 5248 29511 4102 2615 3432 2875 3832 3273 4859 1717 1622 107658 3321 3153
internal_value=-0.0103179 0.00456838 -0.00309919 -0.0260009 -0.0178741 -0.0154945 -0.0195724 -0.0156339 -0.0203637 -0.0163791 -0.0222435 -0.0178513 0.0243966 -0.0204015 -0.025855 -0.0208216 0.0354745 -0.0278304 -0.0240708 -0.0198163 -0.0235131 -0.0188481 -0.0239399 -0.017607 -0.0242499 -0.0167259 0.0321641 0.0302965 -0.0212561 -0.0152706
internal_weight=428400 366432 338831 184859 146950 142618 130868 124128 113938 108425 96954 91534 153972 89454 79447 74245 8220 66025 62690 58588 55973 52541 49666 45834 42561 37702 112557 109280 35985 32664
internal_count=428400 366432 338831 184859 146950 142618 130868 124128 113938 108425 96954 91534 153972 89454 79447 74245 8220 66025 62690 58588 55973 52541 49666 45834 42561 37702 112557 109280 35985 32664
is_linear=0
shrinkage=0.1


Tree=26
num_leaves=31
num_cat=0
split_feature=3 3 3 7 3 28 28 7 28 3 28 28 7 3 3 3 9 3 9 28 3 7 3 28 9 28 208 7 3 7
split_gain=52548.5 24208 18889.8 4371.17 2528.85 2523.65 2572.65 3388.24 2929.57 3338.42 2980.43 2815.8 1929.63 2161 1803.28 2761.17 2397.46 2069.19 1761.69 1486.6 2707.8 1451.45 1338.04 1254.1 1251.43 1166.41 1120.84 1007.57 3076.43 1126.42
threshold=16.815000000000001 379.01500000000004 72.535000000000011 256.78500000000003 34.342500000000008 74.387500000000017 80.06750000000001 82.435000000000016 87.797500000000028 90.675000000000026 96.197500000000005 99.107500000000016 35.305000000000007 36.592500000000008 104.05250000000002 107.03500000000001 112.98500000000001 109.605 117.12500000000001 33.357500000000009 32.602500000000006 17.045000000000005 37.115000000000002 92.157500000000013 83.735000000000014 102.45250000000003 3.1029294750625991 29.425000000000004 28.787500000000005 27.605000000000004
decision_type=2 2 2 10 2 10 10 10 10 2 10 10 10 2 2 2 10 2 10 10 2 10 2 10 10 10 8 10 2 10
left_child=-1 2 4 5 19 -4 -7 -8 24 -10 23 -12 -6 -14 25 -16 17 -17 -18 20 21 -2 -15 -11 -9 -13 -24 28 29 -23
right_child=1 -3 3 -5 12 6 7 8 9 10 11 14 13 22 15 16 18 -19 -20 -21 -22 27 26 -25 -26 -27 -28 -29 -30 -31
leaf_value=-0.83474981469946785 -0.026849910448369131 21.505401633405434 -0.10246470012716316 -0.49864145355422523 -0.017713022592585049 0.0092390942732308197 -0.1081465938974091 -0.0074606929308515648 -0.14453786175544822 -0.012308971432516103 -0.12724085824555403 -0.0021512415945778686 0.058505707222941794 -0.014483284795539932 -0.18890597632681791 -0.024493982968176911 -0.24899787205495016 0.028893362437334248 -0.076952710592013321 0.052482466874243988 -0.02831758958327555 0.025666728443265896 0.0024564613379915558 0.018043233038471839 0.018681121165752046 0.032277648250061478 0.015804311162087005 0.050452513871313089 -0.020547394575952539 0.068102545914770121
leaf_weight=58542 744 24724 4332 22686 2915 11750 5586 3186 5513 2937 5101 6852 3854 1707 4983 3191 3298 5248 82907 4134 2522 22343 51879 8534 8158 3474 49452 11028 2776 4044
leaf_count=58542 744 24724 4332 22686 2915 11750 5586 3186 5513 2937 5101 6852 3854 1707 4983 3191 3298 5248 82907 4134 2522 22343 51879 8534 8158 3474 49452 11028 2776 4044
internal_value=-0.0107418 0.00319204 -0.00365539 -0.0250767 0.0218948 -0.0194196 -0.0173895 -0.0209428 -0.017966 -0.0221557 -0.0188366 -0.0236828 0.0135501 0.0157393 -0.0203132 -0.0244361 -0.0206162 0.0302524 -0.025596 0.0411485 0.0356974 0.0418932 0.0129894 0.0297707 0.0308004 0.0194654 0.0144684 0.0444552 0.0347187 0.0452533
internal_weight=428400 369858 345134 187736 157398 165050 160718 148968 143382 132038 126525 115054 109807 106892 109953 99627 94644 8439 86205 47591 43457 40935 103038 11471 11344 10326 101331 40191 29163 26387
internal_count=428400 369858 345134 187736 157398 165050 160718 148968 143382 132038 126525 115054 109807 106892 109953 99627 94644 8439 86205 47591 43457 40935 103038 11471 11344 10326 101331 40191 29163 26387
is_linear=0
shrinkage=0.1


Tree=27
num_leaves=31
num_cat=0
split_feature=3 3 3 7 28 28 28 28 28 28 28 3 7 3 9 3 3 28 9 9 3 28 3 9 215 3 3 3 3 9
split_gain=50908.5 22628 15745.5 3971.08 2306.63 2097.01 2934.22 2388.4 3128.77 2370.21 2748.39 2025.12 1627.01 1868.83 1570.55 1863.8 1502.94 2680.33 2000.99 1943.24 1742.33 1277.09 1202.46 1134.92 1298.45 1081.05 1327.04 1785.04 1007.9 2519.04
threshold=16.082500000000003 394.08000000000004 72.535000000000011 256.78500000000003 74.387500000000017 80.06750000000001 82.377500000000012 87.797500000000028 90.522500000000022 96.197500000000005 99.107500000000016 34.342500000000008 35.305000000000007 36.592500000000008 33.415000000000006 32.602500000000006 104.05250000000002 106.94250000000001 112.98500000000001 110.03500000000001 116.40500000000002 92.157500000000013 37.115000000000002 83.735000000000014 8.8433972839408401 17.305000000000003 19.865000000000006 20.375000000000004 38.482500000000009 39.505000000000003
decision_type=2 2 2 10 10 10 10 10 10 10 10 2 10 2 10 2 2 10 10 10 2 10 2 10 8 2 2 2 2 10
left_child=-1 2 11 4 -4 -6 -7 23 -9 21 -11 14 -13 -14 15 25 -12 -18 19 -19 -20 -10 -15 24 -8 -2 -27 -28 -24 -30
right_child=1 -3 3 -5 5 6 7 8 9 10 16 12 13 22 -16 -17 17 18 20 -21 -22 -23 28 -25 -26 26 27 -29 29 -31
leaf_value=-0.76417485192153767 -0.0048749060902387956 20.678136616549263 -0.092218230114447408 -0.44413423606168867 0.0083151848459081645 -0.10431946019081409 0.0056928310205705658 -0.14308456386115295 -0.011115319581065819 -0.11451677242099834 0.0085382529748258672 -0.015941720333326258 0.052655136500647619 -0.01303495631598608 0.048434514681448354 -0.024485617001901262 -0.17642681817826969 -0.02001537869413568 -0.23859414301967663 0.028504743926116308 -0.068877296873623095 0.01623890973462494 0.045554243667477581 0.016813009049176486 -0.027331476743995609 0.047024944017655917 -0.014501740911896377 0.03127097477027263 -0.030476652089209466 0.0083270350421482675
leaf_weight=56848 3427 23067 4332 24343 11750 5106 1906 5062 3388 5101 10326 2915 3854 1707 3944 2712 4807 3637 3007 4978 83198 8534 3327 8158 1760 4970 1622 32610 3012 94992
leaf_count=56848 3427 23067 4332 24343 11750 5106 1906 5062 3388 5101 10326 2915 3854 1707 3944 2712 4807 3637 3007 4978 83198 8534 3327 8158 1760 4970 1622 32610 3012 94992
internal_value=-0.0106354 0.00284859 -0.00350058 -0.0229824 -0.0174214 -0.0154805 -0.0186886 -0.0160445 -0.0199003 -0.0168268 -0.0212248 0.0196918 0.0121331 0.0141432 0.0365324 0.0312675 -0.0178958 -0.0216598 -0.0179667 0.0279861 -0.022559 0.0256165 0.011586 0.0270129 -0.0192035 0.0363813 0.0410897 0.0340792 0.0129881 0.0111506
internal_weight=428400 371552 348485 189393 165050 160718 148968 143862 132038 126976 115054 159092 109807 106892 49285 45341 109953 99627 94820 8615 86205 11922 103038 11824 3666 42629 39202 34232 101331 98004
internal_count=428400 371552 348485 189393 165050 160718 148968 143862 132038 126976 115054 159092 109807 106892 49285 45341 109953 99627 94820 8615 86205 11922 103038 11824 3666 42629 39202 34232 101331 98004
is_linear=0
shrinkage=0.1


Tree=28
num_leaves=31
num_cat=0
split_feature=3 3 3 7 3 3 7 3 3 3 7 3 3 3 3 7 28 138 9 3 28 28 3 3 3 28 3 9 3 3
split_gain=49298.6 20935.9 13403.5 3437.18 2367.02 1890.89 2105.76 1838.33 2478.99 1672.53 1586.79 1562.68 1548.41 1626.55 2953.07 1540.57 4580.31 1466.48 1295.58 2544.48 1118.37 1067.95 1681.41 1323.64 2372.57 1682.42 1919.1 1074.77 1858.19 2166.45
threshold=15.435 421.77000000000004 71.295000000000016 207.06500000000003 204.12250000000003 43.195000000000007 70.325000000000003 44.195000000000007 45.82500000000001 46.445000000000007 42.07500000000001 48.082500000000003 41.157500000000006 39.755000000000003 38.482500000000009 214.81500000000003 220.45250000000001 -0.48000000000001103 49.125000000000007 49.975000000000001 46.712500000000013 37.517500000000005 36.592500000000008 35.492500000000007 34.342500000000008 33.357500000000009 32.602500000000006 31.515000000000004 30.862500000000001 29.545000000000005
decision_type=2 2 2 10 2 2 10 2 2 2 10 2 2 2 2 10 10 10 10 2 10 10 2 2 2 10 2 10 2 2
left_child=-1 2 5 4 17 10 7 -7 -9 -10 12 20 13 14 21 -5 -17 -4 -13 -20 -11 22 23 24 25 26 27 28 29 -2
right_child=1 -3 3 15 -6 6 -8 8 9 11 -12 18 -14 -15 -16 16 -18 -19 19 -21 -22 -23 -24 -25 -26 -27 -28 -29 -30 -31
leaf_value=-0.70375735147059482 0.016322426727706587 19.781432268859184 -0.026623699621299582 -0.43430681750478473 0.12167103486638667 -0.016904084527575948 0.053970269066398659 0.047721020659441393 -0.013613740599493697 -0.0065088918125276512 0.072007763249042261 -0.014579963746751901 -0.01738281886276738 0.086892758992804187 -0.024151920442174915 0.22627441362720901 -0.33843029062017538 -0.0039448285550946595 0.043282585379764531 0.0002485738120284964 0.052954855030812813 0.074998834559519167 -0.010866236768488947 0.050389500780270428 -0.013073827183260535 0.042390768718674823 -0.023037268924758082 0.085030390074292944 -0.013969777772386749 0.059480253508131048
leaf_weight=55101 34015 21358 74019 4890 2080 3506 2825 5126 3446 1204 3564 3152 3218 3334 3409 2962 36300 74050 3699 54514 3809 2340 2694 3393 3375 4134 2522 2480 2702 5179
leaf_count=55101 34015 21358 74019 4890 2080 3506 2825 5126 3446 1204 3564 3152 3218 3334 3409 2962 36300 74050 3699 54514 3809 2340 2694 3393 3375 4134 2522 2480 2702 5179
internal_value=-0.0103646 0.00266837 -0.00316559 -0.0207436 -0.0135312 0.0185004 0.00788499 0.00483073 0.00814143 0.00321379 0.0298 0.00674019 0.0266103 0.0297469 0.0263167 -0.0452709 -0.0386786 -0.0150193 0.00235476 0.00573583 0.0604229 0.0312347 0.0286706 0.0322699 0.0284908 0.0338611 0.0284703 0.0332928 0.0295064 0.035036
internal_weight=428400 373299 351941 194301 150149 157640 81281 78456 74950 69824 76359 66378 72795 69577 66243 44152 39262 148069 61365 58213 5013 62834 60494 57800 54407 51032 46898 44376 41896 39194
internal_count=428400 373299 351941 194301 150149 157640 81281 78456 74950 69824 76359 66378 72795 69577 66243 44152 39262 148069 61365 58213 5013 62834 60494 57800 54407 51032 46898 44376 41896 39194
is_linear=0
shrinkage=0.1


Tree=29
num_leaves=31
num_cat=0
split_feature=3 7 3 7 7 174 3 9 3 3 28 3 7 3 3 28 3 138 3 7 125 9 3 3 28 7 7 3 28 7
split_gain=47047.3 19638.4 12022.2 3144.62 2417.47 2245.72 1985.14 1575.59 1745.85 1977.85 2023.59 2586.61 2457.84 3134.35 1561.82 3259.06 1412.69 1383.8 1264.38 965.551 952.224 725.977 842.624 723.394 2797.66 764.244 710.865 982.915 2006.75 1503.26
