tree
version=v4
num_class=1
num_tree_per_iteration=1
label_index=0
max_feature_idx=246
objective=regression_l1
feature_names=Column_0 Column_1 Column_2 Column_3 Column_4 Column_5 Column_6 Column_7 Column_8 Column_9 Column_10 Column_11 Column_12 Column_13 Column_14 Column_15 Column_16 Column_17 Column_18 Column_19 Column_20 Column_21 Column_22 Column_23 Column_24 Column_25 Column_26 Column_27 Column_28 Column_29 Column_30 Column_31 Column_32 Column_33 Column_34 Column_35 Column_36 Column_37 Column_38 Column_39 Column_40 Column_41 Column_42 Column_43 Column_44 Column_45 Column_46 Column_47 Column_48 Column_49 Column_50 Column_51 Column_52 Column_53 Column_54 Column_55 Column_56 Column_57 Column_58 Column_59 Column_60 Column_61 Column_62 Column_63 Column_64 Column_65 Column_66 Column_67 Column_68 Column_69 Column_70 Column_71 Column_72 Column_73 Column_74 Column_75 Column_76 Column_77 Column_78 Column_79 Column_80 Column_81 Column_82 Column_83 Column_84 Column_85 Column_86 Column_87 Column_88 Column_89 Column_90 Column_91 Column_92 Column_93 Column_94 Column_95 Column_96 Column_97 Column_98 Column_99 Column_100 Column_101 Column_102 Column_103 Column_104 Column_105 Column_106 Column_107 Column_108 Column_109 Column_110 Column_111 Column_112 Column_113 Column_114 Column_115 Column_116 Column_117 Column_118 Column_119 Column_120 Column_121 Column_122 Column_123 Column_124 Column_125 Column_126 Column_127 Column_128 Column_129 Column_130 Column_131 Column_132 Column_133 Column_134 Column_135 Column_136 Column_137 Column_138 Column_139 Column_140 Column_141 Column_142 Column_143 Column_144 Column_145 Column_146 Column_147 Column_148 Column_149 Column_150 Column_151 Column_152 Column_153 Column_154 Column_155 Column_156 Column_157 Column_158 Column_159 Column_160 Column_161 Column_162 Column_163 Column_164 Column_165 Column_166 Column_167 Column_168 Column_169 Column_170 Column_171 Column_172 Column_173 Column_174 Column_175 Column_176 Column_177 Column_178 Column_179 Column_180 Column_181 Column_182 Column_183 Column_184 Column_185 Column_186 Column_187 Column_188 Column_189 Column_190 Column_191 Column_192 Column_193 Column_194 Column_195 Column_196 Column_197 Column_198 Column_199 Column_200 Column_201 Column_202 Column_203 Column_204 Column_205 Column_206 Column_207 Column_208 Column_209 Column_210 Column_211 Column_212 Column_213 Column_214 Column_215 Column_216 Column_217 Column_218 Column_219 Column_220 Column_221 Column_222 Column_223 Column_224 Column_225 Column_226 Column_227 Column_228 Column_229 Column_230 Column_231 Column_232 Column_233 Column_234 Column_235 Column_236 Column_237 Column_238 Column_239 Column_240 Column_241 Column_242 Column_243 Column_244 Column_245 Column_246
feature_infos=[0:59] [0:2759.6876344887746] [-1:1] [0:4948.29] [0:6203.703558423389] [0:5002.0600000000004] [0:5000] [1.1100000000000001:4947.6300000000001] [3.1952327434210506e-06:244.70859082200923] [1.1200000000000001:4953] [8.5435873149326554e-06:258.87333777364455] [0:6203.703558423389] [0:6660.7020465537516] [0:inf] [0:inf] [6.74025372770619e-05:336.85992966796482] [0.00019800484259915546:175.69691695874266] [0.00020637561371018609:12917.779554904862] [6.769317318061601e-05:12284.080926219727] [0:3446902.33258997] [0:3499414.3373793382] [1.3876777545819733e-05:6660.7041460138998] [4.3890411552927766e-05:6204.1464817829383] [0.0010821228330219737:12813.356054875367] [0.0019626113233637901:24645.834279522591] [4.6568602968222212e-05:493.55789678475793] [0:12813.184706627899] [0:6917248.9196489938] [1.1150000000000002:4950.3150000000005] [0:5001.0300000000007] [-95.150000000000034:19.860000000000582] [0.69494405437465923:1.0521739130434784] [-2759.6876344887746:946.00874666844425] [-inf:inf] [0:4810.9054293485215] [-1350.8204690271252:4810.9054293485215] [-inf:inf] [-inf:inf] [-71.496302601350692:228.66719040531848] [0:5886120] [0:1708291] [0:18158799] [0:23583903] [0:219372] [0:3026466.5] [0:18158799] [0:23583903] [0:18159736.809172135] [0:23583903] [-0.9997966859814984:0.99993212516120278] [-0.99979653312936712:0.99993218608807666] [-0.99999967112148413:1] [-0.99999967124598632:1] [-1:1] [-1:1] [-0.99809705042816355:0.99913081269013471] [-0.51745068285280726:1] [-0.077519379844961225:1] [-1:0.00059772863120142192] [-1:0.017944535073409516] [-1:0.0088924818108326847] [-1:0.51745068285280726] [-1:0.51745068285280726] [-1:0.51821862348178149] [-1:0.51783455603339235] [-1:0.077519379844961225] [-1:0.081712062256809326] [-1:0.079611650485436836] [-0.17997994968505876:0.025423728813559344] [-0.09888899281846629:0.012552301255230139] [-0.012875536480686706:0.082560369287369054] [2.1194468474734722:17.564325399804794] [-67.964285714285737:11.481308411214773] [-0.12855710691789912:0.01516601481234915] [0:3482374.4635682083] [0:219045.49309309581] [0:3479214.4164598482] [0:220497.5557731135] [0:3476028.404065799] [0:235333.97721290943] [0:3475507.8784922031] [0:242610.1472351471] [0.00036799489517481412:6204.2195577812499] [0:543.80933804275344] [0.00036799489517481412:6195.5529877259933] [0:762.00113697766494] [0.001057725361609858:6194.9407200380301] [0:853.12805895528197] [0.001057725361609858:6194.6422722077969] [0:961.09418194655757] [-1:1] [0:0.71859306116871946] [-1:1] [0:0.58482030264701912] [-1:1] [0:0.71999850098859286] [-1:1] [0:0.71999850098859286] [-156:567] [0:230.36421670846437] [-156:566.55555555555554] [0:221.20756071941602] [-156:566.23199999999997] [0:281.68757324977776] [-156:566.23199999999997] [0:282.32638101828741] [-0.98675958188153323:0.99913081269013471] [0:1.1783286794994889] [-0.98683421098222524:0.99913081269013471] [0:1.1783286794994889] [-0.9801753063897426:0.97239075125115326] [0:1.1783286794994889] [-0.9801753063897426:0.97239075125115326] [0:1.1783286794994889] [-2759.6876344887746:764.78644883336278] [0:571.95746155447625] [-2759.6876344887746:724.02333303381806] [0:669.68282687936357] [-2759.6876344887746:724.02333303381806] [0:760.59550902225499] [-2759.6876344887746:724.02333303381806] [0:850.8385290667801] [-1:0.0088924818108326847] [0:0.52717767691330253] [-1:0.0088924818108326847] [0:0.51638369909775683] [-1:0.0088924818108326847] [0:0.51638369909775683] [-1:0.0088924818108326847] [0:0.51638369909775683] [-669.20453715947565:744.92179201479235] [-6.8600000000005821:12.050000000000182] [-inf:10.141263940520446] [-18.289999999999964:20.219999999999345] [-19.770000000000437:35.140000000000327] [-23.769999999999527:19.850000000000364] [-25.520000000000437:18.409999999999854] [-17.259999999999309:15.730000000000473] [-22.859999999999673:33.380000000000109] [-20.159999999999854:18.520000000000437] [-22.380000000000109:19.949999999999818] [-1.0775193798449612:0.034488828398034181] [-1.0775193798449612:0.046944198405668762] [-1.0775193798449612:0.045785259150074586] [-1.0775193798449612:0.046944198405668762] [-38.198983137882664:39.786216828908657] [-38.080944778869906:55.520433140430228] [-20.437780883690152:55.520433140430228] [-38.454641309758728:55.520433140430228] [-237.71764798189989:336.79325113873523] [-237.24192725349903:334.89291305569145] [-335.69305540644672:333.52600320648457] [-147.26067269599545:335.02627011415069] [-17.634999999999309:17.974999999999454] [-21.3149999999996:34.260000000000218] [-21.964999999999236:19.184999999999491] [-22.834999999999127:18.684999999999491] [-60.35735083053082:36.380744496844514] [-60.460722956467748:36.380744496844514] [-60.460722956467748:35.544947139690066] [-60.460722956467748:36.380744496844514] [-0.024301336573511634:0.033864158372525432] [-0.032677691472479786:0.033864158372525432] [-0.05362025593350106:0.033864158372525432] [-0.025047945247446579:0.033864158372525432] [-9827.5138888888887:9832.3157142857144] [-13353.686274509804:9832.3157142857144] [-8556.9359627329177:9835.663335086796] [-13352.5:9832.9414285714283] [-16.414769736842331:18.989187199093024] [-14.137254901960624:18.123636363636887] [-13.504381270902716:19.397515151515208] [-14.091308411214445:18.193777777777619] [-16.641777157478483:inf] [-10.072072072072071:10.141263940520446] [-372.66666666666669:inf] [-372.66666666666669:inf] [0:4938.7600000000002] [0:4938.7600000000002] [0:4938.7600000000002] [0:4938.7600000000002] [0:4708.6400000000003] [0:4708.6400000000003] [0:4708.6400000000003] [0:4708.6400000000003] [0:4600.6499999999996] [0:4600.6499999999996] [0:4600.6499999999996] [0:4600.6499999999996] [-inf:inf] [-1.0105123020768176:1.4551286100935068] [-inf:inf] [-1.0188482700840227:1.3210025443611011] [-inf:inf] [-1.0163958355763931:1.3623834423063002] [-inf:inf] [-1.2435233160621761:1.3992516435670175] [-1:1] [-2:2] [-1:1] [-2:2] [-1:1] [-2:2] [-1:1] [-2:2] [-inf:inf] [-2144.5870783886685:643.56598567958702] [-inf:inf] [-2338.725137403932:648.70349368482357] [-inf:inf] [-4532.6160469642909:904.37183866519126] [-inf:inf] [-2186.299180579158:1086.2881823556704] [0:inf] [-6.584174708949007:60.962926951220297] [0.054884657067657543:inf] [-3.2420941213100392:72.08585104499933] [0.099018733273862625:inf] [-3.120614195596719:100.0650932985037] [0.099018733273862625:inf] [-3.0617148376751095:121.34718114160785] [0:5000.1991041490583] [0:4994.1845970774621] [0:4986.4734919467392] [0:4936.661006565334] [0:4999.1693180716866] [0:4988.1889660010447] [0:4976.898356543622] [0:4927.8395048461616] [-6.7095711544682501:1179.2826664479335] [-5.9364503634772916:1243.2542839589055] [-1.9281563771306196:737.97050133038465] [-3.5370647269464826:1176.0119593811869] [-1.7065381194420297:1242.996726930493] [0:737.81804241552436] [-4.7799588051686772:1022.6402217108116] [-5.6359124937022953:1139.2633656762375] [-1.7277635236023168:715.7816723073197] [-2.9669344998882616:1022.4305847816422] [-1.0950679571599906:1138.4640369437429] [0:715.63539445908043] [-192.17169492093376:588.12835365715114] [-118.62070308270586:431.48438352858778] [-47.637720501531248:182.68441658794026] [-192.35623961513772:591.129851003304] [-118.53596442928244:433.89121787848842] [-47.816742170403927:182.17590213503922]
tree_sizes=2741 2954 2987 3005 3011 3036 3035 3048 3060 3063 3070 3059 3109 3096 3080 3102 3113 3085 3108 3110 3107 3106 3106 3111 3108 3102 3125 3090 3110 3119 3121 3130 3131 3110 3137 3132 3115 3131 3114 3137 3116 3133 3124 3131 3109 3133 3113 3129 3071 3117 3093 3087 3120 3130 3113 3106 3122 3118 3096 3123 3128 3128 3125 3127 3135 3145 3096 3091 3159 3151 3106 3095 3105 3175 3103 3138 3135 3135 3148 3096 3126 3132 3129 3118 3139 3099 3118 3070 3098 3081 3096 3124 3117 3140 3113 3113 3120 3143 3111 3096 3074 3104 3059 3117 3117 3054 3138 3104 3076 3108 3102 3101 3103 3110 3139 3089 3148 3062 3047 3152 3134 3081 3104 3122 3084 3119 3051 3101 3077 3067 3095 3123 3081 3083 3099 3072 3184 3179 3071 3111 3092 3091 3096 3144 3068 3096 3091 3164 3106 3139 3148 3086 3101 3072 3062 3111 3098 3061 3059 3104 3104 3093 3032 3081 3036 3038 3130 3082 3042 3109 3155 3065 3149 3101 3088 3116 3067 3137 3120 3071 3040 3115 3119 3068 3086 3087 3066 3087 3115 3093 3087 3112 3119 3077 3093 3064 3095 3094 3147 3045 3050 3089 3132 3088 3077 3048 3156 3092 3003 3085 3135 3059 3113 3161 3084 3117 3084 3074 3089 3078 3075 3120 3097 3122 3037 3104 3108 3060 3066 3093 3097 3079 3140 3086 3111 3118 3106 3093 3110 3159 3131 3136 3084 3106 3062 3074 3082 3117 3092 3106 3064 3097 3092 3091 3137 3085 3147 3098 3085 3043 3128 3134 3078 3092 3112 3065 3035 3054 3061 3057 3048 3050 3050 3025 3053 3066 3057 3075 3083 3064 3084 3075 3059 3091 3064 3112 3135 3095 3061 3048 3100 3037 3106 3035 3042 3045 3003 3024 3034 2983 3130 3143 3119 3101 3084 3078 3106 3144 3101 3132 3126 3092 3104 3040 3119 3060 3085 3158 3100 3096 3092 3038 3060 3073 3108 3115 3072 3094 3109 3045 3074 3076 3117 3076 3063 3051 3058 3098 3098 3118 3050 3078 3064 3067 3113 3049 3049 3090 3086 3085 3075 3144 3118 3062 3056 3142 3152 3115 3144 3112 3050 3057 3047 3041 3068 3043 3076 3087 3088 3098 3059 3060 3095 3055 3103 3128 3070 3130 3148 3088 3091 3107 3072 3098 3066 3044 3068 3085 3060 3065 3062 3064 3068 3053 3090 3052 3058 3156 3098 3116 3055 3034 3091 3041 3032 3009 3032 3026 3032 3070 3030 3020 2994 3134 3066 3025 3078 3146 3105 3087 3058 3083 3076 3081 3077 3123 3063 3066 3121 3063 3107 3111 3074 3114 3076 3123 3074 3111 3100 3091 3081 3124 3096 3133 3087 3079 3066 3044 3146 2988 3042 3103 3115 3104 3080 3114 3119 3084 3090 3084 3100 3121 3101 3118 3052 3092 3091 3119 3072 3114 3095 3090 3115 3077 3035 3104 3129 3047 3171 3044 3012 3055 3092 3028 3097 3059 3066 3043 3120 3049 3075 3083 3023 3122 3078 3030 3079 3083 3113 3071 3081 3104 3106 3094 3132 3093 3128 3132 3073 3054 3132 3107 3053 3102 3116 3089 3149 3097 3123 3080 3120 3106 3111 3113 3080 3059 3109 3073 3109 3058 3070 3037 3057 3061 3071 3070 3046 3040 3004 3047 3023 3029 3024 3033 3023 3027 3034 3075 3083 3013 3025 2982 3051 3058 3046 3037 3045 3036 3037 3076 3031 3047 3103 3133 3109 3041 3104 3093 3085 3115 3097 3057 3154 3113 3055 3038 3111 3063 3028 3080 3065 3063 3100 3091 3064 2997 3075 3107 3051 3047 3066 3053 3110 3115 3069 3041 3081 3100 3148 3081 3119 3072 3125 3122 3138 3055 3030 3037 3040 3066 3096 3105 3083 3073 3065 3074 3133 3099 3056 3093 3071 3136 2988 3026 3073 3071 3050 3093 3054 3072 3004 3129 3072 3051 3131 3129 3108 3090 3115 3124 3085 3076 3112 3121 3108 3122 3098 3124 3032 3156 3096 3057 3104 3124 3078 3098 3100 3125 3069 3091 3128 3102 3102 3104 3113 3089 3056 2981 3086 3102 3099 3094 3076 3073 3053 3111 3086 3028 3101 3092 3090 3062 3072 3059 3091 3071 3014 3060 3071 3035 3052 2993 3050 3054 3076 3041 3014 2996 3000 2983 3079 3076 3114 3071 3088 3021 3048 3067 3102 3115 3044 3021 3053 3042 3044 3085 3083 3070 3074 3087 3024 3084 3111 3043 3059 3025 3068 3091 3084 3059 3046 3065 3086 3092 3043 3072 3114 3047 3066 3048 3092 3091 3093 3086 3078 3148 3101 3096 3009 3114 3068 3085 3099 3029 3076 3032 3082 3056 3079 3088 3050 3086 3050 3074 3054 3073 3052 3060 3074 3061 2998 3005 3081 3102 3032 3006 2991 2981 3012 3055 3087 3041 3092 3089 3076 3040 3029 3040 3061 3035 3078 3043 3036 3026 3006 3149 3068 3010 3024 3076 3004 3052 3016 3055 3049 3062 3035 3049 3082 3066 3065 3077 3090 3070 3009 3031 2989 3026 3057 3015 3071 3058 3097 3014 2990 3017 3048 3014 3030 2988 2973 3027 2996 2978 3036 3042 2989 3012 3004 2958 2994 2996 2979 2996 2978 2918 2934 2974 2981 2982 2958 2985 3009 3004 3003 3004 3013 3018 2960 3031 3006 3002 2941 2914 2934 2891 2975 3005 3061 2977 3016 3017 3022 3068 2987 3006 3033 2986 2972 3001 3030 2973 2956 2989 2965 2977 2964 2997 3052 3011 2978 2994 2938 2983 2977 2969 3012 2973 3020 2976 2972 3014 3022 2994 2989 2952 2982 2983 3003 3032 2961 2998 3001 3002 2975 3013 3025 2992 2987 2953 2962 2946 2999 2967 2949 2956 2988 2966 3003 2971 2954 2989 3027 2970 3017 3035 2982 3008 3010 2982 2952 2989 3045 3010 2967 2959 2997 2967 2982 3044 2992 2965 2964 2946 2937 2977 2955 2991 2999 3012 2971 2972 2978 3012 2963 2960 2948 2953 3052 2996 2994 3004 3003 3003 2969 2972 2967 3020 2999 3009 3066 2988 3003 2989 3039 2959 2979 2965 2968 2998 2957 2957 3010 2974 2962 2978 3040 2954 2989 2977

Tree=0
num_leaves=31
num_cat=0
split_feature=3 3 28 13 196 61 92 221 61 188 118 126 117 212 155 127 188 14 87 37 243 7 55 1 179 207 192 101 28 7
split_gain=1.25199e+06 811.474 1768.14 215.961 127.035 109.053 102.956 172.361 72.849 41.9736 44.6398 25.2603 34.3171 22.5303 20.0083 20.0007 52.0725 68.8696 18.8532 11.0461 10.9546 10.5666 32.9517 7.645 5.84037 4.43968 3.32119 9.13461 3.28385 68.8354
threshold=72.00500000000001 71.302500000000023 71.887500000000017 3.9801271142647527 0.037309779114226178 -0.0043565360010922489 0.07975512684322765 68.564612976755882 -0.0049031098822036228 192.97597222222223 -19.35066810229527 -6.7406326807130658e-05 8.5571277933446073 -1.6661364591950631 -0.11500000000000553 0.00010575097213081408 186.18084656084659 0.89629998633589236 0.16800969882105835 3.730801562771731 -0.58818422993637742 72.015000000000015 -0.088874066914056846 0.023357285498335142 56.26166666666667 1.9677141688907434 0.015514513219104785 0.035595841411518905 202.25250000000003 203.00500000000002
decision_type=2 2 10 10 10 10 10 2 8 10 2 10 10 8 10 10 10 10 10 10 2 10 10 2 8 10 10 10 10 10
left_child=1 28 6 4 13 18 15 8 -8 11 -11 25 -13 -4 -6 19 23 -18 -5 24 -20 22 -2 -17 -3 -10 -25 -28 -1 -30
right_child=21 2 3 5 14 -7 7 -9 9 10 -12 12 -14 -15 -16 16 17 -19 20 -21 -22 -23 -24 26 -26 -27 27 -29 29 -31
leaf_value=68.175001525878912 71.898001098632818 71.874501419067386 71.900001525878906 71.899001312255862 71.90100173950195 71.894001007080078 71.902001190185544 71.915001678466794 71.871001434326175 71.859001159667969 71.904001617431646 71.861001586914057 71.906001281738284 71.91000137329101 71.897001647949224 71.898001480102536 71.829001617431643 71.911001586914068 71.900001525878906 71.864001464843753 71.902001190185544 79.408000946044922 71.91000137329101 71.860501480102542 71.863001251220709 71.858501434326172 71.897001266479492 71.850001525878909 64.710001373291021 64.710001373291021
leaf_weight=626193 28 32 20 20 20 109 24 74 404 23 31 38 22 713 40 20 33 36 21 25 65 633014 111 280 2996 20 26 50 148 3764
leaf_count=626193 28 32 20 20 20 109 24 74 404 23 31 38 22 713 40 20 33 36 21 25 65 633014 111 280 2996 20 26 50 148 3764
internal_value=71.9 71.8008 71.8404 71.9591 71.9832 71.8702 71.8114 71.8484 71.8295 71.8219 71.9056 71.8126 71.8733 71.9947 71.8433 71.8047 71.8245 71.9043 71.9425 71.8018 71.9628 71.9995 71.9719 71.8098 71.8013 71.804 71.8065 71.825 71.8005 71.8034
internal_weight=1.2684e+06 635247 5142 1008 793 215 4134 636 562 538 54 484 60 733 60 3498 445 69 106 3053 86 633153 139 376 3028 424 356 76 630105 3912
internal_count=1268400 635247 5142 1008 793 215 4134 636 562 538 54 484 60 733 60 3498 445 69 106 3053 86 633153 139 376 3028 424 356 76 630105 3912
is_linear=0
shrinkage=1


Tree=1
num_leaves=31
num_cat=0
split_feature=3 3 3 28 9 7 28 14 13 4 61 196 92 221 122 61 114 5 129 116 3 12 118 61 119 76 142 28 202 103
split_gain=1.15122e+06 31880.9 54046.1 6614.7 2218.77 893.305 1949.62 299.491 233.405 185.035 175.402 157.078 99.7509 164.449 99.6918 92.5018 84.6177 83.9567 73.1596 56.5331 50.3524 87.457 133.929 85.3042 61.0918 49.3201 48.898 45.4636 53.8207 84.0256
threshold=79.765000000000015 68.015000000000015 71.302500000000023 79.402500000000018 68.215000000000018 72.015000000000015 71.887500000000017 1.1202321045579395 4.0420871368477309 0.2237446667570491 -1.0000000180025095e-35 0.037309779114226178 0.07975512684322765 68.564612976755882 -0.00017797711265461852 -0.0043565360010922489 -8.912359742245771 65.335000000000022 2.9872482062219784e-05 -9.0954638501871212 78.795000000000016 76.980128536651378 -9.03026726347594 0.00082961321843120172 5.201790115959807 7042.4797948323549 -0.00061166100724550823 68.902500000000018 1.0000000180025095e-35 0.14759109279010502
decision_type=2 2 2 10 10 10 10 10 10 2 10 10 10 2 10 10 2 2 8 2 2 2 2 10 8 2 10 10 10 10
left_child=1 -1 4 5 7 6 12 17 11 -6 26 -8 -4 18 16 -10 -5 -3 -14 -20 -7 22 24 25 -22 -24 -9 28 -11 -30
right_child=-2 2 3 14 9 20 8 10 15 27 -12 -13 13 -15 -16 -17 -18 -19 19 -21 21 -23 23 -25 -26 -27 -28 -29 29 -31
leaf_value=-3.4715002441406257 7.6761997222900398 -0.005499877929688069 -0.033300247192383385 0.014200210571289062 -0.033500518798828698 -0.3978000640869141 0.0089998626708990056 0.00049987792968693163 0.00080024719238309678 0.03649993896484318 0.0055001831054681816 -0.0017004394531255685 0.0017996978759768469 0.013500137329101847 0.014200210571289062 -0.0054004669189453127 -0.0018001556396484376 -0.010999908447266194 -0.030100173950195597 0.0032500457763667613 0.0011997222900390625 -0.039799880981445317 -0.036800003051757811 0.018199539184570315 -0.0018001556396484376 -0.00079994201660156257 -0.0035002136230474438 0.19850021362304632 -0.0094999694824224445 0.050499877929686937
leaf_weight=605460 583281 221 3498 61 73 44657 855 23 110 3294 178 73 64 74 2041 109 93 582 450 48 89 1969 701 27 24 71 81 20087 41 65
leaf_count=605460 583281 221 3498 61 73 44657 855 23 110 3294 178 73 64 74 2041 109 93 582 450 48 89 1969 701 27 24 71 81 20087 41 65
internal_value=-0.00375473 -0.0916585 -0.0321872 -0.0873178 0.0908785 -0.0943865 -0.0553683 -0.0489401 0.0599826 0.0973175 0.0397163 0.0818966 -0.087373 -0.0509434 0.082779 -0.0328767 0.00519481 -0.0800747 -0.069395 -0.0823293 -0.098721 -0.0859077 -0.060307 -0.0747184 0.0415929 -0.080829 -0.0634615 0.0978116 0.0871176 0.0169811
internal_weight=1.2684e+06 685119 79659 55014 24645 52819 5281 1085 1147 23560 282 928 4134 636 2195 219 154 803 562 498 47538 2881 912 799 113 772 104 23487 3400 106
internal_count=1268400 685119 79659 55014 24645 52819 5281 1085 1147 23560 282 928 4134 636 2195 219 154 803 562 498 47538 2881 912 799 113 772 104 23487 3400 106
is_linear=0
shrinkage=0.1


Tree=2
num_leaves=31
num_cat=0
split_feature=3 3 3 9 28 7 28 67 28 37 61 6 9 114 22 5 14 13 33 136 3 28 128 3 212 3 9 191 4 14
split_gain=1.0567e+06 54002.2 107410 3553.45 1909.56 846.977 1792.08 509.648 487.662 433.205 269.142 433.482 268.403 351.027 274.686 249.078 242.744 237.659 228.572 188.461 158.004 5580.22 157.834 146.568 142.187 104.249 2163.78 323.849 158.055 128.71
threshold=87.405000000000015 64.405000000000015 71.302500000000023 64.615000000000023 87.112500000000026 72.015000000000015 71.887500000000017 0.046291778441994703 65.122500000000016 0.65951301330605461 -0.0011740764004302318 65.00500000000001 86.535000000000011 -49.813188938616221 13.703320013031076 88.50500000000001 1.3928250051796685 4.0420871368477309 -0.65508563200750081 -0.56999999999996465 79.765000000000015 79.402500000000018 -0.00018568489651182816 79.765000000000015 -0.65786532447956858 68.015000000000015 68.215000000000018 -0.24445308807390903 0.2237446667570491 1.1261868132117505
decision_type=2 2 2 10 10 10 10 10 10 8 10 2 10 2 10 2 10 10 10 10 2 10 10 2 8 2 10 10 2 10
left_child=1 -1 3 -3 5 6 -4 12 9 10 -5 16 20 19 -15 18 -12 24 -6 -14 21 -7 -23 -9 -8 -10 27 29 -28 -27
right_child=-2 2 4 8 15 7 17 23 25 -11 11 -13 13 14 -16 -17 -18 -19 -20 -21 -22 22 -24 -25 -26 26 28 -29 -30 -31
leaf_value=-3.2488501129150396 8.1888302993774413 -0.026349884033203354 -0.028970008850097886 0.027650207519531025 -0.0034197616577145598 -0.34301990509033264 -0.00089998626709046907 0.0097795486450195316 0.18564962768554666 0.024649566650390399 -0.0063501892089846031 0.050150054931640403 -0.01741970062255831 0.0025799942016604405 -0.034420280456542683 -0.0044199752807614345 0.012650054931640398 -0.00088019561767680452 0.013829917907715129 0.01007968902587919 -0.41942012786865207 -0.00061992645263728727 0.012780189514160156 -0.52841976165771454 0.0080998764038085376 -0.0059501037597655682 -0.030150466918945542 -0.0094001922607432689 0.15864973449706954 0.0054498901367182389
leaf_weight=580157 533356 1036 4134 686 137 47536 85 180 20961 1645 619 247 66 166 2732 144 109 219 1054 184 45394 171 1846 48 843 191 73 730 23487 164
leaf_count=580157 533356 1036 4134 686 137 47536 85 180 20961 1645 619 247 66 166 2732 144 109 219 1054 184 45394 171 1846 48 843 191 73 730 23487 164
internal_value=-0.00770214 -0.085452 -0.0329937 0.0877112 -0.0904459 -0.0919771 -0.0529635 -0.0940726 0.0915931 0.054507 0.0184828 -0.0152821 -0.0944197 -0.0656925 -0.0755003 0.0283895 -0.0541209 0.0576286 0.0434089 0.048 -0.0953722 -0.0914677 0.0714427 0.0552632 0.0797414 0.0942815 0.0898722 -0.0482028 0.0962309 0.0301408
internal_weight=1.2684e+06 735044 154887 49948 104939 103604 5281 98323 48912 3306 1661 975 98095 3148 2898 1335 728 1147 1191 250 94947 49553 2017 228 928 45606 24645 1085 23560 355
internal_count=1268400 735044 154887 49948 104939 103604 5281 98323 48912 3306 1661 975 98095 3148 2898 1335 728 1147 1191 250 94947 49553 2017 228 928 45606 24645 1085 23560 355
is_linear=0
shrinkage=0.1


Tree=3
num_leaves=31
num_cat=0
split_feature=3 3 3 28 28 3 28 7 28 9 28 1 28 3 9 112 54 57 14 55 66 38 53 76 55 188 114 4 70 58
split_gain=961302 73698.9 149813 3872.36 1470.25 1340.55 10406.2 1157.43 1736.59 824.408 459.689 302.244 274.736 1746.54 771.799 347.956 367.072 298.896 295.389 274.299 298.559 310.944 265.146 254.058 250.379 237.785 207.494 201.063 196.591 1161.53
threshold=95.375000000000014 61.055000000000007 71.302500000000023 61.732500000000009 95.107500000000016 79.765000000000015 78.56750000000001 72.015000000000015 71.887500000000017 61.145000000000003 79.402500000000018 10.548178023641333 68.902500000000018 68.015000000000015 68.215000000000018 0.026928188790090041 0.096899511252052553 -0.046656200272400812 1.1202321045579395 -0.080553493085920733 0.01266956765054947 -0.30278230009405777 -0.89408684394834792 2149.9258585142484 0.043780797619882274 151.74879629629632 41.237520931179951 86.447903898138307 -3.9057923137959448e-05 -7.7011936850178217e-05
decision_type=2 2 2 10 10 2 10 10 10 10 10 2 10 2 10 10 10 10 10 10 10 10 10 2 10 10 2 2 10 10
left_child=1 -1 3 9 5 6 7 8 -4 -3 19 -6 13 17 18 26 24 -5 -15 -8 21 -21 23 -11 -17 -25 -16 -22 -19 -30
right_child=-2 2 4 12 11 -7 10 -9 -10 22 -12 -13 -14 14 15 16 -18 28 -20 20 27 -23 -24 25 -26 -27 -28 -29 29 -31
leaf_value=-3.0754650405883797 8.3666971473693845 -0.043465071105957521 -0.026073007965088379 -0.024715109252929326 0.0066965370178223797 -0.36547784042358417 0.012281993865966002 -0.3447179756164559 0.0057899497985843601 0.0095348068237299799 0.010501956939697266 -0.016303035736083871 0.16278521881103389 -0.0084601730346690832 0.021984513854980039 0.028985246276855038 0.0099850021362300374 0.15008484802246047 0.0024047485351559317 -0.0067182502746589989 0.011981548309326229 0.0032815971374503764 0.0065349288940424804 -0.014464979553223145 -0.011014906311035589 0.0015350051879877925 -0.018014875793457463 -0.025518451690673773 -0.00071486511230460796 0.14808518371581983
leaf_weight=555377 484440 829 4134 171 752 97791 681 42376 1147 578 2195 298 20088 803 2019 292 572 34727 282 240 65 3740 1664 816 464 249 125 436 1370 9679
leaf_count=555377 484440 829 4134 171 752 97791 681 42376 1147 578 2195 298 20088 803 2019 292 572 34727 282 240 65 3740 1664 816 464 249 125 436 1370 9679
internal_value=-0.0113403 -0.0797747 -0.0319827 0.08418 -0.0884034 -0.0892137 -0.0767259 -0.0938141 -0.0496686 -0.0098646 0.0339676 0.0295238 0.08969 0.0857556 0.0267062 0.049712 0.00948795 0.0916121 -0.0469124 0.0176676 0.0086811 0.0178392 0.0124887 -0.0160073 -0.0362434 -0.0449765 0.0746269 -0.0640719 0.092105 0.0804869
internal_weight=1.2684e+06 783960 228583 74728 153855 152805 55014 47657 5281 4136 7357 1050 70592 50504 4557 3472 1328 45947 1085 5162 4481 3980 3307 1643 756 1065 2144 501 45776 11049
internal_count=1268400 783960 228583 74728 153855 152805 55014 47657 5281 4136 7357 1050 70592 50504 4557 3472 1328 45947 1085 5162 4481 3980 3307 1643 756 1065 2144 501 45776 11049
is_linear=0
shrinkage=0.1


Tree=4
num_leaves=31
num_cat=0
split_feature=3 3 3 9 3 28 3 3 7 28 25 70 6 28 28 3 9 9 3 9 58 28 28 37 28 13 14 7 3 9
split_gain=850653 100391 189213 4223.97 1826.65 9604.22 2002.43 12102.8 1432.45 1290.44 671.105 1000.77 710.507 521.365 481.349 1579.79 701.865 501.028 2824.68 1547.29 688.051 461.758 404.252 474.867 409.642 403.416 465.038 391.854 3506.39 1032.04
threshold=104.08750000000002 58.395000000000003 71.302500000000023 103.49500000000002 87.405000000000015 86.097500000000011 79.765000000000015 78.085000000000022 72.015000000000015 71.887500000000017 1.6116062374536935 -2.6433348386122467e-05 94.825000000000003 87.112500000000026 68.902500000000018 68.015000000000015 68.215000000000018 65.27500000000002 64.405000000000015 64.615000000000023 -7.7011936850178217e-05 103.95750000000002 79.402500000000018 -0.93581246025261 78.56750000000001 1.9933777233123944 1.6528007677998229 61.805000000000007 61.055000000000007 61.145000000000003
decision_type=2 2 2 10 2 10 2 2 10 10 10 10 2 10 10 2 10 10 2 10 10 10 10 10 10 10 10 10 2 10
left_child=1 -1 14 4 5 6 7 8 9 -4 -6 -12 -13 25 15 17 -17 18 27 -20 -21 -5 23 24 -9 -7 -27 28 -3 -30
right_child=-2 2 3 21 10 13 -8 22 -10 -11 11 12 -14 -15 -16 16 -18 -19 19 20 -22 -23 -24 -25 -26 26 -28 -29 29 -31
leaf_value=-2.8709186051940927 9.029026456069948 0.10408120407104421 -0.023465707168580253 0.00202755470275946 -0.36575531272888218 0.0095693943023675843 -0.34992996482849181 0.018753913497924657 -0.3372466053009035 0.0052109548187260664 -0.052755587387085259 -0.020755617904663383 0.011526913833618835 0.041244389724731434 0.14650669692993007 -0.005114003143312118 0.013786306610107602 0.16327620758056582 -0.02964392791748054 -0.0016237710571289201 0.010276329650878324 0.033027310562134461 0.0094517612457281075 -0.0012465442657472181 0.0029534374237059069 -0.0044303157806396603 0.01506942481994571 0.15952647460937472 -0.039118563995361913 0.004526550903320015
leaf_weight=530349 435285 25028 4134 3072 91316 2504 43402 1339 39536 1147 1673 636 676 1335 20088 1085 3472 19434 1036 1904 2929 698 2195 4211 2452 2051 633 19885 829 4066
leaf_count=530349 435285 25028 4134 3072 91316 2504 43402 1339 39536 1147 1673 636 676 1335 20088 1085 3472 19434 1036 1904 2929 698 2195 4211 2452 2051 633 19885 829 4066
internal_value=-0.0139142 -0.0731089 -0.0271655 -0.0825812 -0.0845653 -0.0754886 -0.0832771 -0.0706075 -0.0929803 -0.0440636 -0.094666 -0.0480067 0.017378 0.0420205 0.0856089 0.0821208 0.0249506 0.0855893 0.080764 0.0151474 0.0389199 0.0222812 0.0277238 0.0172957 0.0429702 0.0276793 0.000745156 0.0884958 0.0812652 0.00386108
internal_weight=1.2684e+06 833115 302766 203010 199240 104939 98416 55014 44817 5281 94301 2985 1312 6523 99756 79668 4557 75111 55677 5869 4833 3770 10197 8002 3791 5188 2684 49808 29923 4895
internal_count=1268400 833115 302766 203010 199240 104939 98416 55014 44817 5281 94301 2985 1312 6523 99756 79668 4557 75111 55677 5869 4833 3770 10197 8002 3791 5188 2684 49808 29923 4895
is_linear=0
shrinkage=0.1


Tree=5
num_leaves=31
num_cat=0
split_feature=3 3 3 28 8 3 3 3 28 3 9 7 28 9 70 9 3 3 28 1 68 28 3 28 9 14 13 9 3 9
split_gain=768374 113218 212805 7707.31 2388.12 1325.73 10560.9 1805.77 9024.23 1667.63 11253.6 1630.08 1051.54 992.669 818.566 575.844 3513.74 2414.1 520.233 509.067 498.827 491.519 489.963 3777.69 728.247 480.722 473.041 436.051 1326.4 792.649
threshold=112.84500000000001 55.065000000000005 71.302500000000023 55.577500000000008 29.450964220244877 95.375000000000014 94.585000000000022 87.405000000000015 86.097500000000011 79.765000000000015 77.985000000000014 72.015000000000015 71.887500000000017 85.645000000000024 -4.5000450095650789e-05 102.70500000000001 104.08750000000002 103.35250000000001 87.112500000000026 9.4913136486077736 8.5455478320184175e-05 112.75750000000001 61.055000000000007 61.732500000000009 61.145000000000003 0.18997287693620274 1.9933777233123944 69.145000000000024 68.015000000000015 68.215000000000018
decision_type=2 2 2 10 10 2 2 2 10 2 10 10 8 10 10 10 2 2 10 2 10 10 2 10 10 10 8 10 2 10
left_child=1 -1 3 14 22 6 7 8 9 10 11 12 -4 -11 25 -7 17 -17 -10 -19 -6 -18 -5 24 -24 -3 -12 28 -25 -30
right_child=-2 2 5 4 20 15 -8 -9 18 13 26 -13 -14 -15 -16 16 21 19 -20 -21 -22 -23 23 27 -26 -27 -28 -29 29 -31
leaf_value=-2.6808266760101329 9.1991249090957652 0.0041731714019768162 -0.021119136451721945 0.13417309510803152 0.0026730989227289116 -0.38839734127044639 0.0208202185440058 -0.35017968990325987 0.0056128058242791217 -0.34093718196868966 0.00050640201568654677 -0.30752127338409424 0.0046898593368538861 -0.013937517662049004 0.0056733011016838475 -0.029396944541930738 -0.45137557918548482 -0.0013970666122432363 0.037119950752259004 0.018824616127014339 -0.00032677900695858857 0.011124420814515191 -0.035206707595826003 0.11557356774902346 0.00092884957885672756 -0.020826828598023185 0.0093780643844610274 0.13885599671935864 -0.0046026028289816168 0.012407675949097552
leaf_weight=504952 396082 182 4134 45315 151 40479 4904 44012 5188 40213 5825 38997 1147 3189 320 4065 38929 2659 1335 1952 861 274 829 45947 3307 3596 4911 18490 1085 5070
leaf_count=504952 396082 182 4134 45315 151 40479 4904 44012 5188 40213 5825 38997 1147 3189 320 4065 38929 2659 1335 1952 861 274 829 45947 3307 3596 4911 18490 1085 5070
internal_value=-0.0162378 -0.0686839 -0.0264466 0.0794348 0.0840007 -0.0811563 -0.0755497 -0.0803036 -0.073173 -0.0807226 -0.0691606 -0.0914314 -0.0392918 -0.0953781 -0.0554417 -0.0909188 -0.0834959 -0.0259106 0.0407328 0.0236174 -0.0689723 -0.0962401 0.0852903 0.0803153 -0.0125725 -0.0684489 0.02269 0.0857576 0.0810756 0.0374817
internal_weight=1.2684e+06 872318 367366 125153 121055 242213 153855 148951 104939 98416 55014 44278 5281 43402 4098 88358 47879 8676 6523 4611 1012 39203 120043 74728 4136 3778 10736 70592 52102 6155
internal_count=1268400 872318 367366 125153 121055 242213 153855 148951 104939 98416 55014 44278 5281 43402 4098 88358 47879 8676 6523 4611 1012 39203 120043 74728 4136 3778 10736 70592 52102 6155
is_linear=0
shrinkage=0.1


Tree=6
num_leaves=31
num_cat=0
split_feature=3 3 3 24 28 3 28 9 3 7 3 28 9 7 7 3 28 3 3 3 7 28 3 9 13 28 3 28 11 1
split_gain=715528 119711 206131 4896.31 4067.57 2065.83 12571.9 2264.77 1641.59 7827.55 2759.34 13604.4 2258.63 1689.78 1340.81 1162.5 974.096 1235.18 7453.32 1658.29 7980.78 942.208 938.813 998.842 869.75 792.827 655.598 5030.34 649.155 586.333
threshold=122.71500000000002 52.612500000000004 71.302500000000023 1081.3614581194529 52.987500000000004 95.375000000000014 94.492500000000021 121.05000000000003 87.405000000000015 85.515000000000015 79.765000000000015 77.69250000000001 94.075000000000003 72.015000000000015 86.365000000000023 58.722500000000004 69.58750000000002 55.065000000000005 55.682500000000012 64.405000000000015 65.185000000000016 71.887500000000017 68.015000000000015 68.215000000000018 15.332023732316044 65.827500000000015 58.395000000000003 58.63750000000001 1.5966295856016715 0.0094616749504607377
decision_type=2 2 2 10 10 2 10 10 2 10 2 10 10 10 10 2 10 2 2 2 10 10 2 10 10 10 2 10 2 2
left_child=1 -1 3 4 -3 6 8 -7 9 10 11 13 -10 21 -11 -5 17 -6 -19 26 24 28 25 -24 -21 -22 -20 -28 -4 -9
right_child=-2 2 5 15 16 7 -8 29 12 14 -12 -13 -14 -15 -16 -17 -18 18 19 20 22 -23 23 -25 -26 -27 27 -29 -30 -31
leaf_value=-2.50374399315033 8.941211929904938 -0.0032442678085331522 0.0029928992637621834 -0.0052940248123171333 0.11525586952056842 -0.37005779024887037 0.019037993747711115 0.03721183835220359 -0.34416181246566852 -0.0058432501487743595 -0.30984334170150873 0.0047209281120302654 -0.0031614462547310041 -0.29876926811599702 0.020501888401031468 0.05225589622344913 0.14796996980132918 -0.010743962632751902 0.13875581611480642 -0.012038358270264383 0.0083915657409662 0.0042208734031689236 -0.0041423425460834556 0.020970305494688549 0.012591165960692763 0.1683914131530756 -0.0077439511886602478 0.10401621097412105 -0.020007436429597195 -0.017787703884124539
leaf_weight=485166 371507 4155 300 2417 15631 109625 6008 530 39606 5166 39567 12372 3302 37361 5192 387 14858 4981 20416 4894 4194 1147 1085 8702 345 15870 2067 44937 3834 2778
leaf_count=485166 371507 4155 300 2417 15631 109625 6008 530 39606 5166 39567 12372 3302 37361 5192 387 14858 4981 20416 4894 4194 1147 1085 8702 345 15870 2067 44937 3834 2778
internal_value=-0.0173705 -0.0657096 -0.026051 0.069946 0.0725275 -0.0782037 -0.0706646 -0.0884746 -0.076427 -0.0696891 -0.0787272 -0.0642418 -0.0929058 -0.0910276 0.0128403 -0.060913 0.0754631 0.0725443 0.0687248 0.0745293 0.0568994 -0.0380799 0.0768785 0.0514867 -0.0569383 0.0892644 0.0837051 0.0772062 -0.060329 -0.00695284
internal_weight=1.2684e+06 896893 411727 144939 142135 266788 153855 112933 147847 104939 94581 55014 42908 42642 10358 2804 137980 123122 107491 102510 35090 5281 29851 9787 5239 20064 67420 47004 4134 3308
internal_count=1268400 896893 411727 144939 142135 266788 153855 112933 147847 104939 94581 55014 42908 42642 10358 2804 137980 123122 107491 102510 35090 5281 29851 9787 5239 20064 67420 47004 4134 3308
is_linear=0
shrinkage=0.1


Tree=7
num_leaves=31
num_cat=0
split_feature=3 3 3 28 9 3 7 3 28 3 28 3 3 24 3 28 7 28 3 7 28 3 9 9 3 28 3 9 28 28
split_gain=642639 145720 200735 7539.98 5479.33 2760.36 16933.2 3008.82 13001.4 3326.91 8570.71 3403.43 15544.5 2459.62 1842.28 3579.27 1715.17 1506.08 5411.14 2008.61 1549.17 5256.12 2704.25 1351.68 4847.71 1583.92 5782.72 3244.46 1031.54 952.615
threshold=131.40500000000003 49.962500000000013 71.302500000000023 50.477500000000013 130.15500000000003 104.08750000000002 102.605 95.375000000000014 93.805000000000021 87.405000000000015 85.352500000000006 79.765000000000015 77.25500000000001 1081.3614581194529 52.612500000000004 52.987500000000004 72.015000000000015 65.827500000000015 64.405000000000015 65.185000000000016 62.307500000000012 61.055000000000007 61.905000000000008 58.865000000000002 58.395000000000003 56.272500000000008 55.065000000000005 55.755000000000003 94.492500000000021 87.112500000000026
decision_type=2 2 2 10 10 2 10 2 10 2 10 2 2 10 2 10 10 10 2 10 10 2 10 10 2 10 2 10 10 10
left_child=1 -1 3 -3 5 6 7 8 9 10 11 12 16 14 -5 -16 -4 18 20 -20 21 23 -23 24 25 26 -17 -28 -10 -12
right_child=-2 2 4 13 -6 -7 -8 -9 28 -11 29 -13 -14 -15 15 17 -18 -19 19 -21 -22 22 -24 -25 -26 -27 27 -29 -30 -31
leaf_value=-2.3713696243528752 8.5980901875980376 -0.024869609094086087 -0.0085065707163252575 0.15163032987075767 0.04209043173866292 -0.40590914101524334 0.0259480556095113 -0.31955179760093699 0.0011540269840239149 -0.31524566173667951 0.0011405347049702641 -0.28185888546104537 0.0049839741786954052 -0.0027645765547184456 -0.002919841027679837 0.10373028256851172 -0.29289289062080287 0.10635261058288564 -0.0090046045355236977 0.0075524091668697224 0.14561463565307592 -0.010965917401733805 0.013614666170654034 0.1208543666787712 -0.0039696781401069364 0.15788041760879423 -0.0096695663694767123 0.024880234503325483 0.017134194372939504 0.031357766836930527
leaf_weight=459868 352124 4095 5281 20987 3012 80149 9069 40086 5001 37907 10212 38378 15019 3020 4155 15631 34714 40515 5239 4194 15643 5541 3596 18703 3523 16144 5444 3807 6008 1335
leaf_count=459868 352124 4095 5281 20987 3012 80149 9069 40086 5001 37907 10212 38378 15019 3020 4155 15631 34714 40515 5239 4194 15643 5541 3596 18703 3523 16144 5444 3807 6008 1335
internal_value=-0.0155058 -0.0596314 -0.0196013 0.0663833 -0.0707518 -0.0721789 -0.0659751 -0.0722204 -0.0658627 -0.0739328 -0.0647605 -0.0748094 -0.058865 0.0696874 0.0713429 0.0672593 -0.0914389 0.070013 0.0632771 -0.00870349 0.0709901 0.0648234 -0.0060742 0.0750648 0.0655929 0.0752596 0.0594325 -0.00323208 0.03885 0.0165151
internal_weight=1.2684e+06 916276 456408 170237 286171 283159 203010 193941 153855 142846 104939 93392 55014 166142 163122 142135 39995 137980 97465 9433 88032 72389 9137 63252 44549 41026 24882 9251 11009 11547
internal_count=1268400 916276 456408 170237 286171 283159 203010 193941 153855 142846 104939 93392 55014 166142 163122 142135 39995 137980 97465 9433 88032 72389 9137 63252 44549 41026 24882 9251 11009 11547
is_linear=0
shrinkage=0.1


Tree=8
num_leaves=31
num_cat=0
split_feature=3 3 3 7 7 3 3 3 9 3 9 3 28 3 28 3 28 9 3 28 70 3 24 7 28 3 7 28 3 28
split_gain=579439 165750 211335 4347.04 2540.45 11638.1 3849.34 9633.42 3842.02 12965.1 3642.03 16557 2881.37 2260.13 6656.9 2369.86 3210.25 2203.89 10499.4 3354.6 2047.5 2695.21 1983.23 1768.93 1745.84 2922.99 1812 1780.68 5305.52 1632.16
threshold=138.71000000000001 47.995000000000012 71.302500000000023 139.79500000000004 76.985000000000014 79.765000000000015 84.822500000000005 87.405000000000015 93.375000000000014 95.375000000000014 101.79500000000002 104.08750000000002 102.4175 49.962500000000013 50.477500000000013 52.612500000000004 52.987500000000004 111.08500000000002 112.84500000000001 111.55750000000002 -1.939751896087089e-05 131.40500000000003 1081.3614581194529 72.015000000000015 69.58750000000002 68.015000000000015 69.035000000000011 65.827500000000015 64.405000000000015 62.307500000000012
decision_type=2 2 2 10 10 2 2 2 10 2 10 2 10 2 10 2 10 10 2 10 10 2 10 10 10 2 10 10 2 10
left_child=1 -1 13 -2 23 -6 -7 -8 -9 -10 -11 12 -12 -3 -15 -16 -17 -13 19 -19 -20 -22 24 -4 25 27 -27 28 29 -18
right_child=3 2 4 -5 5 6 7 8 9 10 11 17 -14 14 15 16 22 18 20 -21 21 -23 -24 -25 -26 26 -28 -29 -30 -31
leaf_value=-2.29123263140001 -0.03071754942348548 0.11876721601209966 -0.0076559136446931577 8.2942824505765156 0.0037504378829567031 -0.25967351571376868 0.0033269725674813346 -0.30322106504543317 0.0060389294614026316 -0.32259646525295271 -0.01959658732326517 -0.4341413586581041 0.023953326647682616 -0.022382648184677126 0.13746712903700242 -0.0026278569249114981 0.066357208535293213 -0.0091413586581040821 -0.38819134645107312 0.053859129623145922 0.039881815810889523 -0.77671822081020425 -0.0034381063107460363 -0.2686031437950504 0.12253771176290798 -0.0066173066239329616 0.025737556123259255 0.14091701077947932 -0.0011540708397831168 0.1310531720877684
leaf_weight=439346 1821 20522 5281 335323 16086 35139 14786 34794 14122 35321 3379 30695 10455 4095 21203 4155 72389 3377 55949 5131 1546 1443 2804 33647 14858 5716 4071 15870 9433 15643
leaf_count=439346 1821 20522 5281 335323 16086 35139 14786 34794 14122 35321 3379 30695 10455 4095 21203 4155 72389 3377 55949 5131 1546 1443 2804 33647 14858 5716 4071 15870 9433 15643
internal_value=-0.0138735 -0.0545412 -0.0146706 0.0984582 -0.0668372 -0.0632984 -0.0686841 -0.0635807 -0.0694463 -0.0629496 -0.071725 -0.0628935 0.0395258 0.0676849 0.0639056 0.0670101 0.0624421 -0.0773306 -0.0672212 0.0366244 -0.0822118 -0.00157243 0.0649989 -0.0906751 0.0666908 0.0627833 0.0103505 0.0673111 0.0622531 0.0698905
internal_weight=1.2684e+06 931256 491910 337144 301151 262223 246137 210998 196212 161418 147296 111975 13834 190759 170237 166142 144939 98141 67446 8508 58938 2989 140784 38928 137980 123122 9787 113335 97465 88032
internal_count=1268400 931256 491910 337144 301151 262223 246137 210998 196212 161418 147296 111975 13834 190759 170237 166142 144939 98141 67446 8508 58938 2989 140784 38928 137980 123122 9787 113335 97465 88032
is_linear=0
shrinkage=0.1


Tree=9
num_leaves=31
num_cat=0
split_feature=3 3 3 3 3 9 3 7 28 3 28 3 28 3 7 3 3 3 28 28 3 7 3 3 9 3 28 3 7 3
split_gain=526089 175454 223857 5362.2 6350.7 3503.93 3821.94 5885.5 2920.4 12276.9 4391.3 8861.19 4257 12959.7 4183.06 14216.5 2763.59 8023.22 4353.76 2651.56 2445.68 3130.32 2507.66 2391.5 8947.98 2493.6 2428.24 4209.67 2433.9 6854.29
threshold=148.66500000000002 45.745000000000012 71.302500000000023 49.962500000000013 50.605000000000011 147.54000000000005 131.40500000000003 130.08500000000004 76.832500000000024 79.765000000000015 84.547500000000028 87.405000000000015 93.177500000000023 95.375000000000014 101.70500000000001 104.08750000000002 110.58500000000002 112.84500000000001 111.55750000000002 103.24250000000002 52.612500000000004 53.165000000000006 69.625000000000014 55.065000000000005 55.755000000000003 68.015000000000015 65.827500000000015 64.405000000000015 62.405000000000008 61.055000000000007
decision_type=2 2 2 2 2 10 2 10 10 2 10 2 10 2 10 2 2 2 10 10 2 10 2 2 10 2 10 2 10 2
left_child=1 -1 3 -3 -5 6 7 8 -4 -10 -11 -12 -13 -14 -15 19 -17 18 -18 -16 -6 -22 23 -23 -25 26 27 28 29 -26
right_child=-2 2 5 4 20 -7 -8 -9 9 10 11 12 13 14 15 16 17 -19 -20 -21 21 22 -24 24 25 -27 -28 -29 -30 -31
leaf_value=-2.3581094674421381 8.9188535341321451 0.097890479152100349 -0.20874264631007691 -0.012279263432127152 0.1267206755327166 0.039854205518864205 -0.44714683207879208 0.03589363422979943 0.0042570790317199682 -0.23770625569512591 0.0019940616876866104 -0.2788987144002647 0.004434822892216062 -0.29533712390343825 8.2020822787853834e-06 -0.40072707020440251 -0.017226856581356743 -0.34437190663018385 0.048473216660831042 0.035736082056642714 -0.0023650712324204907 0.095721548716920069 0.11128415420966463 -0.015338330586058647 0.087456700770752613 0.0036638310285113107 0.1268253097015318 -0.0010386637558042367 0.12094811427840568 -0.0056049305482929416
leaf_weight=414205 313094 45663 37619 4994 20304 2801 36229 3123 17395 33251 16674 33094 15822 34959 8873 29358 4714 40835 5131 5323 5309 14477 14602 5444 44981 10043 15870 9433 14717 10063
leaf_count=414205 313094 45663 37619 4994 20304 2801 36229 3123 17395 33251 16674 33094 15822 34959 8873 29358 4714 40835 5131 5323 5309 14477 14602 5444 44981 10043 15870 9433 14717 10063
internal_value=-0.0132053 -0.0500748 -0.0125794 0.0663604 0.0581983 -0.0649872 -0.0659547 -0.0620807 -0.0635871 -0.0596103 -0.0657876 -0.060054 -0.06658 -0.0591946 -0.0696563 -0.0586964 -0.0750543 -0.0609116 0.0201219 0.0335306 0.061556 0.0570026 0.0598682 0.0552884 0.0502836 0.0567584 0.0617647 0.0546102 0.0630883 0.05343
internal_weight=1.2684e+06 955306 541101 215900 170237 325201 322400 286171 283048 245429 228034 194783 178109 145015 129193 94234 80038 50680 9845 14196 165243 144939 139630 125028 110551 105107 95064 79194 69761 55044
internal_count=1268400 955306 541101 215900 170237 325201 322400 286171 283048 245429 228034 194783 178109 145015 129193 94234 80038 50680 9845 14196 165243 144939 139630 125028 110551 105107 95064 79194 69761 55044
is_linear=0
shrinkage=0.1


Tree=10
num_leaves=31
num_cat=0
split_feature=3 3 7 3 7 9 25 3 3 28 3 9 3 9 3 28 28 3 3 28 3 9 3 3 9 3 7 3 9 3
split_gain=466511 187309 230553 7528.05 6065.69 5442.76 4235.61 4111.65 10467.7 3938.33 8809.51 3794.91 15920.7 3203.74 12441.3 5042.42 2261.75 7782.16 3447.75 2079.74 1659.15 3149.73 1699.69 2224.44 7401.71 2267.35 2705.7 3262.11 2652.45 5444.77
threshold=157.92500000000004 43.165000000000006 72.015000000000015 49.962500000000013 156.65000000000001 50.635000000000012 23.862323569791155 76.312500000000014 79.765000000000015 84.547500000000028 87.405000000000015 92.675000000000026 95.375000000000014 101.105 104.08750000000002 102.4175 110.41500000000001 112.84500000000001 111.59500000000001 43.487500000000004 52.612500000000004 53.195000000000007 69.625000000000014 55.065000000000005 55.755000000000003 68.015000000000015 65.955000000000013 64.405000000000015 62.495000000000012 61.055000000000007
decision_type=2 2 10 2 10 10 10 2 2 10 2 10 2 10 2 10 10 2 2 8 2 10 2 2 10 2 10 2 10 2
left_child=1 -1 3 19 7 -5 20 -4 -9 -10 -11 -12 -13 -14 15 -15 -16 18 -18 -3 -7 -22 23 -23 -25 26 27 28 29 -26
right_child=-2 2 4 5 -6 6 -8 8 9 10 11 12 13 14 16 -17 17 -19 -20 -21 21 22 -24 24 25 -27 -28 -29 -30 -31
leaf_value=-2.3202984749215569 9.5299680586486186 0.0027016700369394187 -0.25486896151305416 -0.011233858908983053 0.080967509332211307 0.11404860797944494 -0.010889978345247187 0.0019494725684424453 -0.2139356301256129 0.0017946555189183755 -0.26925911761844079 0.0047311935082674957 -0.30280292323184455 -0.016637535176120367 -0.3636542411136503 0.019557509468044999 -0.011504079370486409 -0.31293459389685269 0.045625559301387855 0.10010132442536701 -0.0026282894509755297 0.088149439621595604 0.070155433612916346 -0.013804497527452497 0.084387523821500568 0.0032974479256608902 0.12364290080169127 -8.4653947607193916e-05 0.11285301293357293 -0.003491392666764881
leaf_weight=389029 288341 3522 29626 5040 2536 20072 2404 20107 33251 16674 29926 18990 30395 8305 28988 10455 5318 105205 4897 67317 5431 14355 19883 5444 42763 10043 14814 10489 14015 10765
leaf_count=389029 288341 3522 29626 5040 2536 20072 2404 20107 33251 16674 29926 18990 30395 8305 28988 10455 5318 105205 4897 67317 5431 14355 19883 5444 42763 10043 14814 10489 14015 10765
internal_value=-0.0125307 -0.0454257 -0.00995753 0.0639182 -0.0627606 0.0528128 0.0558406 -0.0639028 -0.0605275 -0.0653267 -0.0611697 -0.0660045 -0.0613104 -0.0698827 -0.06433 0.0122814 -0.0742826 -0.0680107 0.0153206 0.0914341 0.0577258 0.0540668 0.0569141 0.0525186 0.0476171 0.0536296 0.0585119 0.0510739 0.0591312 0.0489912
internal_weight=1.2684e+06 980059 591030 246357 344673 175518 170478 342137 312511 292404 259153 242479 212553 193563 163168 18760 144408 115420 10215 70839 168074 148002 142571 122688 108333 102889 92846 78032 67543 53528
internal_count=1268400 980059 591030 246357 344673 175518 170478 342137 312511 292404 259153 242479 212553 193563 163168 18760 144408 115420 10215 70839 168074 148002 142571 122688 108333 102889 92846 78032 67543 53528
is_linear=0
shrinkage=0.1


Tree=11
num_leaves=31
num_cat=0
split_feature=3 3 7 3 28 9 3 3 3 9 3 24 9 3 28 9 3 3 9 7 3 3 3 28 3 28 3 9 31 68
split_gain=426225 190317 227723 9339.76 7297.97 4809.76 8676.11 4910.92 8216.17 4745.58 13831.2 4453.76 4448.97 9983.84 4376.96 3292.18 8412.37 2957.01 2698.82 2671.57 2309.09 11659.8 1596.1 7255.3 2986.88 9806.9 2594.4 8248.08 1538.53 1659.89
threshold=166.36500000000004 41.155000000000008 72.015000000000015 49.962500000000013 50.952500000000008 76.265000000000015 79.765000000000015 84.155000000000015 87.405000000000015 92.675000000000026 95.375000000000014 721.74403082159131 101.105 104.08750000000002 102.4175 110.16500000000001 112.84500000000001 52.612500000000004 53.195000000000007 111.75500000000001 119.92500000000003 122.71500000000002 55.065000000000005 56.272500000000008 58.395000000000003 59.160000000000011 61.055000000000007 61.905000000000008 1.0001910995390817 8.4568980165326582e-05
decision_type=2 2 10 2 10 10 2 2 2 10 2 10 10 2 10 10 2 2 10 10 2 2 2 10 2 10 2 10 10 10
left_child=1 -1 3 -3 -5 -4 -7 -8 -9 -10 -11 17 -12 14 -14 -15 19 -6 -19 -17 -18 -22 -20 -24 -25 -26 -27 -28 29 -13
right_child=-2 2 5 4 11 6 7 8 9 10 12 28 13 15 -16 16 20 18 22 -21 21 -23 23 24 25 26 27 -29 -30 -31
leaf_value=-2.2332687037233465 9.3939710696782868 0.093091451382244381 -0.23338215691448314 -0.007356481700335849 0.12064377769907822 0.0013743525821055869 -0.21654185349000415 0.0012148756359707136 -0.24233320585659612 0.0042580741574411718 -0.27252263090865941 0.030466152428425632 -0.014973781658508756 -0.36628875596712906 0.01760175852124064 -0.0019370271463287738 -0.34464162278841715 -0.0023654605058780476 0.079334495659436052 0.054062728713046231 0.10935846876431726 -0.29989143184878347 -0.01042400199834006 0.11827223253516053 -0.023568717267237818 0.11894880195692892 -0.015595414193583679 0.038967764168251054 0.13464371666392197 -0.011801026287089657
leaf_weight=369264 273285 90604 28985 9144 15506 20748 30013 19912 29926 18990 30395 530 8305 25752 10455 9651 19553 5431 14355 3800 5022 98222 9251 16146 5957 14979 5541 74468 655 3555
leaf_count=369264 273285 90604 28985 9144 15506 20748 30013 19912 29926 18990 30395 530 8305 25752 10455 9651 19553 5431 14355 3800 5022 98222 9251 16146 5957 14979 5541 74468 655 3555
internal_value=-0.0114018 -0.04178 -0.00818805 0.0619438 0.0484839 -0.0600705 -0.0566474 -0.0608376 -0.0567167 -0.0614567 -0.0565856 0.0532643 -0.0639374 -0.0579852 0.0110768 -0.0659827 -0.0597851 0.0560662 0.0516602 0.0152925 -0.068009 -0.0620414 0.0543302 0.0507401 0.0574758 0.0510882 0.0588938 0.0517429 -0.0422785 -0.0650918
internal_weight=1.2684e+06 995115 625851 266122 175518 359729 330744 309996 279983 260071 230145 166374 211155 180760 18760 162000 136248 161634 146128 13451 122797 103244 140697 126342 117091 100945 94988 80009 4740 4085
internal_count=1268400 995115 625851 266122 175518 359729 330744 309996 279983 260071 230145 166374 211155 180760 18760 162000 136248 161634 146128 13451 122797 103244 140697 126342 117091 100945 94988 80009 4740 4085
is_linear=0
shrinkage=0.1


Tree=12
num_leaves=31
num_cat=0
split_feature=3 3 7 3 28 28 28 3 28 3 28 3 7 28 3 28 24 28 3 3 3 28 9 3 28 9 7 3 3 7
split_gain=387056 188279 212576 7885.26 8377.87 6100.14 4741.08 8796.78 5222.41 7496.62 5126.84 13047.9 4994.08 4293.51 9475.47 4107.69 3960.77 3367.32 9498.58 3006.65 2797.4 9276.14 2374.04 6039.55 4723.56 2270.65 2187.88 1848.97 11324.8 1845.71
threshold=176.48500000000004 38.502500000000005 72.015000000000015 49.962500000000013 38.76250000000001 50.952500000000008 76.08750000000002 79.765000000000015 83.772500000000022 87.405000000000015 92.372500000000016 95.375000000000014 175.41500000000002 100.87750000000001 104.08750000000002 103.24250000000002 721.74403082159131 109.62750000000001 112.84500000000001 52.612500000000004 157.92500000000004 156.29250000000005 118.75500000000001 122.71500000000002 119.90750000000001 53.195000000000007 111.75500000000001 148.66500000000002 146.62500000000003 139.79500000000004
decision_type=2 2 10 2 8 10 10 2 10 2 10 2 10 10 2 10 10 10 2 2 2 10 10 2 10 10 10 2 2 10
left_child=1 -1 3 4 -3 -5 -4 -8 -9 -10 -11 -12 13 -13 15 -15 19 -16 26 -7 21 22 -20 24 -24 -21 -19 28 29 -25
right_child=-2 2 6 5 -6 16 7 8 9 10 11 12 -14 14 17 -17 -18 18 20 25 -22 -23 23 27 -26 -27 -28 -29 -30 -31
leaf_value=-2.1689418486098009 9.7375756716948345 -0.013941734168882648 -0.21854384967030002 -0.0066208335303024057 0.088058311607484549 0.10857939992917026 0.0013520153082097865 -0.20488751555311355 0.00033647584093046137 -0.22884970216546777 0.0040919861325676267 -0.25627042885295026 0.039574573062020592 -0.0061585394011956403 -0.34166015502861885 0.028446547052050165 -0.006620832105646457 -0.0010949006646058025 -0.37217697222832558 -0.002128914455290243 -0.41842561004344819 0.072861122286991528 -0.047176972228325557 -0.26259016823711651 0.09719600997992757 0.039681562698253008 0.048656455841741324 -0.30774988809322679 0.067851613371618671 -0.39014856973385009
leaf_weight=349425 249311 3225 27362 9144 107218 15506 22371 28168 21757 28347 20569 28883 2231 14949 24075 5323 4740 11328 16420 5431 36799 3945 3054 36184 5101 140697 3800 20808 4825 17404
leaf_count=349425 249311 3225 27362 9144 107218 15506 22371 28168 21757 28347 20569 28883 2231 14949 24075 5323 4740 11328 16420 5431 36799 3945 3054 36184 5101 140697 3800 20808 4825 17404
internal_value=-0.012451 -0.0397737 -0.00872497 0.0565388 0.0774725 0.0433665 -0.0573639 -0.0542837 -0.0583502 -0.0545549 -0.0588882 -0.054415 -0.0610962 -0.0625226 -0.0574139 0.00746843 0.047737 -0.0645723 -0.0593156 0.0503793 -0.0672063 -0.0590759 -0.0647963 -0.0582402 0.0237032 0.0459364 0.0160762 -0.0666755 -0.0575574 -0.0707696
internal_weight=1.2684e+06 1.01909e+06 669664 285961 110443 175518 383703 356341 333970 305802 284045 255698 235129 232898 204015 20272 166374 183743 159668 161634 144540 107741 103796 87376 8155 146128 15128 79221 58413 53588
internal_count=1268400 1019089 669664 285961 110443 175518 383703 356341 333970 305802 284045 255698 235129 232898 204015 20272 166374 183743 159668 161634 144540 107741 103796 87376 8155 146128 15128 79221 58413 53588
is_linear=0
shrinkage=0.1


Tree=13
num_leaves=31
num_cat=0
split_feature=3 3 3 3 7 7 9 3 25 3 3 3 3 7 3 3 3 28 3 9 3 9 3 28 3 28 7 28 3 9
split_gain=355782 182280 194874 8413.56 5423.09 5106.96 4539.9 4430.47 4628.69 3644.44 8731.7 3222.86 9028.11 3105.15 3907.93 3250.5 8540.8 6748.18 5915.15 6240.85 8030.42 6142.2 6180.13 5004.76 7055.04 4414.34 3953.27 3725.82 7713.03 2955.1
threshold=187.24500000000003 36.605000000000011 71.302500000000023 49.962500000000013 69.705000000000013 185.66500000000002 51.065000000000005 52.612500000000004 6.0217326356847369 157.92500000000004 155.99500000000003 148.66500000000002 146.62500000000003 139.79500000000004 138.71000000000001 75.735000000000014 79.765000000000015 83.772500000000022 87.405000000000015 91.625000000000014 95.375000000000014 100.42500000000003 104.08750000000002 109.62750000000001 112.84500000000001 102.4175 72.015000000000015 119.90750000000001 122.71500000000002 127.63500000000001
decision_type=2 2 2 2 10 10 10 2 10 2 2 2 2 10 2 2 2 10 2 10 2 10 2 10 2 10 10 10 2 10
left_child=1 -1 3 -3 6 9 -5 -8 -9 10 11 12 13 14 15 26 -17 -18 -19 -20 -21 -22 25 -24 -25 -23 -4 -26 -29 -30
right_child=-2 2 5 4 -6 -7 7 8 -10 -11 -12 -13 -14 -15 -16 16 17 18 19 20 21 22 23 24 27 -27 -28 28 29 -31
leaf_value=-2.0530476866370044 10.914816029330039 0.077616220795552249 -0.00089653369715705369 -0.0068955990084489834 0.088275140670444341 0.11281712796285036 0.10272138364230798 0.026913739070027989 -0.0079587946714489988 -0.39218317721293094 0.059575254198918515 -0.28997386168624645 0.061066452034455668 -0.35113371276046623 0.10461050812501754 0.0018407729524994921 -0.18439876399780247 0.00030282825683798366 -0.23671500660712469 0.0016831232126705232 -0.24364387424890596 -0.011026212266465052 -0.30749413952575683 0.0049489109960930483 -0.27295976328674243 0.01445700936314296 -0.21418900693959841 0.087476408981935094 -0.34852052634794295 -0.13452058738309916
leaf_weight=334482 229928 125386 5281 10087 13834 2208 15211 125913 5192 56205 4943 19810 4825 17404 1821 24974 28168 21757 24974 23942 25411 13289 24075 15128 19474 10455 24759 5101 11640 22723
leaf_count=334482 229928 125386 5281 10087 13834 2208 15211 125913 5192 56205 4943 19810 4825 17404 1821 24974 28168 21757 24974 23942 25411 13289 24075 15128 19474 10455 24759 5101 11640 22723
internal_value=-0.0133102 -0.038231 -0.00935241 0.0524848 0.0380064 -0.0541173 0.0326982 0.0371716 0.0312444 -0.0549418 -0.0511456 -0.0530363 -0.0506508 -0.0526956 -0.050336 -0.0512192 -0.0477609 -0.0534146 -0.0474623 -0.0529478 -0.046137 -0.0548677 -0.0455438 -0.0566196 -0.0437448 0.000235849 -0.0824301 -0.059381 -0.041719 -0.0587521
internal_weight=1.2684e+06 1.03847e+06 703990 295623 170237 408367 156403 146316 131105 406159 349954 345011 325201 320376 302972 301151 271111 246137 217969 196212 171238 147296 121885 98141 74066 23744 30040 58938 39464 34363
internal_count=1268400 1038472 703990 295623 170237 408367 156403 146316 131105 406159 349954 345011 325201 320376 302972 301151 271111 246137 217969 196212 171238 147296 121885 98141 74066 23744 30040 58938 39464 34363
is_linear=0
shrinkage=0.1


Tree=14
num_leaves=31
num_cat=0
split_feature=3 3 3 3 9 7 9 28 3 25 3 3 3 3 23 28 3 7 3 7 3 9 3 9 3 3 28 3 28 3
split_gain=321880 176601 181201 8678.45 5854.14 4353.19 3571.1 3568.21 3308.83 4094.03 3096.58 10820.3 3306.29 11000.8 3031.48 2827.86 5107.95 9154.81 6740.39 7499.16 5579.16 7828.53 4849.86 6155.56 6562.96 2649.34 6620.96 2764.8 7383.38 3714.83
threshold=197.92500000000004 34.352500000000006 71.302500000000023 49.962500000000013 69.77500000000002 196.40500000000003 51.065000000000005 34.597500000000004 52.612500000000004 6.0217326356847369 38.502500000000005 38.937500000000007 43.165000000000006 43.645000000000003 12.132603092487749 53.657500000000006 55.065000000000005 56.465000000000011 58.395000000000003 59.195000000000007 61.055000000000007 62.495000000000012 64.405000000000015 66.105000000000004 68.015000000000015 187.24500000000003 184.96750000000006 176.48500000000004 175.09250000000003 166.36500000000004
decision_type=2 2 2 2 10 10 10 8 2 10 2 2 2 2 8 10 2 10 2 10 2 10 2 10 2 2 10 2 10 2
left_child=1 -1 3 7 6 25 -5 -3 -8 15 -9 -12 -13 -14 -15 -10 -17 -18 -19 -20 -21 -22 -23 -24 -25 26 27 28 29 -4
right_child=-2 2 5 4 -6 -7 8 10 9 -11 11 12 13 14 -16 16 17 18 19 20 21 22 23 24 -26 -27 -28 -29 -30 -31
leaf_value=-1.9537428645675421 11.804083938115784 -0.0037426738326786337 -0.089958673974975062 -0.0062060391076038009 0.081447290910040243 0.12033454846734629 0.092449245278076839 0.099190920165276003 -0.0036075647634433495 -0.0071629152043044542 -0.018309137055182844 0.09985490389177798 -0.020445217415595351 0.014214593604302196 0.071214944556450638 0.086741637986976636 -0.013541093828361994 0.10678544858723811 -0.028871589340388939 0.10239443736077547 -0.011614582867435531 0.091011405046563007 -0.010531368971571455 0.10422190739935361 -0.0045520071856628872 -0.37466514635687248 0.073034591191955656 -0.53696449328070062 0.064834823125548266 -0.40236412096624863
leaf_weight=314434 209610 2892 365010 10087 13364 2122 15211 32099 8984 5192 4952 34652 4940 8959 56940 10802 10350 14928 5480 14505 10764 13986 11074 14229 11281 18196 3393 15990 3450 20524
leaf_count=314434 209610 2892 365010 10087 13364 2122 15211 32099 8984 5192 4952 34652 4940 8959 56940 10802 10350 14928 5480 14505 10764 13986 11074 14229 11281 18196 3393 15990 3450 20524
internal_value=-0.0139962 -0.0364102 -0.00986625 0.0476303 0.032305 -0.052205 0.0268925 0.0655693 0.0308476 0.0257427 0.0678004 0.0598544 0.066636 0.054254 0.0650435 0.029318 0.033456 0.026816 0.0364261 0.0250876 0.0332507 0.0200607 0.0365434 0.0173956 0.0444218 -0.0529157 -0.0512522 -0.0524177 -0.0507424 -0.0520457
internal_weight=1.2684e+06 1.05879e+06 744356 315671 170237 428685 156873 145434 146786 131575 142542 110443 105491 70839 65899 126383 117399 106597 96247 81319 75839 61334 50570 36584 25510 426563 408367 404974 388984 385534
internal_count=1268400 1058790 744356 315671 170237 428685 156873 145434 146786 131575 142542 110443 105491 70839 65899 126383 117399 106597 96247 81319 75839 61334 50570 36584 25510 426563 408367 404974 388984 385534
is_linear=0
shrinkage=0.1


Tree=15
num_leaves=31
num_cat=0
split_feature=3 28 7 3 3 28 3 9 3 9 3 9 3 44 3 3 9 3 3 3 3 28 3 25 28 9 3 9 28 28
split_gain=299177 164600 156380 12017.2 7455.74 6910.54 17558.8 7640.39 11278.1 7391.19 19779.4 6456.83 14157.2 6092.87 4731.15 8390.25 4570.56 8796.87 3604.23 7744.07 6054.2 5083.71 5021.66 4424.62 3931.99 3416.9 7963.53 3076.03 2905.03 2682.44
threshold=32.565000000000005 208.83250000000001 72.015000000000015 43.165000000000006 43.645000000000003 75.467500000000015 79.765000000000015 83.315000000000012 87.405000000000015 91.625000000000014 95.375000000000014 100.42500000000003 104.08750000000002 0.17493169398907105 45.745000000000012 46.07500000000001 108.53500000000001 112.84500000000001 47.995000000000012 48.585000000000008 49.962500000000013 51.772500000000015 52.612500000000004 6.0217326356847369 46.267500000000005 118.75500000000001 122.71500000000002 69.77500000000002 102.4175 92.372500000000016
decision_type=2 8 10 2 2 10 2 10 2 10 2 10 2 10 2 2 10 2 2 2 2 10 2 10 10 10 2 10 10 10
left_child=-1 2 3 -2 -5 -4 -7 -8 -9 -10 29 -12 28 -14 -6 -16 -15 -18 24 -20 -21 -22 -23 27 -17 -19 -27 -24 -13 -11
right_child=1 -3 5 4 14 6 7 8 9 10 11 12 13 16 15 18 17 25 19 20 21 22 23 -25 -26 26 -28 -29 -30 -31
leaf_value=-1.9093686009989712 0.082271858666326386 11.780926520866707 -0.19977460505907774 -0.018400695674036172 0.078693307431127846 0.0091135638787193333 -0.17696347796419618 0.0071209671499389065 -0.20404763854891428 -0.013637268425425475 -0.21028361942651799 -0.00092772364232160962 0.015015260523962582 -0.31174910231630837 -0.024206758944604445 -0.0019069161101320732 0.0079506775466683163 -0.29866743127931983 -0.021906610934350826 0.083793424160864313 -0.0057956182145744613 0.094204381785425548 0.019132384784968794 -0.0064466236838740089 0.073093083889867932 0.043724391340613525 -0.24819424707157511 0.044303233205755535 0.022007175824326455 0.012510342595541603
leaf_weight=294183 94846 190788 22456 4940 20236 27277 25017 24908 24974 3373 25411 13289 2773 20532 5017 3717 16285 16420 5336 15185 14081 11217 126383 5192 16407 8155 180333 18645 10455 20569
leaf_count=294183 94846 190788 22456 4940 20236 27277 25017 24908 24974 3373 25411 13289 2773 20532 5017 3717 16285 16420 5336 15185 14081 11217 126383 5192 16407 8155 180333 18645 10455 20569
internal_value=-0.0107699 0.0159181 -0.00436632 0.0464974 0.0348528 -0.0436104 -0.0407191 -0.0461108 -0.0424704 -0.0471943 -0.0430753 -0.0502011 -0.0456371 -0.0527963 0.0373414 0.033107 -0.0544871 -0.0502977 0.0360742 0.031937 0.0352616 0.0300209 0.0350471 0.0302277 0.0763765 -0.0559197 -0.0521084 0.0334749 0.0280829 0.0443238
internal_weight=1.2684e+06 974217 783429 341202 246356 442227 419771 392494 367477 342569 317595 293653 268242 244498 241416 221180 241725 221193 216163 196039 190703 175518 161437 150220 20124 204908 188488 145028 23744 23942
internal_count=1268400 974217 783429 341202 246356 442227 419771 392494 367477 342569 317595 293653 268242 244498 241416 221180 241725 221193 216163 196039 190703 175518 161437 150220 20124 204908 188488 145028 23744 23942
is_linear=0
shrinkage=0.1


Tree=16
num_leaves=31
num_cat=0
split_feature=3 28 7 3 28 3 3 3 3 3 9 3 9 3 28 3 3 44 9 3 3 7 3 28 3 25 7 3 28 3
split_gain=267022 154779 151114 12829.7 8794.97 7373.54 7824.52 6828.61 7474.66 12887.4 8883.79 9133.87 8866.89 17094.2 7732.95 11897.7 7748.8 5901.39 5298.25 7544.28 4060.95 7020.09 4685.24 4216.73 5623.53 4012.8 3989.25 7154.93 3897.27 4852.87
threshold=30.867500000000003 220.46750000000003 72.015000000000015 43.165000000000006 43.932500000000012 45.745000000000012 46.07500000000001 197.92500000000004 75.015000000000015 79.765000000000015 83.315000000000012 87.405000000000015 91.625000000000014 95.375000000000014 100.15750000000001 104.08750000000002 195.41500000000002 0.17493169398907105 108.53500000000001 112.84500000000001 47.995000000000012 48.545000000000009 49.962500000000013 51.772500000000015 52.612500000000004 6.0217326356847369 118.67500000000003 122.71500000000002 53.657500000000006 55.065000000000005
decision_type=2 10 8 2 10 2 2 2 2 2 10 2 10 2 10 2 2 10 10 2 2 10 2 10 2 10 10 2 10 2
left_child=-1 2 3 -2 -5 -6 -7 8 -4 -10 -11 -12 -13 -14 -15 -16 17 -17 -19 -20 -8 -22 -23 -24 -25 28 -21 -28 -26 -30
right_child=1 -3 7 4 5 6 20 -9 9 10 11 12 13 14 15 16 -18 18 19 26 21 22 23 24 25 -27 27 -29 29 -31
leaf_value=-1.809431725640285 0.074278090558636475 12.2118335025691 -0.2017972666234826 -0.011676099605930546 0.095823976688014775 -0.021786083050143647 0.052784050159084474 -0.45016600914965182 0.0063824443072547869 -0.15926713016777683 0.0064088704349444473 -0.18364287469402285 0.009341937043869564 -0.19925510489597542 0.0078069465231436659 0.013513734471565897 0.060620365739879389 -0.2805741920846771 0.0071556097920009165 -0.27130084073927779 -0.022016097851169293 0.075414081744777664 -0.0052160563931167303 0.084783943606883128 -0.0051600467655958937 -0.0058019613154868923 0.036579235501228879 -0.21930901658434154 0.076154235709782372 0.020396068066997942
leaf_weight=279510 109519 170598 19814 8602 16574 5017 20124 39012 29920 25017 24908 24974 23942 23909 25246 2747 4971 20532 16285 16281 5063 15458 14081 11217 8984 5192 8294 156565 10802 125242
leaf_count=279510 109519 170598 19814 8602 16574 5017 20124 39012 29920 25017 24908 24974 23942 23909 25246 2747 4971 20532 16285 16281 5063 15458 14081 11217 8984 5192 8294 156565 10802 125242
internal_value=-0.0119092 0.0124841 -0.00557992 0.0434054 0.0307458 0.0343397 0.0295189 -0.0432789 -0.0395902 -0.0366463 -0.0417027 -0.0375725 -0.042062 -0.0372773 -0.0443372 -0.0391593 -0.0464425 -0.0492234 -0.0510592 -0.0460312 0.0323844 0.0279929 0.0310741 0.0264258 0.0310034 0.0259033 -0.0518925 -0.0472288 0.0289958 0.0332084
internal_weight=1.2684e+06 988890 818292 355875 246356 237754 221180 462417 423405 403591 373671 348654 323746 298772 274830 250921 225675 220704 217957 197425 216163 196039 190976 175518 161437 150220 181140 164859 145028 136044
internal_count=1268400 988890 818292 355875 246356 237754 221180 462417 423405 403591 373671 348654 323746 298772 274830 250921 225675 220704 217957 197425 216163 196039 190976 175518 161437 150220 181140 164859 145028 136044
is_linear=0
shrinkage=0.1


Tree=17
num_leaves=31
num_cat=0
split_feature=3 7 7 3 3 3 3 3 7 3 3 3 9 3 7 3 3 3 28 3 28 3 3 3 3 28 3 3 9 3
split_gain=251849 140677 151358 16746.6 8445.27 8403.01 8059.37 10992 9618.44 7390.84 9603.38 14706.3 7836.58 7674.9 7188.16 8256.12 6723.6 5326.72 7500.47 7464.92 9565.6 6275.95 6708.42 4736.57 5139.35 3866.71 3810.04 9553.29 3756.97 10764.1
threshold=28.825000000000003 230.47000000000003 72.015000000000015 38.502500000000005 197.92500000000004 38.937500000000007 75.015000000000015 79.765000000000015 83.145000000000024 87.405000000000015 91.485000000000014 95.375000000000014 99.575000000000003 104.08750000000002 108.40500000000002 112.84500000000001 195.41500000000002 43.165000000000006 43.932500000000012 45.745000000000012 46.267500000000005 47.995000000000012 48.585000000000008 118.09000000000002 122.71500000000002 102.4175 187.24500000000003 184.44500000000002 127.63500000000001 131.40500000000003
decision_type=2 10 8 2 2 2 2 2 10 2 2 2 10 2 10 2 2 2 10 2 10 2 2 2 2 10 2 2 10 2
left_child=-1 2 3 -2 6 -5 -4 -8 -9 -10 -11 -12 -13 25 -15 -16 23 -7 -19 -20 -21 -22 -23 -17 -25 -14 27 28 -26 -30
right_child=1 -3 4 5 -6 17 7 8 9 10 11 12 13 14 15 16 -18 18 19 20 21 22 -24 24 26 -27 -28 -29 29 -31
leaf_value=-1.7464884882264031 0.075511538476477832 11.960651373015313 -0.18161753996113392 -0.032133218272160494 -0.46714891995343638 0.074214418580104538 0.0057441998765298766 -0.14634029508068666 0.005072564079928555 -0.16952815997852611 0.008326091651862556 -0.20432959440637719 -0.0043295944063771689 -0.25451643718285055 0.0080695991362858873 -0.27667121442902243 0.054558329165891456 -0.010508489645337704 0.086241579019213088 -0.01180092243037123 0.060505370484973044 -0.017514340055798529 0.021172653733874114 0.020802053448602465 -0.25792227995005845 0.019025763589579015 -0.38244812225012481 0.10398124481530716 0.13467766511829779 -0.2102305869303166
leaf_weight=254207 95218 160068 19814 4952 49542 34652 29920 24335 25590 24476 24440 20551 18149 20293 18910 14878 4971 8602 16574 8734 16407 5336 190703 9697 11640 10455 15347 4851 7743 117345
leaf_count=254207 95218 160068 19814 4952 49542 34652 29920 24335 25590 24476 24440 20551 18149 20293 18910 14878 4971 8602 16574 8734 16407 5336 190703 9697 11640 10455 15347 4851 7743 117345
internal_value=-0.0101126 0.0121962 -0.00392671 0.0429637 -0.0417186 0.0308687 -0.0371476 -0.0340907 -0.0387606 -0.0345261 -0.0386155 -0.03369 -0.0403005 -0.0355 -0.0416852 -0.0360752 -0.04246 0.0331443 0.0279806 0.0312996 0.026449 0.0306657 0.0256934 -0.0456025 -0.0407753 0.0132988 -0.045141 -0.0400109 -0.0449038 -0.0398471
internal_weight=1.2684e+06 1.01419e+06 854125 381178 472947 285960 423405 403591 373671 349336 323746 299270 274830 254279 225675 205382 186472 281008 246356 237754 221180 212446 196039 181501 166623 28604 156926 141579 136728 125088
internal_count=1268400 1014193 854125 381178 472947 285960 423405 403591 373671 349336 323746 299270 274830 254279 225675 205382 186472 281008 246356 237754 221180 212446 196039 181501 166623 28604 156926 141579 136728 125088
is_linear=0
shrinkage=0.1


Tree=18
num_leaves=31
num_cat=0
split_feature=3 9 3 3 3 3 3 9 3 9 9 28 3 3 9 3 7 3 28 3 9 3 3 3 3 3 28 28 3 28
split_gain=232833 135222 146175 19446.1 9222.85 7506.9 6503.05 5589.2 5339.56 9555.63 5305.99 5084.04 5000.64 8630.79 5066.24 13546.6 9441.7 6683.54 9141.94 13899.5 7817.12 7309.26 6993.84 7953.17 5208.71 5313.53 6387.9 4861.33 5193.36 8935.35
threshold=26.965000000000003 244.66500000000002 71.302500000000023 34.352500000000006 197.92500000000004 34.835000000000008 36.605000000000011 194.69000000000003 187.24500000000003 183.43500000000003 37.005000000000003 27.147500000000004 176.48500000000004 174.35500000000005 75.625000000000014 79.765000000000015 83.145000000000024 87.405000000000015 91.277500000000018 95.375000000000014 99.575000000000003 104.08750000000002 108.15500000000002 112.84500000000001 118.09000000000002 166.36500000000004 164.56250000000003 70.207500000000024 38.502500000000005 39.427500000000002
decision_type=2 10 2 2 2 2 2 10 2 10 10 10 2 2 10 2 10 2 10 2 10 2 2 2 2 2 10 10 2 10
left_child=-1 2 3 11 7 -5 -7 8 9 12 -8 -2 13 14 -4 -16 -17 -18 -19 -20 -21 -22 -23 -24 -25 26 -26 28 -12 -30
right_child=1 -3 4 5 -6 6 10 -9 -10 -11 27 -13 -14 -15 15 16 17 18 19 20 21 22 23 24 25 -27 -28 -29 29 -31
leaf_value=-1.6248397080683135 -0.0083397118830106365 12.402586723995032 -0.096455206131035712 -0.022867975654506267 -0.42443488245027938 0.09913176494607967 -0.014184488468075074 0.038103961093051454 -0.40920269967355127 0.071504852824742213 0.072065435237979619 0.075089395379543691 -0.48249447578853905 0.12164451652103025 0.0081696578185642462 -0.13170626557261755 0.004565307671936125 -0.15957531346309539 0.007459289336605935 -0.18389663496573974 0.0039829457065820861 -0.23406509864034605 0.0069741673903820356 -0.24900409298612092 -0.10149035789525414 -0.32135475105709477 0.14078997783398392 0.082715396835952512 -0.022920140585569727 0.02503664048203973
leaf_weight=233830 2366 149881 29396 4944 59729 15104 3588 7202 13116 7060 11356 78238 12323 4777 25618 24335 25590 23240 25676 20551 28604 19337 19866 14878 103995 19197 3924 9880 8150 262649
leaf_count=233830 2366 149881 29396 4944 59729 15104 3588 7202 13116 7060 11356 78238 12323 4777 25618 24335 25590 23240 25676 20551 28604 19337 19866 14878 103995 19197 3924 9880 8150 262649
internal_value=-0.00903611 0.0113326 -0.00354803 0.041579 -0.0401618 0.0303851 0.0323303 -0.0350325 -0.0365251 -0.0345079 0.0290603 0.0854176 -0.0365369 -0.03455 -0.0362109 -0.0329057 -0.0383565 -0.0335717 -0.0380538 -0.0326027 -0.0403817 -0.0346161 -0.0420322 -0.0352416 -0.0435328 -0.0369804 -0.0283574 0.0305453 0.028131 0.0253528
internal_weight=1.2684e+06 1.03457e+06 884689 396275 488414 315671 310727 428685 421483 408367 295623 80604 401307 388984 384207 354811 329193 304858 279268 256028 230352 209801 181197 161860 141994 127116 107919 292035 282155 270799
internal_count=1268400 1034570 884689 396275 488414 315671 310727 428685 421483 408367 295623 80604 401307 388984 384207 354811 329193 304858 279268 256028 230352 209801 181197 161860 141994 127116 107919 292035 282155 270799
is_linear=0
shrinkage=0.1


Tree=19
num_leaves=31
num_cat=0
split_feature=3 28 7 3 28 7 3 28 7 3 3 3 9 3 9 3 3 28 3 7 9 3 3 3 7 3 3 3 3 28
split_gain=216285 128358 132384 18263.5 10343.7 8456.53 10967.8 9991.99 8260.53 6968.43 6757.58 6386.75 8436.43 9885.15 8029.6 6312.02 6284.74 7097.9 6872.94 4852.25 4539.36 4867.08 4894.26 3980.07 7770.66 8769.78 10965.4 7769.29 6143.7 4112.27
threshold=24.317500000000006 256.13750000000005 72.015000000000015 34.352500000000006 208.83250000000001 74.735000000000014 79.765000000000015 82.997500000000016 25.365000000000006 206.74500000000003 34.835000000000008 87.405000000000015 90.905000000000015 95.375000000000014 99.575000000000003 36.605000000000011 104.08750000000002 108.03250000000001 112.84500000000001 37.005000000000003 117.48500000000001 197.92500000000004 195.41500000000002 43.165000000000006 44.065000000000005 45.745000000000012 46.402500000000011 47.995000000000012 48.585000000000008 70.207500000000024
decision_type=2 10 8 2 8 10 2 10 10 2 2 2 10 2 10 2 2 10 2 10 10 2 2 2 10 2 2 2 2 10
left_child=-1 2 3 8 5 -4 -7 -8 -2 11 -5 -9 -13 -14 -15 -12 -16 -18 -19 -17 -20 22 -22 -21 -25 -26 -27 -28 -29 -30
right_child=1 -3 4 10 -6 6 7 9 -10 -11 15 12 13 14 16 19 17 18 20 23 21 -23 -24 24 25 26 27 28 29 -31
leaf_value=-1.5193557067439039 -0.050355748705573689 13.080327319173655 -0.15781035690465048 -0.020581178089055643 -0.47599163834587732 0.0051901313765995386 -0.12753527280441831 0.0041087769047422288 0.06764786478658423 0.13292172018623205 0.089218588451471709 -0.18561836195077036 0.0054132228035030042 -0.16550697146916635 0.0035846511359238775 -0.012516176950369129 -0.21665834463568673 0.005935522776587732 -0.27510313437110201 0.050925038267456563 -0.11005824830713494 -0.33107821877861171 0.045292100139997162 -0.010961091105961175 0.081113894398188793 -0.012317911403202687 0.055951260941005644 -0.018266570098423075 0.012894924912646389 0.049443857152357398
leaf_weight=218906 2704 141000 18813 4944 49788 30920 23152 26773 92824 4367 15104 20206 28710 20551 28604 3827 18909 20294 11818 50720 169683 14456 4971 9749 15427 9935 15206 5336 175542 15161
leaf_count=218906 2704 141000 18813 4944 49788 30920 23152 26773 92824 4367 15104 20206 28710 20551 28604 3827 18909 20294 11818 50720 169683 14456 4971 9749 15427 9935 15206 5336 175542 15161
internal_value=-0.00874409 0.0101152 -0.00366232 0.0378283 -0.0387832 -0.0339181 -0.0310032 -0.0355205 0.0762122 -0.0315258 0.0264037 -0.0330283 -0.0367502 -0.032769 -0.0383233 0.0282187 -0.0337161 -0.0389941 -0.0339677 0.0250523 -0.0395694 -0.035812 -0.0311965 0.0264936 0.0212416 0.0248467 0.0197622 0.0245909 0.0192497 0.022211
internal_weight=1.2684e+06 1.04949e+06 908494 416479 492015 442227 423414 392494 95528 369342 320951 364975 338202 317996 289286 316007 268735 240131 221222 300903 200928 189110 174654 297076 246356 236607 221180 211245 196039 190703
internal_count=1268400 1049494 908494 416479 492015 442227 423414 392494 95528 369342 320951 364975 338202 317996 289286 316007 268735 240131 221222 300903 200928 189110 174654 297076 246356 236607 221180 211245 196039 190703
is_linear=0
shrinkage=0.1


Tree=20
num_leaves=31
num_cat=0
split_feature=3 3 7 3 28 3 7 3 3 3 3 9 3 3 3 28 3 7 3 3 3 28 3 7 3 3 3 3 28 3
split_gain=200524 121438 116441 12254 11881.3 9227.36 8406.66 9600.76 9238.33 5950.04 4728.39 8880.94 8352.77 8345.61 5407.87 7339.39 4949.71 5049.53 4876.99 4619.57 5121.67 9161.67 6834.45 6669.46 8371.08 9701.25 6809.83 5379 4327.42 7943.81
threshold=23.065000000000001 271.53000000000003 72.015000000000015 36.605000000000011 208.83250000000001 25.705000000000002 74.735000000000014 79.765000000000015 82.545000000000016 206.74500000000003 87.405000000000015 90.905000000000015 95.375000000000014 99.365000000000023 104.08750000000002 108.03250000000001 112.84500000000001 117.41500000000001 122.71500000000002 37.125000000000007 38.502500000000005 39.427500000000002 43.165000000000006 44.065000000000005 45.745000000000012 46.402500000000011 47.995000000000012 48.585000000000008 126.84250000000002 131.40500000000003
decision_type=2 2 8 2 8 2 10 2 2 2 2 10 2 2 2 10 2 10 2 2 2 10 2 10 2 2 2 2 10 2
left_child=-1 2 3 5 6 -2 -4 -8 -9 10 -10 -12 -13 -14 -15 -16 -17 -18 -19 -5 -21 -22 -23 -24 -25 -26 -27 -28 -20 -30
right_child=1 -3 4 19 -6 -7 7 8 9 -11 11 12 13 14 15 16 17 18 28 20 21 22 23 24 25 26 27 -29 29 -31
leaf_value=-1.387420116996027 -0.018320128058649132 15.215794343115665 -0.14202932121418571 -0.0092645134789648871 -0.45839125380816487 0.061315585439591307 0.0046711182389401534 -0.13478220328764792 0.0016982349076272386 0.11962954816760885 -0.16705652575569305 0.0048719005231532726 -0.15495603018162429 0.0030608590017635606 -0.19499251017211777 0.0053419704989295276 -0.24959324818008499 0.021904020680341321 -0.24097473357114155 0.068766403146224772 -0.025720630353758624 0.070832534440710762 -0.0098649819953649867 0.073002504958370198 -0.011086120262882561 0.050356134846904869 -0.016439913088580484 0.015922514954687019 0.11676208267796824 -0.16397076311168918
leaf_weight=213897 9990 126058 18813 4992 64730 110595 30920 20028 29897 4367 20206 28710 19845 29310 18909 20294 11625 12950 10042 9951 8150 31454 9749 15427 9935 15206 5336 190703 9341 156970
leaf_count=213897 9990 126058 18813 4992 64730 110595 30920 20028 29897 4367 20206 28710 19845 29310 18909 20294 11625 12950 10042 9951 8150 31454 9749 15427 9935 15206 5336 190703 9341 156970
internal_value=-0.0108485 0.00705897 -0.00544534 0.0333936 -0.0377363 0.0603284 -0.0318793 -0.0289731 -0.0331995 -0.0296419 -0.0310186 -0.0343883 -0.0303035 -0.0354092 -0.0307997 -0.0357492 -0.030638 -0.0353918 -0.0314633 0.0225996 0.024209 0.0217548 0.0248206 0.0192161 0.022556 0.0175884 0.0221302 0.0171298 -0.0358128 -0.0319636
internal_weight=1.2684e+06 1.0545e+06 928445 421488 506957 120585 442227 423414 392494 372466 368099 338202 317996 289286 269441 240131 221222 200928 189303 300903 295911 285960 277810 246356 236607 221180 211245 196039 176353 166311
internal_count=1268400 1054503 928445 421488 506957 120585 442227 423414 392494 372466 368099 338202 317996 289286 269441 240131 221222 200928 189303 300903 295911 285960 277810 246356 236607 221180 211245 196039 176353 166311
is_linear=0
shrinkage=0.1


Tree=21
num_leaves=31
num_cat=0
split_feature=3 7 7 28 3 28 3 3 7 28 3 3 3 3 3 28 28 3 7 3 7 3 9 3 3 3 3 3 28 7
split_gain=192011 118058 99925.1 11170.8 9186.42 8468.92 8347.05 9451.17 6606.18 6484.81 6096.52 5981.1 7671.13 8003.68 5323.16 4895.76 4426.76 4337.93 6992.88 5101.36 10274.8 4805.38 10512.8 7487.37 6253.32 5332.02 14593.6 5193.26 14282.7 5278.48
threshold=22.295000000000005 284.09500000000008 72.015000000000015 220.46750000000003 43.165000000000006 74.522500000000022 79.765000000000015 82.545000000000016 217.88500000000002 208.83250000000001 25.705000000000002 44.125000000000007 45.745000000000012 46.402500000000011 47.995000000000012 206.78750000000005 70.207500000000024 197.92500000000004 194.45000000000002 187.24500000000003 183.24500000000003 176.48500000000004 173.31500000000003 166.36500000000004 163.80500000000004 157.92500000000004 154.44500000000002 148.66500000000002 144.92250000000004 139.79500000000004
decision_type=2 10 8 8 2 10 2 2 10 10 2 2 2 2 2 10 10 2 10 2 10 2 10 2 2 2 2 2 10 10
left_child=-1 2 4 5 10 -4 -7 -8 9 15 -2 -6 -13 -14 -15 17 -16 18 19 20 21 22 23 24 25 26 27 28 29 -9
right_child=1 -3 3 -5 11 6 7 8 -10 -11 -12 12 13 14 16 -17 -18 -19 -20 -21 -22 -23 -24 -25 -26 -27 -28 -29 -30 -31
leaf_value=-1.2706781319993052 -0.0092884231962379726 15.313715641225976 -0.13682602288183007 -0.50575250684531736 -0.0088036966559364768 0.0038765844701728726 -0.1213039829588837 -0.016511551351689493 0.17944768846718376 -0.40355249463828502 0.049754988297628699 0.067701918769174085 -0.0099775082365944467 0.045320521362214095 0.0076768660914474651 0.11066647128053547 0.042907219941653807 -0.2795744192223964 0.049660271612947331 -0.34387940649400267 0.091335841368959336 -0.41384285948967947 0.12036402985358166 -0.30081631377434803 0.11261455257918557 -0.30365729177758 0.12632784675117534 -0.23365632372775452 0.13628081311306631 -0.27569970141330202
leaf_weight=209099 14788 120077 17651 50522 10162 32082 20028 227930 4180 16009 165142 15014 9935 15206 180878 4238 15161 14585 7341 12977 7131 12252 6973 17001 5141 9915 9854 14899 9248 12981
leaf_count=209099 14788 120077 17651 50522 10162 32082 20028 227930 4180 16009 165142 15014 9935 15206 180878 4238 15161 14585 7341 12977 7131 12252 6973 17001 5141 9915 9854 14899 9248 12981
internal_value=-0.0115626 0.00572368 -0.006213 -0.0359482 0.0295665 -0.0310703 -0.0283743 -0.032194 -0.0287762 -0.0301216 0.0467437 0.0170209 0.0202528 0.0155575 0.0196828 -0.027443 0.0152618 -0.028673 -0.0264688 -0.0285162 -0.0261214 -0.0287173 -0.0263195 -0.0290775 -0.0252959 -0.0272688 -0.0246704 -0.0291129 -0.0256969 -0.0303784
internal_weight=1.2684e+06 1.0593e+06 939224 512938 426286 462416 444765 412683 392655 388475 179930 246356 236194 221180 211245 372466 196039 368228 353643 346302 333325 326194 313942 306969 289968 284827 274912 265058 250159 240911
internal_count=1268400 1059301 939224 512938 426286 462416 444765 412683 392655 388475 179930 246356 236194 221180 211245 372466 196039 368228 353643 346302 333325 326194 313942 306969 289968 284827 274912 265058 250159 240911
is_linear=0
shrinkage=0.1


Tree=22
num_leaves=31
num_cat=0
split_feature=3 3 3 28 3 3 28 28 28 3 3 3 9 3 28 3 28 3 28 3 28 3 7 3 28 3 9 3 3 3
split_gain=186683 109436 85800.2 12529.6 8780.05 7122.65 6648.19 6045.95 5725.78 6168.4 10824.5 5500.8 4757.65 6718.17 6564.86 5983.62 10152.1 6208.27 9948.24 7399.73 5590.13 4210.38 10814.9 8415.92 9922.53 4291.31 8890.96 4472.41 11949.3 5097.47
threshold=21.175000000000004 303.14500000000004 71.302500000000023 220.46750000000003 36.605000000000011 217.54500000000004 70.207500000000024 208.83250000000001 74.522500000000022 79.765000000000015 82.545000000000016 37.125000000000007 205.08000000000001 197.92500000000004 194.0275 187.24500000000003 182.63250000000002 176.48500000000004 172.81250000000003 166.36500000000004 164.56250000000003 87.405000000000015 90.765000000000015 95.375000000000014 99.217500000000015 104.08750000000002 107.22500000000001 157.92500000000004 154.44500000000002 148.66500000000002
decision_type=2 2 2 10 2 2 10 10 10 2 2 2 10 2 10 2 10 2 10 2 10 2 10 2 10 2 10 2 2 2
left_child=-1 2 4 5 -2 7 11 8 -4 -10 -11 -6 13 14 15 16 17 18 19 20 21 -12 -23 -24 -25 -26 -27 28 29 -28
right_child=1 -3 3 -5 6 -7 -8 -9 9 10 12 -13 -14 -15 -16 -17 -18 -19 -20 -21 -22 22 23 24 25 26 27 -29 -30 -31
leaf_value=-1.1606103264287693 0.041044634687229832 15.319844077103376 -0.085143695251849755 -0.4789570413170367 -0.013313560960830985 0.1315026144446847 0.063616497947488429 -0.39794761138539347 0.003488926023155159 -0.1091735846629959 0.0031795665520334641 0.013862171791744517 0.060384060297499792 -0.35361587866734401 0.041195404119622483 -0.33149158791491407 0.07820308120667506 -0.4184577190485243 0.097136640234921856 -0.28373517067816467 0.14285242593454939 -0.15169959597464244 0.0055153954087231232 -0.15080976030954363 0.0039853473727760047 -0.20984216505489428 -0.01763719734239402 -0.25029198984591688 0.11369506207605867 -0.2102906913549788
leaf_weight=203913 130569 111270 22932 59328 4992 4937 9880 15252 32082 20028 29897 280751 7244 11579 8639 11679 8240 11143 8196 15778 3924 19687 29229 18949 30206 15706 106485 11132 9854 14899
leaf_count=203913 130569 111270 22932 59328 4992 4937 9880 15252 32082 20028 29897 280751 7244 11579 8639 11679 8240 11143 8196 15778 3924 19687 29229 18949 30206 15706 106485 11132 9854 14899
internal_value=-0.0114819 0.00530913 -0.00564562 -0.0326252 0.0277171 -0.0271336 0.0181782 -0.0284082 -0.0262981 -0.0236693 -0.0271153 0.0153897 -0.0232644 -0.0248561 -0.022402 -0.024558 -0.0220929 -0.0248713 -0.0222678 -0.0251823 -0.0215534 -0.0231797 -0.0273245 -0.0213956 -0.0284808 -0.021539 -0.0281384 -0.0202613 -0.0150993 -0.0236967
internal_weight=1.2684e+06 1.06449e+06 953217 527025 426192 467697 295623 462760 447508 424576 392494 285743 372466 365222 353643 345004 333325 325085 313942 305746 289968 286044 256147 236460 207231 188282 158076 142370 131238 121384
internal_count=1268400 1064487 953217 527025 426192 467697 295623 462760 447508 424576 392494 285743 372466 365222 353643 345004 333325 325085 313942 305746 289968 286044 256147 236460 207231 188282 158076 142370 131238 121384
is_linear=0
shrinkage=0.1


Tree=23
num_leaves=31
num_cat=0
split_feature=3 7 7 28 3 3 28 28 3 3 7 7 28 3 28 3 3 3 3 3 28 3 28 3 28 3 28 3 9 3
split_gain=178013 100825 76176 11081.1 8736.32 8300.27 6395.4 5924.79 5172.7 4622.53 10511.3 3956.61 3908.2 4023.11 8123.04 6836.81 5716.07 7908 4975.21 7367.05 7120.44 8529.27 4712.17 9375.44 6730.41 9377.49 4567.13 7335.08 9180.53 9096.86
threshold=19.915000000000003 314.11500000000007 72.015000000000015 220.46750000000003 36.605000000000011 74.085000000000022 217.41000000000005 208.83250000000001 37.125000000000007 79.765000000000015 82.495000000000019 207.07500000000002 70.207500000000024 38.502500000000005 39.427500000000002 41.155000000000008 41.695000000000007 43.165000000000006 44.125000000000007 45.745000000000012 46.63750000000001 47.995000000000012 49.022500000000008 49.962500000000013 51.772500000000015 52.612500000000004 53.657500000000006 55.065000000000005 56.505000000000003 58.395000000000003
decision_type=2 10 8 8 2 2 10 10 2 2 10 10 10 2 10 2 2 2 2 2 10 2 10 2 10 2 10 2 10 2
left_child=-1 2 4 5 -2 -4 7 9 -6 -7 -11 -12 13 -10 -15 -16 -17 -18 -19 -20 -21 -22 -23 -24 -25 -26 -27 -28 -29 -30
right_child=1 -3 3 -5 8 6 -8 -9 12 10 11 -13 -14 14 15 16 17 18 19 20 21 22 23 24 25 26 27 28 29 -31
leaf_value=-1.0795492365654333 0.03745077106396124 15.076357594197725 -0.13362929520908723 -0.44581511294216514 -0.011982204864747815 0.0026301380961328393 0.1146528595920131 -0.36940315542263424 0.055528046822664837 -0.10425598205607117 -0.020099355804374854 0.12256074673601347 0.033255061775786035 -0.029510283327319798 0.089387534470124319 -0.037248343711333121 0.061751824135346571 -0.009309544169516926 0.059545509713082367 -0.0089788808573672448 0.058402496187443378 -0.013949947638353423 0.073215867491819617 -0.014351027950449692 0.066648972049550545 -0.014300619285680228 0.058882234942160494 -0.025296567144651762 0.082497481246673499 -0.00082336567089669188
leaf_weight=194003 140479 105371 14705 65228 4992 35028 5187 15002 9951 19197 370081 3216 15161 8150 11689 4968 14797 10162 15014 13416 11725 9184 11337 14081 11217 8984 10802 10627 14770 89876
leaf_count=194003 140479 105371 14705 65228 4992 35028 5187 15002 9951 19197 370081 3216 15161 8150 11689 4968 14797 10162 15014 13416 11725 9184 11337 14081 11217 8984 10802 10627 14770 89876
internal_value=-0.01097 0.0049491 -0.0051526 -0.0307961 0.0255026 -0.0253534 -0.0229253 -0.0242193 0.0158898 -0.0220517 -0.0251581 -0.021447 0.0175928 0.0149222 0.0126274 0.0156783 0.0121964 0.0143411 0.00980514 0.0129506 0.00802208 0.0129287 0.00757085 0.0113038 0.00509052 0.0114469 0.00415004 0.00905889 0.00167515 0.0106683
internal_weight=1.2684e+06 1.0744e+06 969026 527644 441382 462416 447711 442524 300903 427522 392494 373297 295911 280750 270799 262649 250960 245992 231195 221033 206019 192603 180878 171694 160357 146276 135059 126075 115273 104646
internal_count=1268400 1074397 969026 527644 441382 462416 447711 442524 300903 427522 392494 373297 295911 280750 270799 262649 250960 245992 231195 221033 206019 192603 180878 171694 160357 146276 135059 126075 115273 104646
is_linear=0
shrinkage=0.1


Tree=24
num_leaves=31
num_cat=0
split_feature=3 3 7 9 3 3 28 3 3 10 3 3 3 28 3 28 3 9 9 3 9 3 28 3 3 3 3 7 3 28
split_gain=167274 90493.7 68516.5 14764.8 8578.66 8166.1 8241.91 8031.69 4541.18 4435.89 4178.61 8767.79 4744.3 9299.69 10507.1 9060.5 5898.05 8710.06 3989.48 6978.85 5514.22 4538.7 5624.22 6695.62 3663.5 5728.4 3704.84 5955.44 7595.85 5710.12
threshold=19.285000000000004 331.01000000000005 72.015000000000015 244.66500000000002 74.085000000000022 34.352500000000006 35.297500000000007 36.605000000000011 37.125000000000007 10.723849104800642 79.765000000000015 82.165000000000006 87.405000000000015 90.667500000000004 95.375000000000014 99.217500000000015 104.08750000000002 107.22500000000001 33.385000000000012 32.565000000000005 29.445000000000004 28.825000000000003 27.587500000000006 26.965000000000003 112.84500000000001 117.01000000000001 122.71500000000002 127.49500000000002 131.40500000000003 136.01250000000002
decision_type=2 2 8 8 2 2 10 2 2 10 2 2 2 10 2 10 2 10 10 2 10 2 10 2 2 2 2 10 2 10
left_child=-1 2 5 4 -4 18 -7 -8 -9 10 -6 -12 -13 -14 -15 -16 -17 -18 19 20 21 22 23 -2 -19 -26 -27 -28 -29 -30
right_child=1 -3 3 -5 9 6 7 8 -10 -11 11 12 13 14 15 16 17 24 -20 -21 -22 -23 -24 -25 25 26 27 28 29 -31
leaf_value=-0.98359439683222982 0.028401211706869489 17.235723177551392 -0.12026636568817822 -0.51079519978021326 0.0022255204352020995 -0.032479734522937065 0.071340360539318942 -0.01078398437827275 0.011591141847242881 0.0074553506698165966 -0.11983059747351064 0.0034710175231651877 -0.14251988390220874 0.0074801160977912675 -0.13371884869815176 0.0055967482159360316 -0.18684801296896725 0.00573230924067758 0.062194804195118539 -0.01980516528730334 0.061729915704880511 -0.012270061406935895 0.079430063333664702 -0.018727079345841703 -0.26020871618371472 0.019850146779900515 -0.18445278545754179 0.12651105107095476 -0.28544521326451217 -0.089602927090578544
leaf_weight=189053 44777 91968 14705 57914 34878 7942 12106 4992 295911 4130 15053 33186 18322 30591 18949 30206 15706 21209 12345 7906 32410 7566 12762 7615 10198 14374 11487 7896 10135 192108
leaf_count=189053 44777 91968 14705 57914 34878 7942 12106 4992 295911 4130 15053 33186 18322 30591 18949 30206 15706 21209 12345 7906 32410 7566 12762 7615 10198 14374 11487 7896 10135 192108
internal_value=-0.0112739 0.0039245 -0.0049125 -0.0288383 -0.0231189 0.0240906 0.0156363 0.0181889 0.0149759 -0.0207579 -0.0216757 -0.0243794 -0.0216559 -0.0248131 -0.0213033 -0.0264666 -0.0224056 -0.0268871 0.0457318 0.0398369 0.0466508 0.0313614 0.0398748 0.0253741 -0.0226363 -0.0260717 -0.0229008 -0.0260917 -0.0222591 -0.0260157
internal_weight=1.2684e+06 1.07935e+06 987379 541047 483133 446332 320951 313009 300903 468428 464298 429420 414367 381181 362859 332268 313319 283113 125381 113036 105130 72720 65154 52392 267407 246198 236000 221626 210139 202243
internal_count=1268400 1079347 987379 541047 483133 446332 320951 313009 300903 468428 464298 429420 414367 381181 362859 332268 313319 283113 125381 113036 105130 72720 65154 52392 267407 246198 236000 221626 210139 202243
is_linear=0
shrinkage=0.1


Tree=25
num_leaves=31
num_cat=0
split_feature=3 28 7 28 3 3 3 28 3 10 3 7 7 3 3 3 3 3 3 9 3 9 3 7 3 3 28 3 28 3
split_gain=158835 82299.3 62082.7 16505.2 8279.35 7324.36 6338.04 4681.53 5597.18 4338.6 4229.89 4411.72 4155.77 3792.02 3618.01 10308.9 3588.13 8891.14 3947.24 9040.99 8526.43 9047.6 4322.9 8393.09 3562.18 3564.74 7690.66 6789.87 7558.09 11167.8
threshold=17.405000000000005 348.69250000000005 72.015000000000015 256.13750000000005 74.085000000000022 34.352500000000006 34.835000000000008 27.587500000000006 26.965000000000003 10.723849104800642 36.605000000000011 35.335000000000008 17.815000000000001 70.235000000000014 22.295000000000005 25.705000000000002 79.765000000000015 82.165000000000006 87.405000000000015 90.345000000000013 95.375000000000014 98.655000000000015 104.08750000000002 107.105 37.125000000000007 68.015000000000015 66.597500000000011 64.405000000000015 63.062500000000007 61.055000000000007
decision_type=2 10 8 8 2 2 2 10 2 10 2 10 10 2 2 2 2 2 2 10 2 10 2 10 2 2 10 2 10 2
left_child=-1 2 5 4 -4 7 -7 8 12 16 11 -8 -2 24 -14 -16 -6 -18 -19 -20 -21 -22 -23 -24 -12 26 27 28 29 -26
right_child=1 -3 3 -5 9 6 10 -9 -10 -11 13 -13 14 -15 15 -17 17 18 19 20 21 22 23 -25 25 -27 -28 -29 -30 -31
leaf_value=-0.90823491137263945 -0.051234941890217559 21.947651958429066 -0.10823972911936011 -0.54115444788086509 0.0020029683916817477 -0.034231684776698044 -0.0037937060321908689 0.039975339034396033 -0.016854371411257674 0.0067098156028350788 -0.0097055859404456164 0.066206370261754452 0.04470009193406739 0.029770655036529092 -0.019049242622420338 0.060082875395946901 -0.10784753772615972 0.0031239157708483848 -0.16126731567800334 0.0057326538044179644 -0.16334699434591471 0.0038285591900830696 -0.17116308960175816 -0.049285405284553011 0.013289682097176582 -0.011647415722934797 0.10491376375232875 -0.02108644987071813 0.084224262806689154 -0.021553647467826665
leaf_weight=179275 2294 81513 14705 59488 34878 4944 3640 72989 7615 4130 4992 11464 27530 14804 14788 9943 15053 33186 15107 33806 15474 33681 15429 276565 215902 15122 10611 14692 10461 14319
leaf_count=179275 2294 81513 14705 59488 34878 4944 3640 72989 7615 4130 4992 11464 27530 14804 14788 9943 15053 33186 15107 33806 15474 33681 15429 276565 215902 15122 10611 14692 10461 14319
internal_value=-0.0118858 0.00247125 -0.0053473 -0.0279208 -0.0219055 0.0219473 0.0137239 0.0414749 0.0213093 -0.0196286 0.0154816 0.0671213 0.0325195 0.0128895 0.038302 0.0105414 -0.0205193 -0.0229758 -0.0202898 -0.0231066 -0.0200507 -0.0247977 -0.0212479 -0.0251608 0.0103359 0.0118229 0.014508 0.0110418 0.0150705 0.0112931
internal_weight=1.2684e+06 1.08912e+06 1.00761e+06 551502 492014 456110 320951 135159 62170 477309 316007 15104 54555 300903 52261 24731 473179 438301 423248 390062 374955 341149 325675 291994 286099 281107 265985 255374 240682 230221
internal_count=1268400 1089125 1007612 551502 492014 456110 320951 135159 62170 477309 316007 15104 54555 300903 52261 24731 473179 438301 423248 390062 374955 341149 325675 291994 286099 281107 265985 255374 240682 230221
is_linear=0
shrinkage=0.1


Tree=26
num_leaves=31
num_cat=0
split_feature=3 3 3 28 28 3 7 3 3 28 3 28 3 28 7 7 3 28 3 28 3 7 3 9 3 9 3 9 3 9
split_gain=152518 73942.6 54073.8 14643.5 5979.15 5938.61 6723.34 5534.94 6096.01 8138.86 7325.96 5270.6 5980.87 5251.99 5634.19 4910.71 12663.2 4865.51 9326.46 6748.08 9611.71 5128.45 6342.44 9015.4 7922.42 9755.1 6145.15 8517.17 4886.48 5853.14
threshold=16.942500000000006 380.49500000000006 71.302500000000023 220.46750000000003 217.41000000000005 43.165000000000006 70.27500000000002 44.125000000000007 45.745000000000012 46.63750000000001 47.995000000000012 42.002500000000005 41.155000000000008 208.83250000000001 73.955000000000013 39.600000000000009 38.502500000000005 49.022500000000008 49.962500000000013 51.772500000000015 52.612500000000004 53.745000000000012 55.065000000000005 56.505000000000003 58.395000000000003 59.285000000000004 61.055000000000007 62.495000000000012 64.405000000000015 66.105000000000004
decision_type=2 2 2 10 10 2 10 2 2 10 2 10 2 10 10 10 2 10 2 10 2 10 2 10 2 10 2 10 2 10
left_child=-1 2 5 4 13 11 7 -7 -9 -10 -11 12 15 14 -4 16 -2 -12 -19 -20 -21 -22 -23 -24 -25 -26 -27 -28 -29 -30
right_child=1 -3 3 -5 -6 6 -8 8 9 10 17 -13 -14 -15 -16 -17 -18 18 19 20 21 22 23 24 25 26 27 28 29 -31
leaf_value=-0.83141145456765109 0.022855643492848899 21.635387983289288 -0.069415878277736459 -0.41003704996778084 0.11707640687032494 -0.01086667214700654 0.056793131769204308 0.051102876347332682 -0.010569075166071685 0.050074164174257876 -0.01504303526895967 0.070088376221901436 -0.021911440672629824 -0.31857400664285651 -0.010716206556185172 0.083960835957771707 -0.026047077989615277 0.063406198348196344 -0.015404007549846456 0.057495992450154181 -0.015200775006201185 0.054505639136510811 -0.025254992824628175 0.071759650727564406 -0.025481911644696709 0.077139657468825368 -0.022983959933385024 0.058801638161762072 -0.022055787186816646 0.0072640184497771544
leaf_weight=174266 175159 72638 18958 97960 5187 10162 8881 15014 13417 11725 9184 11612 8157 15002 428550 10617 9218 11337 14081 11217 9925 9861 10627 14770 10921 14107 10765 14015 11074 29993
leaf_count=174266 175159 72638 18958 97960 5187 10162 8881 15014 13417 11725 9184 11612 8157 15002 428550 10617 9218 11337 14081 11217 9925 9861 10627 14770 10921 14107 10765 14015 11074 29993
internal_value=-0.0122212 0.00161772 -0.00531456 -0.0259686 -0.018605 0.0203153 0.00954222 0.00627619 0.00957921 0.00511692 0.0103367 0.0324083 0.0286629 -0.0198024 -0.0178513 0.0321723 0.0283642 0.0053976 0.00916945 0.00300949 0.00933288 0.00199768 0.00744373 0.000913376 0.0097449 -0.00129519 0.0108137 -0.00201832 0.0138811 -0.00351864
internal_weight=1.2684e+06 1.09413e+06 1.0215e+06 565657 467697 455839 241076 232195 222033 207019 193602 214763 203151 462510 447508 194994 184377 181877 172693 161356 147275 136058 126133 116272 105645 90875 79954 65847 55082 41067
internal_count=1268400 1094134 1021496 565657 467697 455839 241076 232195 222033 207019 193602 214763 203151 462510 447508 194994 184377 181877 172693 161356 147275 136058 126133 116272 105645 90875 79954 65847 55082 41067
is_linear=0
shrinkage=0.1


Tree=27
num_leaves=31
num_cat=0
split_feature=3 3 7 3 28 28 3 28 3 3 3 3 3 9 3 9 3 28 3 7 3 9 3 3 7 7 3 3 3 28
split_gain=148973 68520.2 45742.4 12295.8 9142.11 7351.02 5901.39 9366.09 7340.78 10217.6 6329.21 5781.75 5212.63 7253.82 7235.56 5541.51 6221.28 5497.97 5981.07 6489.28 5096.75 13207.1 8531.96 12034.5 5419.94 6370.41 6346.95 6005.44 5009.73 4603.11
threshold=16.245000000000001 396.29500000000007 72.015000000000015 197.92500000000004 73.822500000000005 194.0275 187.24500000000003 182.63250000000002 176.48500000000004 172.55500000000004 166.36500000000004 163.80500000000004 34.352500000000006 35.32500000000001 36.605000000000011 33.385000000000012 32.565000000000005 29.437500000000004 28.825000000000003 27.605000000000004 157.92500000000004 153.71500000000003 148.66500000000002 144.74500000000003 139.79500000000004 136.60500000000005 131.40500000000003 129.14500000000001 26.965000000000003 26.137500000000003
decision_type=2 2 8 2 10 10 2 10 2 2 2 2 2 10 2 10 2 10 2 10 2 10 2 2 10 10 2 2 2 10
left_child=-1 2 12 4 -4 6 7 8 9 10 11 20 15 -14 -15 16 17 18 19 28 21 22 23 24 25 26 27 -6 29 -2
right_child=1 -3 3 -5 5 -7 -8 -9 -10 -11 -12 -13 13 14 -16 -17 -18 -19 -20 -21 -22 -23 -24 -25 -26 -27 -28 -29 -30 -31
leaf_value=-0.76027029766679421 0.010302939121394062 20.830845766991612 -0.099473802168712669 -0.30271544631060299 -0.0063379602767611237 0.054046253181229534 -0.28137203964985247 0.087353162559577424 -0.35964155767010197 0.094384553734315091 -0.2723908979258397 0.10853806109591631 -0.027800644954572108 0.055300123109927317 0.0064255849104192467 0.049692225522882438 -0.024107747011297677 0.049273825881667933 -0.016326130630783097 0.066703897712417512 -0.23129197414166072 0.091312507284968092 -0.22329068342950509 0.13740650958866923 -0.24039568309931952 0.18451554580440188 -0.21089961522664 0.18282944439033316 -0.015954559654572976 0.065788962471911114
leaf_weight=169339 56874 67708 12593 141902 263572 8639 11679 8240 11143 9405 14569 5141 8208 11840 300903 12345 7906 32312 7664 12284 9915 12524 12229 9684 12545 4990 11811 4726 8093 7617
leaf_count=169339 56874 67708 12593 141902 263572 8639 11679 8240 11143 9405 14569 5141 8208 11840 300903 12345 7906 32312 7664 12284 9915 12524 12229 9684 12545 4990 11811 4726 8093 7617
